svm_type c_svc
kernel_type rbf
gamma 3.0517578125E-5
nr_class 2
total_sv 1163
rho 1.6454902334076524
label 1 2
nr_sv 546 617
SV
86.77687184335383 12:5.5136807305432844 15:2.1972245773362196 20:2.813080083594518 30:7.6953410269953935 274:5.529429087511423 333:17.998298150271477 
128.0 4:3.434452834730976 15:4.394449154672439 17:3.0137507790566693 50:1.8128128784258872 88:4.430816798843313 129:4.775657285135043 196:4.900820428089049 498:6.51025834052315 
128.0 12:5.5136807305432844 17:3.0137507790566693 107:36.905106845098146 
128.0 2:1.7007876910223283 4:1.717226417365488 823:55.32578758905051 
128.0 84:4.564348191467836 236:5.4116460518550396 
128.0 0:1.2152798752406275 15:2.1972245773362196 
128.0 2:1.7007876910223283 14:2.7885890635862225 32:28.812299551670307 59:4.02535169073515 222:5.306285536197214 
17.987308528651237 0:9.72223900192502 1:1.5976034547870976 3:3.650090893723043 5:1.8436795264064147 17:3.0137507790566693 19:3.1429625105366754 75:4.207673247529104 104:4.5178281758329435 431:47.99546173405727 
128.0 2:1.7007876910223283 4:1.717226417365488 24:3.2913825156549485 210:5.210975356392889 
51.17829694476205 1:1.5976034547870976 8:15.878824984031366 23:3.166219372700943 37:3.7376696182833684 156:4.969813299576001 391:5.999432716757159 
0.4188288733373985 0:13.368078627646902 2:3.4015753820446566 3:14.600363574892173 4:1.717226417365488 5:3.6873590528128295 11:2.515120428384497 15:13.183347464017316 17:3.0137507790566693 23:18.997316236205656 43:3.657626910609832 77:4.207673247529104 157:38.690255255611824 223:5.210975356392889 234:43.293168414840316 249:33.977762880815675 439:5.999432716757159 986:55.32578758905051 
128.0 1:1.5976034547870976 63:4.02535169073515 131:4.836281906951478 275:5.4116460518550396 
107.12365072714134 0:9.72223900192502 19:3.1429625105366754 191:5.043921271729722 
128.0 0:2.430559750481255 5:1.8436795264064147 6:2.145038824165649 8:1.9848531230039208 
128.0 0:1.2152798752406275 2:1.7007876910223283 196:4.900820428089049 
100.02178571164428 2:1.7007876910223283 22:1.6686993764708278 179:4.47337641326211 236:5.4116460518550396 412:5.817111159963204 
128.0 20:2.813080083594518 47:19.12340497636499 
128.0 6:2.145038824165649 8:1.9848531230039208 
128.0 2:1.7007876910223283 6:17.160310593325192 94:4.350774091169777 100:4.564348191467836 481:6.222576268071369 
128.0 0:9.72223900192502 25:3.374764124594 421:5.999432716757159 662:6.51025834052315 
115.04141780756414 15:2.1972245773362196 19:6.285925021073351 34:18.28813455304916 514:6.222576268071369 
128.0 2:1.7007876910223283 13:2.2289732756508 93:4.3899948043230586 221:5.210975356392889 
128.0 1:1.5976034547870976 11:2.515120428384497 36:3.6770449964669334 
128.0 0:1.2152798752406275 22:1.6686993764708278 24:3.2913825156549485 
5.242476704741682 5:1.8436795264064147 6:17.160310593325192 7:2.006751808311558 10:2.6816169440340545 12:2.7568403652716422 14:2.7885890635862225 21:3.1545233329377513 32:28.812299551670307 44:3.919991175077323 71:4.207673247529104 97:4.47337641326211 182:5.043921271729722 405:59.99432716757159 468:5.999432716757159 
128.0 4:1.717226417365488 11:2.515120428384497 113:4.664431650024818 880:6.915723448631314 
128.0 0:1.2152798752406275 6:2.145038824165649 8:1.9848531230039208 62:3.9979527165470348 431:5.999432716757159 
36.25445790984634 3:1.8250454468615216 26:16.66102255087602 44:3.919991175077323 97:4.47337641326211 151:38.690255255611824 791:6.915723448631314 
128.0 0:3.645839625721883 36:3.6770449964669334 
84.39194953733924 3:1.8250454468615216 154:4.836281906951478 
128.0 0:1.2152798752406275 8:15.878824984031366 14:2.7885890635862225 
128.0 3:14.600363574892173 102:4.430816798843313 
128.0 0:9.72223900192502 6:2.145038824165649 143:5.123963979403259 
128.0 0:2.430559750481255 8:3.9697062460078416 
128.0 8:15.878824984031366 14:2.7885890635862225 27:3.449987545831587 180:4.5178281758329435 437:5.999432716757159 
128.0 7:2.006751808311558 43:7.315253821219664 141:4.775657285135043 515:4.430816798843313 
128.0 15:2.1972245773362196 27:3.449987545831587 143:5.123963979403259 
128.0 3:32.85081804350739 208:52.10975356392889 282:5.529429087511423 570:6.222576268071369 
124.12057458068527 311:5.529429087511423 371:5.999432716757159 
61.9810627854646 1:1.5976034547870976 21:25.23618666350201 123:4.718498871295094 323:5.662960480135946 514:6.222576268071369 
13.594178479163345 0:9.72223900192502 8:15.878824984031366 19:3.1429625105366754 144:38.20525828108035 220:41.68780285114311 
128.0 41:3.7802292327021645 58:3.945308983061613 157:4.836281906951478 440:5.999432716757159 
128.0 14:2.7885890635862225 37:3.7376696182833684 
128.0 3:16.425409021753694 8:3.9697062460078416 9:2.330755969960742 27:3.449987545831587 56:7.06266637057108 
128.0 0:2.430559750481255 3:1.8250454468615216 19:3.1429625105366754 
128.0 12:2.7568403652716422 17:3.0137507790566693 39:3.8022081394209395 143:5.123963979403259 
128.0 2:3.4015753820446566 3:3.650090893723043 6:8.580155296662596 8:5.954559369011762 10:26.816169440340545 15:2.1972245773362196 20:5.626160167189036 22:5.006098129412483 24:6.582765031309897 63:4.02535169073515 73:4.207673247529104 117:4.775657285135043 199:5.123963979403259 282:5.529429087511423 679:6.51025834052315 
128.0 3:1.8250454468615216 4:1.717226417365488 
27.395136621562965 4:3.434452834730976 16:3.1202342594591195 20:2.813080083594518 22:1.6686993764708278 51:3.871201010907891 56:3.53133318528554 120:4.613138355637268 239:5.529429087511423 357:46.53688927970563 
128.0 0:1.2152798752406275 
128.0 0:9.72223900192502 4:1.717226417365488 
128.0 9:2.330755969960742 89:4.350774091169777 
128.0 0:1.2152798752406275 4:1.717226417365488 455:5.999432716757159 
128.0 3:1.8250454468615216 7:2.006751808311558 12:5.5136807305432844 19:3.1429625105366754 73:4.207673247529104 
128.0 10:2.6816169440340545 51:3.871201010907891 89:4.350774091169777 
128.0 0:1.2152798752406275 1:3.1952069095741953 2:1.7007876910223283 19:3.1429625105366754 39:3.8022081394209395 
128.0 1:1.5976034547870976 3:14.600363574892173 8:17.863678107035287 9:2.330755969960742 58:31.562471864492903 314:5.529429087511423 
128.0 36:7.354089992933867 
112.22165289729045 21:25.23618666350201 26:3.332204510175204 223:5.210975356392889 
128.0 3:18.250454468615217 10:29.4977863843746 12:5.5136807305432844 24:3.2913825156549485 190:5.043921271729722 
5.909593983391318 1:1.5976034547870976 3:3.650090893723043 4:1.717226417365488 19:3.1429625105366754 40:38.24680995272998 76:8.55333223803211 690:110.65157517810103 
32.65782857740226 0:1.2152798752406275 6:2.145038824165649 8:17.863678107035287 739:11.998865433514318 
128.0 1:1.5976034547870976 2:6.803150764089313 3:1.8250454468615216 187:5.123963979403259 
128.0 1:1.5976034547870976 35:3.6770449964669334 37:3.7376696182833684 48:3.945308983061613 81:4.3899948043230586 403:5.817111159963204 
128.0 8:1.9848531230039208 27:3.449987545831587 47:3.824680995272998 
26.650629658114344 2:1.7007876910223283 157:4.836281906951478 260:5.529429087511423 538:6.222576268071369 618:52.0820667241852 686:6.51025834052315 900:6.915723448631314 
128.0 0:1.2152798752406275 7:2.006751808311558 9:18.646047759685935 92:4.31303376318693 176:25.619819897016292 385:5.817111159963204 
128.0 4:3.434452834730976 17:3.0137507790566693 466:5.999432716757159 
128.0 0:9.72223900192502 26:3.332204510175204 
58.59997888240881 1:1.5976034547870976 4:1.717226417365488 6:2.145038824165649 66:4.02535169073515 125:4.900820428089049 145:4.900820428089049 209:4.613138355637268 798:6.915723448631314 
94.43294333047892 1:1.5976034547870976 4:1.717226417365488 23:3.166219372700943 61:4.02535169073515 92:4.31303376318693 97:4.47337641326211 140:4.836281906951478 151:4.836281906951478 708:6.51025834052315 754:6.915723448631314 
128.0 0:1.2152798752406275 26:3.332204510175204 28:3.497996765017948 50:1.8128128784258872 134:4.718498871295094 163:4.969813299576001 
7.255762148187499 6:17.160310593325192 583:49.78061014457095 628:6.915723448631314 
84.66003999873925 0:1.2152798752406275 4:1.717226417365488 7:2.006751808311558 17:3.0137507790566693 18:3.0341596506878763 22:1.6686993764708278 59:4.02535169073515 209:4.613138355637268 461:10.823292103710079 
128.0 55:3.9712844694648735 72:4.174883424706113 225:5.306285536197214 
128.0 7:2.006751808311558 
128.0 1:1.5976034547870976 64:4.082510104575098 
128.0 18:3.0341596506878763 265:5.529429087511423 
128.0 87:35.44653439074651 
25.81592160915473 0:1.2152798752406275 968:6.915723448631314 
69.88045896144084 1:1.5976034547870976 6:2.145038824165649 37:3.7376696182833684 124:4.718498871295094 218:5.210975356392889 254:5.306285536197214 311:5.529429087511423 396:5.817111159963204 407:5.529429087511423 
128.0 6:2.145038824165649 
108.9831570653609 46:3.8022081394209395 208:41.68780285114311 
128.0 0:9.72223900192502 5:1.8436795264064147 137:4.775657285135043 163:4.969813299576001 271:5.4116460518550396 
62.40657884308058 3:1.8250454468615216 4:1.717226417365488 43:36.57626910609832 133:5.043921271729722 372:5.817111159963204 933:6.915723448631314 
105.17947714900986 0:1.2152798752406275 1:4.7928103643612925 2:3.4015753820446566 4:8.58613208682744 22:1.6686993764708278 34:29.261015284878656 226:16.234938155565118 320:5.662960480135946 419:38.690255255611824 885:6.915723448631314 
128.0 59:4.02535169073515 
128.0 6:2.145038824165649 96:9.035656351665887 170:5.306285536197214 
12.951940332322351 44:3.919991175077323 188:5.043921271729722 
128.0 0:10.937518877165648 1:4.7928103643612925 3:14.600363574892173 20:2.813080083594518 44:3.919991175077323 422:6.222576268071369 469:6.222576268071369 
128.0 6:2.145038824165649 
128.0 131:4.836281906951478 
128.0 0:6.076399376203137 1:3.1952069095741953 
128.0 5:1.8436795264064147 37:29.901356946266947 54:4.053522567701846 55:3.9712844694648735 162:4.969813299576001 202:5.123963979403259 455:5.999432716757159 
6.67462901056269 5:1.8436795264064147 7:2.006751808311558 9:4.661511939921484 13:2.2289732756508 26:9.996613530525611 95:4.350774091169777 236:5.4116460518550396 905:69.15723448631314 
29.135388850208788 2:1.7007876910223283 42:31.359929400618583 73:4.207673247529104 
13.35239828093953 1:1.5976034547870976 4:1.717226417365488 207:5.210975356392889 231:5.210975356392889 283:5.662960480135946 338:45.30368384108757 986:6.915723448631314 
128.0 0:1.2152798752406275 
15.563180587610248 19:3.1429625105366754 59:4.02535169073515 949:6.915723448631314 
0.042397357598298435 0:1.2152798752406275 315:5.662960480135946 
128.0 7:4.013503616623116 46:3.8022081394209395 526:6.222576268071369 
104.63789431886437 0:1.2152798752406275 5:1.8436795264064147 7:2.006751808311558 9:2.330755969960742 26:26.65763608140163 32:28.812299551670307 119:9.672563813902956 370:5.817111159963204 
128.0 4:1.717226417365488 7:2.006751808311558 35:3.6770449964669334 
105.55069060195628 5:1.8436795264064147 28:3.497996765017948 77:4.207673247529104 224:5.210975356392889 284:5.529429087511423 
128.0 0:2.430559750481255 11:2.515120428384497 28:27.983974120143586 109:4.47337641326211 
128.0 0:1.2152798752406275 12:2.7568403652716422 
128.0 1:3.1952069095741953 2:1.7007876910223283 13:2.2289732756508 19:3.1429625105366754 20:2.813080083594518 21:3.1545233329377513 26:26.65763608140163 940:6.915723448631314 
128.0 2:1.7007876910223283 3:18.250454468615217 17:3.0137507790566693 24:3.2913825156549485 
20.88323765955416 0:1.2152798752406275 4:3.434452834730976 7:2.006751808311558 28:3.497996765017948 34:3.657626910609832 63:4.02535169073515 79:3.871201010907891 101:9.035656351665887 164:5.123963979403259 179:4.47337641326211 286:5.529429087511423 367:5.817111159963204 383:5.817111159963204 390:5.817111159963204 393:29.08555579981602 468:5.999432716757159 483:6.222576268071369 546:13.0205166810463 548:6.222576268071369 565:6.222576268071369 586:6.222576268071369 644:6.51025834052315 645:6.51025834052315 755:6.915723448631314 841:6.915723448631314 916:6.915723448631314 927:69.15723448631314 
46.91063038121864 27:3.449987545831587 67:4.241574799204785 504:6.222576268071369 519:6.222576268071369 956:6.915723448631314 
41.1334340219538 0:1.2152798752406275 50:1.8128128784258872 82:4.350774091169777 150:5.123963979403259 231:5.210975356392889 368:5.817111159963204 420:19.530775021569447 490:6.222576268071369 527:6.222576268071369 
128.0 7:2.006751808311558 93:4.3899948043230586 365:5.817111159963204 
128.0 4:1.717226417365488 85:4.430816798843313 93:4.3899948043230586 152:5.123963979403259 
111.52432476718526 1:1.5976034547870976 8:1.9848531230039208 100:4.564348191467836 195:5.210975356392889 
96.89478652569267 2:3.4015753820446566 4:1.717226417365488 5:5.531038579219244 7:2.006751808311558 14:2.7885890635862225 119:48.36281906951478 128:4.836281906951478 170:5.306285536197214 278:5.529429087511423 373:5.817111159963204 395:5.999432716757159 558:6.222576268071369 755:6.915723448631314 828:6.915723448631314 897:6.915723448631314 
128.0 5:1.8436795264064147 7:2.006751808311558 37:29.901356946266947 
23.287708105747082 1:1.5976034547870976 8:1.9848531230039208 32:28.812299551670307 38:3.7376696182833684 84:4.564348191467836 92:34.50427010549544 181:10.823292103710079 192:44.23543270009139 568:6.222576268071369 928:6.915723448631314 
22.414654850450695 3:1.8250454468615216 416:5.999432716757159 
128.0 8:1.9848531230039208 61:4.02535169073515 
128.0 3:18.250454468615217 4:1.717226417365488 
128.0 5:5.531038579219244 56:3.53133318528554 100:9.128696382935672 
59.77051712652561 270:5.4116460518550396 998:6.915723448631314 
128.0 2:1.7007876910223283 9:4.661511939921484 17:3.0137507790566693 
128.0 0:1.2152798752406275 69:33.399067397648906 209:4.613138355637268 
66.5988233123648 3:14.600363574892173 46:19.011040697104697 
128.0 0:1.2152798752406275 
128.0 0:1.2152798752406275 
128.0 2:1.7007876910223283 4:1.717226417365488 11:2.515120428384497 32:28.812299551670307 208:5.210975356392889 
128.0 2:1.7007876910223283 5:1.8436795264064147 
128.0 4:1.717226417365488 15:2.1972245773362196 17:6.027501558113339 32:3.6015374439587884 125:4.900820428089049 750:6.915723448631314 
128.0 2:1.7007876910223283 5:14.749436211251318 13:2.2289732756508 
20.86969709017588 8:1.9848531230039208 9:4.661511939921484 209:4.613138355637268 
128.0 15:2.1972245773362196 18:3.0341596506878763 213:5.123963979403259 
67.71517448752402 1:1.5976034547870976 7:2.006751808311558 218:5.210975356392889 685:6.51025834052315 719:6.51025834052315 
128.0 0:2.430559750481255 1:1.5976034547870976 5:1.8436795264064147 9:2.330755969960742 65:4.112363067724779 
1.3905906705281503 1:1.5976034547870976 2:1.7007876910223283 5:1.8436795264064147 7:2.006751808311558 21:3.1545233329377513 40:30.597447962183985 44:62.719858801237166 138:4.775657285135043 220:5.210975356392889 684:6.51025834052315 697:6.51025834052315 774:6.915723448631314 837:55.32578758905051 
64.9189406554175 0:1.2152798752406275 8:1.9848531230039208 58:3.945308983061613 68:4.053522567701846 151:4.836281906951478 795:6.915723448631314 871:6.915723448631314 
128.0 3:14.600363574892173 15:2.1972245773362196 90:3.8022081394209395 127:4.900820428089049 378:5.817111159963204 401:5.999432716757159 
128.0 30:3.8476705134976967 40:19.12340497636499 224:5.210975356392889 
128.0 1:1.5976034547870976 12:2.7568403652716422 20:2.813080083594518 27:3.449987545831587 37:3.7376696182833684 55:39.71284469464874 58:3.945308983061613 64:4.082510104575098 72:4.174883424706113 131:4.836281906951478 465:5.999432716757159 
128.0 0:2.430559750481255 15:2.1972245773362196 63:4.02535169073515 64:4.082510104575098 575:6.222576268071369 
128.0 0:9.72223900192502 1:1.5976034547870976 13:2.2289732756508 35:3.6770449964669334 84:4.564348191467836 
128.0 9:4.661511939921484 12:5.5136807305432844 18:3.0341596506878763 68:4.053522567701846 124:4.718498871295094 238:5.529429087511423 
92.81568150196274 3:1.8250454468615216 39:3.8022081394209395 102:4.430816798843313 133:5.043921271729722 162:4.969813299576001 171:5.043921271729722 
128.0 6:2.145038824165649 
128.0 0:1.2152798752406275 1:1.5976034547870976 4:1.717226417365488 5:1.8436795264064147 6:2.145038824165649 14:2.7885890635862225 59:4.02535169073515 145:4.900820428089049 207:5.210975356392889 568:6.222576268071369 602:10.421950712785778 
128.0 0:1.2152798752406275 
128.0 3:14.600363574892173 155:39.758506396608006 284:5.529429087511423 637:6.51025834052315 
128.0 0:1.2152798752406275 1:1.5976034547870976 2:1.7007876910223283 3:9.125227234307609 5:1.8436795264064147 9:4.661511939921484 29:7.790597124973903 55:19.85642234732437 77:4.207673247529104 93:4.3899948043230586 230:5.210975356392889 767:6.915723448631314 
1.3006904202825562 5:1.8436795264064147 49:4.082510104575098 780:55.32578758905051 
128.0 0:1.2152798752406275 1:3.1952069095741953 4:1.717226417365488 5:3.6873590528128295 26:3.332204510175204 30:3.8476705134976967 57:4.02535169073515 178:4.969813299576001 302:5.529429087511423 375:5.817111159963204 481:6.222576268071369 
128.0 0:15.798638378128159 2:1.7007876910223283 5:1.8436795264064147 12:5.5136807305432844 93:4.3899948043230586 142:7.354089992933867 193:5.306285536197214 206:5.210975356392889 236:5.4116460518550396 
88.79134799435266 27:3.449987545831587 214:44.23543270009139 879:6.915723448631314 
8.019615458223383 102:4.430816798843313 131:38.690255255611824 302:5.529429087511423 
128.0 2:5.102363073066985 4:3.434452834730976 27:3.449987545831587 121:4.969813299576001 148:4.836281906951478 238:5.529429087511423 264:5.662960480135946 537:6.222576268071369 814:6.915723448631314 829:6.915723448631314 895:6.915723448631314 901:6.915723448631314 
128.0 7:2.006751808311558 168:9.801640856178098 
38.818208045469106 954:6.915723448631314 
105.55076771555795 2:3.4015753820446566 4:1.717226417365488 611:13.831446897262628 
128.0 0:10.937518877165648 8:15.878824984031366 
128.0 0:2.430559750481255 1:1.5976034547870976 6:2.145038824165649 7:2.006751808311558 11:2.515120428384497 39:3.8022081394209395 112:4.3899948043230586 176:5.123963979403259 428:5.999432716757159 
128.0 0:1.2152798752406275 
128.0 4:1.717226417365488 5:1.8436795264064147 103:4.47337641326211 
60.3915698762236 8:1.9848531230039208 541:6.222576268071369 
128.0 0:1.2152798752406275 5:1.8436795264064147 18:3.0341596506878763 476:3.0762711360380033 
65.07223916574532 502:12.445152536142738 
128.0 8:1.9848531230039208 86:8.415346495058207 
128.0 0:12.152798752406275 49:4.082510104575098 218:5.210975356392889 
18.136699393631837 2:1.7007876910223283 30:3.8476705134976967 44:31.359929400618583 177:4.969813299576001 179:35.78701130609688 
128.0 1:1.5976034547870976 4:3.434452834730976 8:3.9697062460078416 15:2.1972245773362196 210:5.210975356392889 620:6.51025834052315 854:6.915723448631314 
72.12950063052249 2:1.7007876910223283 9:2.330755969960742 19:3.1429625105366754 44:31.359929400618583 66:4.02535169073515 137:4.775657285135043 145:9.801640856178098 273:5.4116460518550396 
63.14826021914548 2:1.7007876910223283 4:1.717226417365488 5:3.6873590528128295 45:38.71201010907891 52:4.053522567701846 59:4.02535169073515 103:4.47337641326211 227:5.210975356392889 
128.0 7:2.006751808311558 66:4.02535169073515 74:4.241574799204785 118:4.613138355637268 
101.99653790845957 4:1.717226417365488 6:10.725194120828245 35:3.6770449964669334 734:6.51025834052315 
128.0 5:1.8436795264064147 7:4.013503616623116 9:4.661511939921484 20:2.813080083594518 24:3.2913825156549485 39:7.604416278841879 59:4.02535169073515 64:8.165020209150196 186:10.823292103710079 547:6.222576268071369 620:6.51025834052315 816:6.915723448631314 
128.0 47:30.597447962183985 
106.34134672867741 0:13.368078627646902 17:6.027501558113339 56:3.53133318528554 61:4.02535169073515 73:4.207673247529104 80:4.3899948043230586 115:4.664431650024818 173:4.900820428089049 245:10.421950712785778 305:5.662960480135946 386:5.817111159963204 775:6.915723448631314 
128.0 1:3.1952069095741953 2:1.7007876910223283 837:6.915723448631314 
128.0 3:14.600363574892173 510:6.222576268071369 850:6.915723448631314 
110.91680264631133 2:5.102363073066985 15:2.1972245773362196 39:3.8022081394209395 57:4.02535169073515 163:4.969813299576001 960:6.915723448631314 
102.99985545363113 1:1.5976034547870976 3:18.250454468615217 4:1.717226417365488 8:15.878824984031366 9:2.330755969960742 14:2.7885890635862225 17:3.0137507790566693 19:25.143700084293403 26:26.65763608140163 45:3.871201010907891 120:4.613138355637268 165:5.123963979403259 550:6.222576268071369 599:6.51025834052315 
57.3277536568113 1:3.1952069095741953 3:14.600363574892173 5:1.8436795264064147 6:6.435116472496947 11:2.515120428384497 12:5.5136807305432844 41:60.48366772323463 42:3.919991175077323 243:42.45028428957771 
128.0 51:3.871201010907891 762:6.915723448631314 
54.94235953522853 0:1.2152798752406275 2:6.803150764089313 8:15.878824984031366 10:2.6816169440340545 21:3.1545233329377513 116:39.20656342471239 214:5.529429087511423 500:5.999432716757159 608:4.276666119016055 
18.241029010120034 0:1.2152798752406275 33:3.824680995272998 69:4.174883424706113 211:5.123963979403259 219:41.68780285114311 335:46.53688927970563 
128.0 6:4.290077648331298 9:4.661511939921484 87:35.44653439074651 
11.218627176639034 4:1.717226417365488 6:4.290077648331298 7:2.006751808311558 11:2.515120428384497 12:2.7568403652716422 76:4.276666119016055 500:5.999432716757159 984:55.32578758905051 
42.93742031859111 0:1.2152798752406275 2:1.7007876910223283 55:3.9712844694648735 109:4.47337641326211 279:45.30368384108757 520:6.222576268071369 
128.0 1:1.5976034547870976 3:1.8250454468615216 5:7.374718105625659 8:1.9848531230039208 9:2.330755969960742 16:3.1202342594591195 37:29.901356946266947 69:37.573950822355016 71:4.207673247529104 353:5.662960480135946 533:6.222576268071369 
128.0 6:2.145038824165649 
128.0 0:1.2152798752406275 80:4.3899948043230586 
128.0 8:1.9848531230039208 128:4.836281906951478 
100.46069410018421 2:1.7007876910223283 150:5.123963979403259 277:5.306285536197214 
76.08401736711579 49:4.082510104575098 185:25.219606358648612 199:5.123963979403259 443:6.222576268071369 
128.0 4:1.717226417365488 6:2.145038824165649 42:31.359929400618583 51:3.871201010907891 79:3.871201010907891 
21.86452936565515 2:1.7007876910223283 3:1.8250454468615216 5:5.531038579219244 227:5.210975356392889 
128.0 1:1.5976034547870976 19:3.1429625105366754 
128.0 0:13.368078627646902 4:3.434452834730976 5:1.8436795264064147 9:2.330755969960742 11:2.515120428384497 17:3.0137507790566693 47:3.824680995272998 57:4.02535169073515 276:5.529429087511423 
128.0 5:1.8436795264064147 12:2.7568403652716422 68:4.053522567701846 918:6.915723448631314 
53.05925126865195 158:39.20656342471239 296:5.529429087511423 
128.0 3:18.250454468615217 4:1.717226417365488 14:2.7885890635862225 153:4.775657285135043 540:6.51025834052315 
128.0 0:1.2152798752406275 155:4.969813299576001 210:5.210975356392889 348:5.662960480135946 551:6.222576268071369 
128.0 65:4.112363067724779 
19.798072831070257 3:20.075499915476737 6:2.145038824165649 42:31.359929400618583 71:33.66138598023283 
7.221563741449233 4:1.717226417365488 412:46.53688927970563 
128.0 3:20.075499915476737 58:3.945308983061613 62:3.9979527165470348 
28.17914033021027 2:1.7007876910223283 14:2.7885890635862225 17:3.0137507790566693 248:44.23543270009139 307:5.529429087511423 
128.0 3:5.475136340584565 6:2.145038824165649 8:1.9848531230039208 11:2.515120428384497 20:2.813080083594518 100:4.564348191467836 116:4.900820428089049 310:5.817111159963204 
128.0 3:1.8250454468615216 14:2.7885890635862225 76:4.276666119016055 
128.0 0:3.645839625721883 2:1.7007876910223283 5:1.8436795264064147 6:2.145038824165649 28:3.497996765017948 35:3.6770449964669334 68:4.053522567701846 205:5.306285536197214 589:6.51025834052315 
128.0 3:1.8250454468615216 6:2.145038824165649 14:5.577178127172445 
33.97447966878399 0:2.430559750481255 12:2.7568403652716422 26:3.332204510175204 43:3.657626910609832 63:4.02535169073515 218:5.210975356392889 332:5.999432716757159 336:45.30368384108757 
103.57931058889515 89:39.15696682052799 
128.0 5:1.8436795264064147 9:2.330755969960742 20:2.813080083594518 
8.103367054522938 8:1.9848531230039208 12:2.7568403652716422 20:2.813080083594518 374:46.53688927970563 
128.0 2:1.7007876910223283 11:2.515120428384497 41:3.7802292327021645 248:5.529429087511423 
128.0 1:1.5976034547870976 8:1.9848531230039208 14:2.7885890635862225 32:28.812299551670307 
128.0 3:14.600363574892173 4:1.717226417365488 8:1.9848531230039208 10:5.363233888068109 11:2.515120428384497 31:4.02535169073515 62:3.9979527165470348 211:5.123963979403259 
128.0 1:1.5976034547870976 10:13.408084720170272 82:4.350774091169777 
128.0 1:1.5976034547870976 12:2.7568403652716422 
86.46249561620527 0:2.430559750481255 4:1.717226417365488 11:2.515120428384497 12:2.7568403652716422 68:4.053522567701846 128:9.672563813902956 260:5.529429087511423 830:15.21774125838252 
5.398888804850203 6:2.145038824165649 220:41.68780285114311 290:5.529429087511423 407:44.23543270009139 
128.0 0:9.72223900192502 6:19.30534941749084 10:21.452935552272436 14:2.7885890635862225 
77.49174654245495 0:1.2152798752406275 2:1.7007876910223283 6:17.160310593325192 8:3.9697062460078416 18:3.0341596506878763 19:25.143700084293403 20:2.813080083594518 47:61.19489592436797 201:5.123963979403259 362:5.817111159963204 
128.0 1:3.1952069095741953 8:19.848531230039207 54:4.053522567701846 82:4.350774091169777 433:5.999432716757159 
128.0 106:4.718498871295094 
128.0 2:1.7007876910223283 3:20.075499915476737 52:4.053522567701846 
66.28257175970772 12:2.7568403652716422 83:4.241574799204785 308:44.23543270009139 603:6.51025834052315 
128.0 58:3.945308983061613 408:5.817111159963204 
128.0 1:1.5976034547870976 8:1.9848531230039208 69:4.174883424706113 
128.0 2:3.4015753820446566 3:47.45118161839956 43:3.657626910609832 
128.0 5:1.8436795264064147 9:2.330755969960742 42:31.359929400618583 
128.0 3:18.250454468615217 9:2.330755969960742 950:6.915723448631314 
45.25570333683594 187:40.99171183522607 
128.0 9:18.646047759685935 23:3.166219372700943 25:3.374764124594 287:5.529429087511423 718:6.51025834052315 
86.93316901876214 0:9.72223900192502 19:3.1429625105366754 397:5.817111159963204 
3.0684999524213157 5:1.8436795264064147 20:5.626160167189036 25:3.374764124594 26:3.332204510175204 71:33.66138598023283 100:4.564348191467836 154:4.836281906951478 406:12.445152536142738 418:5.999432716757159 445:47.99546173405727 456:12.445152536142738 540:13.0205166810463 
128.0 0:1.2152798752406275 
16.530146298593003 205:5.306285536197214 872:55.32578758905051 
71.26365994435125 15:2.1972245773362196 773:6.915723448631314 
22.74187636970501 64:4.082510104575098 332:17.998298150271477 
128.0 63:4.02535169073515 77:4.207673247529104 89:4.350774091169777 305:5.662960480135946 605:6.51025834052315 
101.49911641227894 5:14.749436211251318 7:2.006751808311558 16:3.1202342594591195 83:4.241574799204785 230:5.210975356392889 275:5.4116460518550396 652:6.51025834052315 970:6.915723448631314 
71.67461719702052 0:9.72223900192502 4:1.717226417365488 7:4.013503616623116 11:2.515120428384497 26:3.332204510175204 36:3.6770449964669334 124:4.718498871295094 179:35.78701130609688 193:5.306285536197214 
128.0 4:1.717226417365488 5:1.8436795264064147 55:31.770275755718988 84:4.564348191467836 162:4.969813299576001 192:5.529429087511423 297:5.4116460518550396 569:6.222576268071369 
128.0 7:2.006751808311558 12:5.5136807305432844 32:3.6015374439587884 639:6.51025834052315 731:6.51025834052315 
128.0 8:15.878824984031366 22:1.6686993764708278 86:4.207673247529104 
128.0 36:3.6770449964669334 820:4.112363067724779 
96.29788297347687 3:54.751363405845645 7:4.013503616623116 23:6.332438745401886 52:8.107045135403691 118:4.613138355637268 175:5.210975356392889 246:5.306285536197214 321:5.662960480135946 698:6.51025834052315 764:6.915723448631314 850:6.915723448631314 
48.535368772452266 3:1.8250454468615216 5:1.8436795264064147 23:3.166219372700943 28:3.497996765017948 35:3.6770449964669334 79:19.356005054539455 102:4.430816798843313 207:5.210975356392889 636:6.51025834052315 
66.23899369618906 5:1.8436795264064147 439:5.999432716757159 
128.0 4:1.717226417365488 44:3.919991175077323 
4.174963207545058 0:1.2152798752406275 5:1.8436795264064147 9:2.330755969960742 10:2.6816169440340545 18:3.0341596506878763 27:3.449987545831587 50:5.438438635277661 69:33.399067397648906 143:5.123963979403259 166:5.123963979403259 175:5.210975356392889 235:10.612571072394427 305:5.662960480135946 355:5.817111159963204 427:6.51025834052315 550:49.78061014457095 
128.0 0:1.2152798752406275 17:3.0137507790566693 59:4.02535169073515 
6.464142071942391 0:9.72223900192502 7:2.006751808311558 8:1.9848531230039208 22:5.006098129412483 26:3.332204510175204 79:3.871201010907891 174:5.043921271729722 193:15.918856608591641 341:46.53688927970563 369:5.817111159963204 722:65.1025834052315 911:6.915723448631314 
61.191504174473074 26:3.332204510175204 288:5.662960480135946 322:5.817111159963204 
58.72158207742872 163:4.969813299576001 623:6.51025834052315 
105.49841762813296 0:9.72223900192502 1:1.5976034547870976 5:1.8436795264064147 8:1.9848531230039208 10:2.6816169440340545 45:3.871201010907891 83:8.48314959840957 184:5.123963979403259 245:5.210975356392889 277:5.306285536197214 346:17.998298150271477 846:15.21774125838252 
128.0 8:1.9848531230039208 54:32.428180541614765 173:4.900820428089049 
128.0 13:2.2289732756508 
90.35006760241833 0:1.2152798752406275 5:3.6873590528128295 14:2.7885890635862225 18:3.0341596506878763 50:1.8128128784258872 85:4.430816798843313 138:4.775657285135043 205:5.306285536197214 
128.0 0:2.430559750481255 1:1.5976034547870976 757:6.915723448631314 
64.0975185765064 2:3.4015753820446566 4:1.717226417365488 18:6.068319301375753 252:26.53142768098607 
128.0 1:1.5976034547870976 2:1.7007876910223283 22:1.6686993764708278 57:4.02535169073515 
128.0 3:1.8250454468615216 5:1.8436795264064147 
41.06880097807628 5:1.8436795264064147 207:5.210975356392889 341:5.817111159963204 727:6.51025834052315 
128.0 3:16.425409021753694 12:2.7568403652716422 
127.9327688101187 3:1.8250454468615216 5:1.8436795264064147 8:1.9848531230039208 10:2.6816169440340545 23:3.166219372700943 39:3.8022081394209395 65:4.112363067724779 193:5.306285536197214 212:5.306285536197214 264:5.662960480135946 266:5.4116460518550396 364:5.817111159963204 381:5.662960480135946 
24.277751864973542 2:3.4015753820446566 24:3.2913825156549485 48:7.890617966123226 717:52.0820667241852 
128.0 50:1.8128128784258872 
39.32058600324236 20:2.813080083594518 117:4.775657285135043 305:5.662960480135946 
84.19201349271623 0:10.937518877165648 1:1.5976034547870976 9:4.661511939921484 19:3.1429625105366754 142:3.6770449964669334 149:4.836281906951478 170:42.45028428957771 
25.34143730440678 24:3.2913825156549485 137:38.20525828108035 364:5.817111159963204 
128.0 0:1.2152798752406275 7:2.006751808311558 23:3.166219372700943 345:5.817111159963204 
128.0 148:4.836281906951478 302:5.529429087511423 
128.0 4:3.434452834730976 10:8.044850832102163 11:2.515120428384497 100:4.564348191467836 292:5.529429087511423 582:6.915723448631314 741:6.51025834052315 
128.0 0:1.2152798752406275 47:3.824680995272998 
128.0 1:1.5976034547870976 7:2.006751808311558 162:4.969813299576001 
45.77551889873328 97:8.94675282652422 380:5.817111159963204 
53.74814961381487 0:1.2152798752406275 19:25.143700084293403 90:30.417665115367516 203:5.210975356392889 
128.0 0:1.2152798752406275 6:2.145038824165649 14:2.7885890635862225 21:15.772616664688757 41:30.241833861617316 166:5.123963979403259 253:5.306285536197214 472:5.999432716757159 487:6.222576268071369 
128.0 0:1.2152798752406275 49:4.082510104575098 
1.1207990656934792 17:3.0137507790566693 25:26.998112996752 177:4.969813299576001 331:63.988222759595246 738:6.51025834052315 
18.15336943630616 57:8.0507033814703 173:4.900820428089049 594:52.0820667241852 
128.0 0:1.2152798752406275 49:8.165020209150196 67:4.241574799204785 
79.06660106186753 242:4.053522567701846 345:5.817111159963204 
51.76022565091262 4:1.717226417365488 71:4.207673247529104 184:25.619819897016292 426:5.999432716757159 
0.11941161963220472 8:15.878824984031366 35:3.6770449964669334 47:3.824680995272998 142:3.6770449964669334 284:44.23543270009139 370:5.817111159963204 382:95.99092346811454 
128.0 8:1.9848531230039208 91:4.3899948043230586 
128.0 0:9.72223900192502 
128.0 5:1.8436795264064147 14:5.577178127172445 24:3.2913825156549485 49:8.165020209150196 67:8.48314959840957 85:4.430816798843313 104:4.5178281758329435 118:4.613138355637268 212:5.306285536197214 392:5.817111159963204 
77.53387942646799 0:12.152798752406275 11:2.515120428384497 17:3.0137507790566693 91:4.3899948043230586 102:4.430816798843313 149:4.836281906951478 388:5.817111159963204 458:5.999432716757159 638:6.51025834052315 
83.1800303465253 0:9.72223900192502 3:3.650090893723043 6:4.290077648331298 14:2.7885890635862225 675:13.831446897262628 
8.23102801798654 1:1.5976034547870976 2:3.4015753820446566 6:2.145038824165649 10:5.363233888068109 17:15.068753895283347 22:3.3373987529416556 28:3.497996765017948 55:31.770275755718988 92:4.31303376318693 95:4.350774091169777 101:4.5178281758329435 197:4.47337641326211 270:5.4116460518550396 510:6.222576268071369 577:6.222576268071369 799:55.32578758905051 819:15.21774125838252 861:55.32578758905051 
52.0201922645411 0:1.2152798752406275 11:2.515120428384497 18:3.0341596506878763 67:4.241574799204785 72:4.174883424706113 97:4.47337641326211 220:5.210975356392889 275:5.4116460518550396 435:5.999432716757159 995:6.915723448631314 996:6.915723448631314 
128.0 0:1.2152798752406275 2:1.7007876910223283 5:1.8436795264064147 67:4.241574799204785 382:11.998865433514318 
4.48810205105369 87:4.430816798843313 142:3.6770449964669334 191:5.043921271729722 759:55.32578758905051 
105.4708127999275 0:1.2152798752406275 67:4.241574799204785 71:4.207673247529104 72:4.174883424706113 532:6.222576268071369 
128.0 76:4.276666119016055 91:4.3899948043230586 107:4.613138355637268 265:5.529429087511423 319:5.529429087511423 
128.0 12:2.7568403652716422 15:4.394449154672439 18:3.0341596506878763 47:30.597447962183985 57:4.02535169073515 102:4.430816798843313 
39.34564688772162 0:1.2152798752406275 2:1.7007876910223283 7:2.006751808311558 8:1.9848531230039208 11:2.515120428384497 18:3.0341596506878763 25:3.374764124594 46:3.8022081394209395 53:3.9712844694648735 58:31.562471864492903 62:3.9979527165470348 103:4.47337641326211 142:3.6770449964669334 233:5.210975356392889 347:5.662960480135946 482:49.78061014457095 608:4.276666119016055 662:6.51025834052315 
32.42469168074383 0:1.2152798752406275 138:4.775657285135043 249:5.662960480135946 269:5.529429087511423 281:44.23543270009139 354:5.999432716757159 
88.72286271663853 62:3.9979527165470348 71:4.207673247529104 
120.05810913280499 79:3.871201010907891 141:4.775657285135043 181:10.823292103710079 258:5.4116460518550396 
128.0 68:4.053522567701846 
82.54097438470953 0:1.2152798752406275 18:3.0341596506878763 22:1.6686993764708278 29:3.8952985624869516 32:3.6015374439587884 59:4.02535169073515 68:4.053522567701846 74:4.241574799204785 137:4.775657285135043 282:5.529429087511423 299:6.915723448631314 344:5.662960480135946 639:6.51025834052315 641:6.915723448631314 
4.076187983934219 68:4.053522567701846 86:8.415346495058207 624:52.0820667241852 874:6.915723448631314 
128.0 0:2.430559750481255 1:1.5976034547870976 50:1.8128128784258872 112:4.3899948043230586 115:4.664431650024818 330:5.662960480135946 350:5.662960480135946 409:5.999432716757159 
128.0 5:1.8436795264064147 292:5.529429087511423 438:5.999432716757159 
128.0 0:1.2152798752406275 2:1.7007876910223283 
128.0 16:3.1202342594591195 
128.0 11:2.515120428384497 89:4.350774091169777 
62.02081288168289 12:2.7568403652716422 45:3.871201010907891 81:4.3899948043230586 319:27.647145437557118 322:5.817111159963204 576:1.517560747113561 
128.0 4:8.58613208682744 8:1.9848531230039208 35:3.6770449964669334 227:5.210975356392889 
128.0 2:1.7007876910223283 442:5.999432716757159 
18.36356267728157 0:10.937518877165648 2:1.7007876910223283 5:1.8436795264064147 52:4.053522567701846 93:4.3899948043230586 103:35.78701130609688 124:4.718498871295094 190:5.043921271729722 270:5.4116460518550396 273:5.4116460518550396 403:5.817111159963204 604:13.831446897262628 621:6.51025834052315 626:6.51025834052315 
62.52756089688577 
128.0 142:3.6770449964669334 
128.0 0:1.2152798752406275 7:2.006751808311558 12:2.7568403652716422 18:3.0341596506878763 19:3.1429625105366754 112:4.3899948043230586 
128.0 7:2.006751808311558 63:4.02535169073515 103:4.47337641326211 244:43.293168414840316 
6.739534154168482 56:3.53133318528554 
128.0 2:1.7007876910223283 25:3.374764124594 57:4.02535169073515 
128.0 18:3.0341596506878763 
128.0 1:1.5976034547870976 
64.15257885450764 
128.0 0:6.076399376203137 1:3.1952069095741953 
128.0 2:3.4015753820446566 4:1.717226417365488 5:1.8436795264064147 10:2.6816169440340545 13:4.4579465513016 18:3.0341596506878763 23:3.166219372700943 115:4.664431650024818 766:6.915723448631314 
128.0 2:5.102363073066985 13:4.4579465513016 14:2.7885890635862225 25:26.998112996752 38:7.475339236566737 39:3.8022081394209395 46:3.8022081394209395 50:1.8128128784258872 84:4.564348191467836 152:5.123963979403259 154:4.836281906951478 249:5.662960480135946 467:6.222576268071369 
128.0 0:6.076399376203137 1:3.1952069095741953 
128.0 131:4.836281906951478 
35.288619386455835 2:3.4015753820446566 8:1.9848531230039208 12:2.7568403652716422 51:3.871201010907891 164:40.99171183522607 172:16.58828726253427 
17.16175682064966 9:2.330755969960742 239:44.23543270009139 903:6.915723448631314 
72.50888627286866 4:1.717226417365488 6:2.145038824165649 12:2.7568403652716422 20:2.813080083594518 22:3.3373987529416556 36:29.416359971735467 172:16.58828726253427 173:4.900820428089049 410:5.817111159963204 633:6.51025834052315 
128.0 12:2.7568403652716422 131:4.836281906951478 
3.641625541443271 1:1.5976034547870976 17:3.0137507790566693 48:3.945308983061613 52:4.053522567701846 70:70.43329034865606 115:4.664431650024818 
128.0 
128.0 
128.0 0:2.430559750481255 4:1.717226417365488 22:1.6686993764708278 559:5.662960480135946 
128.0 1:4.7928103643612925 3:29.200727149784345 6:10.725194120828245 8:1.9848531230039208 9:2.330755969960742 12:2.7568403652716422 16:3.1202342594591195 17:3.0137507790566693 41:3.7802292327021645 62:3.9979527165470348 87:4.430816798843313 161:5.123963979403259 165:5.123963979403259 
128.0 0:9.72223900192502 1:3.1952069095741953 5:1.8436795264064147 6:2.145038824165649 165:5.123963979403259 199:5.123963979403259 298:5.529429087511423 965:6.915723448631314 
43.01995313965038 2:1.7007876910223283 21:3.1545233329377513 479:6.222576268071369 588:6.51025834052315 
128.0 0:2.430559750481255 3:1.8250454468615216 5:1.8436795264064147 6:10.725194120828245 9:23.307559699607417 19:3.1429625105366754 21:3.1545233329377513 50:1.8128128784258872 66:4.02535169073515 316:27.647145437557118 397:5.817111159963204 473:5.999432716757159 518:6.222576268071369 
128.0 1:1.5976034547870976 11:5.030240856768994 39:3.8022081394209395 
16.357358635771167 21:3.1545233329377513 462:47.99546173405727 
128.0 3:1.8250454468615216 14:2.7885890635862225 35:3.6770449964669334 36:29.416359971735467 
128.0 19:3.1429625105366754 80:4.3899948043230586 278:5.529429087511423 
24.826792977511598 0:10.937518877165648 2:1.7007876910223283 5:1.8436795264064147 6:19.30534941749084 25:26.998112996752 51:3.871201010907891 185:5.043921271729722 215:5.306285536197214 316:44.23543270009139 337:5.662960480135946 452:5.999432716757159 475:47.99546173405727 921:6.915723448631314 
128.0 3:9.125227234307609 21:25.23618666350201 68:4.053522567701846 97:4.47337641326211 
106.81185723259972 1:1.5976034547870976 18:3.0341596506878763 73:8.415346495058207 271:5.4116460518550396 804:6.915723448631314 
128.0 0:1.2152798752406275 1:1.5976034547870976 8:1.9848531230039208 70:4.143134726391533 488:5.817111159963204 822:6.915723448631314 
44.815326721158186 27:3.449987545831587 35:7.354089992933867 65:8.224726135449558 85:8.861633597686627 153:4.775657285135043 201:5.123963979403259 311:5.529429087511423 397:5.817111159963204 452:5.999432716757159 461:5.4116460518550396 613:6.51025834052315 712:6.51025834052315 937:6.915723448631314 985:6.915723448631314 
128.0 
128.0 4:3.434452834730976 11:2.515120428384497 
128.0 38:3.7376696182833684 215:5.306285536197214 
31.748816722279745 8:15.878824984031366 36:3.6770449964669334 39:3.8022081394209395 71:4.207673247529104 227:5.210975356392889 235:5.306285536197214 386:5.817111159963204 429:29.997163583785795 591:6.51025834052315 930:6.915723448631314 
128.0 0:9.72223900192502 14:2.7885890635862225 396:5.817111159963204 
128.0 1:1.5976034547870976 2:3.4015753820446566 3:1.8250454468615216 7:4.013503616623116 8:1.9848531230039208 19:3.1429625105366754 22:1.6686993764708278 25:3.374764124594 39:3.8022081394209395 92:4.31303376318693 103:4.47337641326211 137:4.775657285135043 271:5.4116460518550396 281:5.529429087511423 395:5.999432716757159 450:5.999432716757159 617:6.51025834052315 870:6.915723448631314 
6.433795567179402 5:1.8436795264064147 8:19.848531230039207 25:3.374764124594 964:6.915723448631314 
128.0 1:1.5976034547870976 4:1.717226417365488 16:3.1202342594591195 35:3.6770449964669334 150:5.123963979403259 770:6.915723448631314 
3.7582209524193515 7:2.006751808311558 211:5.123963979403259 376:52.0820667241852 532:6.222576268071369 
128.0 2:1.7007876910223283 
19.5090472287183 191:5.043921271729722 495:31.112881340356843 
128.0 7:2.006751808311558 56:3.53133318528554 154:4.836281906951478 
128.0 108:4.47337641326211 113:4.664431650024818 
128.0 0:2.430559750481255 2:3.4015753820446566 4:1.717226417365488 27:3.449987545831587 77:4.207673247529104 108:4.47337641326211 231:5.210975356392889 359:5.999432716757159 368:5.817111159963204 
123.86897807739433 9:2.330755969960742 14:2.7885890635862225 24:3.2913825156549485 102:4.430816798843313 138:4.775657285135043 730:52.0820667241852 
128.0 0:12.152798752406275 5:3.6873590528128295 6:2.145038824165649 7:2.006751808311558 19:3.1429625105366754 24:3.2913825156549485 36:29.416359971735467 38:3.7376696182833684 43:7.315253821219664 72:4.174883424706113 113:4.664431650024818 131:4.836281906951478 259:12.445152536142738 372:5.817111159963204 433:5.999432716757159 979:6.915723448631314 
128.0 
19.680966179389824 7:2.006751808311558 108:35.78701130609688 519:6.222576268071369 
126.57263292207166 0:1.2152798752406275 315:5.662960480135946 
128.0 
128.0 0:2.430559750481255 12:2.7568403652716422 19:3.1429625105366754 135:9.551314570270087 
128.0 20:2.813080083594518 68:4.053522567701846 492:6.222576268071369 
100.28297271450859 9:2.330755969960742 71:4.207673247529104 108:4.47337641326211 
128.0 5:1.8436795264064147 14:2.7885890635862225 38:29.901356946266947 142:3.6770449964669334 
128.0 
30.17397652467299 5:1.8436795264064147 66:4.02535169073515 86:4.207673247529104 190:5.043921271729722 
39.996757740022424 2:3.4015753820446566 21:3.1545233329377513 456:6.222576268071369 
57.56271180500935 3:14.600363574892173 4:1.717226417365488 13:2.2289732756508 19:25.143700084293403 25:26.998112996752 26:3.332204510175204 32:28.812299551670307 47:3.824680995272998 71:8.415346495058207 122:48.36281906951478 158:44.10738385280144 453:5.999432716757159 649:6.51025834052315 981:6.915723448631314 
128.0 5:1.8436795264064147 6:2.145038824165649 8:3.9697062460078416 11:2.515120428384497 101:9.035656351665887 157:4.836281906951478 551:6.222576268071369 
128.0 13:2.2289732756508 32:28.812299551670307 83:4.241574799204785 
128.0 
128.0 7:2.006751808311558 14:2.7885890635862225 45:3.871201010907891 
128.0 61:4.02535169073515 337:5.662960480135946 
128.0 3:5.475136340584565 19:3.1429625105366754 
128.0 1:1.5976034547870976 8:1.9848531230039208 14:2.7885890635862225 
128.0 0:1.2152798752406275 5:1.8436795264064147 9:2.330755969960742 20:2.813080083594518 
128.0 5:1.8436795264064147 91:4.3899948043230586 
128.0 
128.0 
102.95819607125557 6:2.145038824165649 23:3.166219372700943 34:3.657626910609832 41:3.7802292327021645 42:7.839982350154646 61:8.0507033814703 134:4.718498871295094 146:5.043921271729722 222:5.306285536197214 351:5.662960480135946 660:6.51025834052315 
128.0 0:6.076399376203137 1:3.1952069095741953 4:1.717226417365488 5:3.6873590528128295 30:3.8476705134976967 31:4.02535169073515 49:4.082510104575098 54:4.053522567701846 102:4.430816798843313 106:4.718498871295094 126:4.564348191467836 145:4.900820428089049 195:5.210975356392889 347:5.662960480135946 
128.0 6:2.145038824165649 113:4.664431650024818 304:4.836281906951478 
128.0 6:2.145038824165649 304:4.836281906951478 
62.99291392903812 0:1.2152798752406275 1:1.5976034547870976 3:1.8250454468615216 6:2.145038824165649 28:3.497996765017948 65:4.112363067724779 72:4.174883424706113 87:4.430816798843313 117:4.775657285135043 298:55.294290875114235 304:4.836281906951478 858:6.915723448631314 
128.0 4:1.717226417365488 6:2.145038824165649 64:4.082510104575098 304:4.836281906951478 
128.0 
29.960660581649726 0:21.875037754331295 4:1.717226417365488 17:3.0137507790566693 25:26.998112996752 
128.0 0:13.368078627646902 21:31.545233329377513 94:21.753870455848883 112:4.3899948043230586 
72.45969873749438 0:1.2152798752406275 23:6.332438745401886 145:4.900820428089049 149:38.690255255611824 
19.217955439163408 4:1.717226417365488 97:4.47337641326211 166:5.123963979403259 213:5.123963979403259 251:5.306285536197214 
128.0 
128.0 5:1.8436795264064147 8:19.848531230039207 
128.0 0:12.152798752406275 
128.0 1:1.5976034547870976 2:1.7007876910223283 11:2.515120428384497 12:5.5136807305432844 14:2.7885890635862225 24:6.582765031309897 51:3.871201010907891 106:4.718498871295094 281:5.529429087511423 
128.0 
128.0 86:8.415346495058207 109:4.47337641326211 
107.28125941868835 6:2.145038824165649 182:40.35137017383778 
128.0 16:3.1202342594591195 88:4.430816798843313 92:4.31303376318693 113:4.664431650024818 138:4.775657285135043 
25.840817714256353 0:1.2152798752406275 888:6.915723448631314 
128.0 7:4.013503616623116 8:19.848531230039207 
128.0 0:1.2152798752406275 
128.0 4:1.717226417365488 18:6.068319301375753 647:6.51025834052315 
128.0 0:1.2152798752406275 2:1.7007876910223283 7:2.006751808311558 12:2.7568403652716422 17:3.0137507790566693 27:3.449987545831587 63:4.02535169073515 
128.0 9:2.330755969960742 109:4.47337641326211 
128.0 0:1.2152798752406275 9:4.661511939921484 97:4.47337641326211 
128.0 7:2.006751808311558 124:4.718498871295094 196:4.900820428089049 273:5.4116460518550396 592:6.51025834052315 
20.946304043346448 1:1.5976034547870976 15:4.394449154672439 29:3.8952985624869516 54:8.107045135403691 59:8.0507033814703 92:4.31303376318693 162:4.969813299576001 175:41.68780285114311 672:6.51025834052315 
128.0 8:9.924265615019603 
128.0 16:6.240468518918239 59:4.02535169073515 351:5.662960480135946 
128.0 0:1.2152798752406275 1:1.5976034547870976 2:1.7007876910223283 4:1.717226417365488 5:1.8436795264064147 6:2.145038824165649 8:19.848531230039207 9:2.330755969960742 12:2.7568403652716422 14:2.7885890635862225 24:3.2913825156549485 76:4.276666119016055 95:4.350774091169777 125:9.801640856178098 131:4.836281906951478 216:4.430816798843313 255:5.4116460518550396 352:5.662960480135946 653:6.51025834052315 938:6.915723448631314 
92.34946669310571 0:1.2152798752406275 4:1.717226417365488 7:2.006751808311558 26:3.332204510175204 145:39.20656342471239 
128.0 0:1.2152798752406275 75:4.207673247529104 
105.8146168307658 1:1.5976034547870976 16:3.1202342594591195 140:38.690255255611824 
76.78377239931035 86:8.415346495058207 124:4.718498871295094 201:10.247927958806518 
128.0 7:2.006751808311558 
128.0 6:2.145038824165649 7:2.006751808311558 8:1.9848531230039208 9:6.992267909882226 22:1.6686993764708278 34:7.315253821219664 46:3.8022081394209395 
128.0 188:5.043921271729722 223:5.210975356392889 667:6.51025834052315 
128.0 1:1.5976034547870976 4:1.717226417365488 34:3.657626910609832 54:4.053522567701846 300:5.529429087511423 
128.0 9:2.330755969960742 85:4.430816798843313 917:6.915723448631314 
128.0 62:3.9979527165470348 
128.0 3:1.8250454468615216 20:2.813080083594518 52:20.26761283850923 538:6.222576268071369 
128.0 2:1.7007876910223283 20:2.813080083594518 
31.25720418992468 191:5.043921271729722 530:6.222576268071369 758:6.915723448631314 
128.0 0:2.430559750481255 5:1.8436795264064147 
69.39719637805561 0:1.2152798752406275 1:1.5976034547870976 8:1.9848531230039208 14:2.7885890635862225 23:3.166219372700943 24:3.2913825156549485 25:3.374764124594 37:3.7376696182833684 76:4.276666119016055 226:5.4116460518550396 817:6.915723448631314 
128.0 0:9.72223900192502 4:3.434452834730976 11:2.515120428384497 17:3.0137507790566693 26:6.664409020350408 85:4.430816798843313 156:4.969813299576001 261:5.4116460518550396 417:5.999432716757159 706:6.915723448631314 
128.0 0:1.2152798752406275 4:1.717226417365488 9:2.330755969960742 11:2.515120428384497 47:3.824680995272998 671:6.51025834052315 936:6.915723448631314 
128.0 0:1.2152798752406275 58:3.945308983061613 
128.0 1:1.5976034547870976 4:1.717226417365488 9:2.330755969960742 70:33.14507781113226 
111.76701426010808 77:4.207673247529104 851:6.915723448631314 
128.0 2:1.7007876910223283 
128.0 
128.0 8:1.9848531230039208 
4.5476098460009915 39:11.406624418262819 400:5.817111159963204 734:6.51025834052315 
90.31716414728908 4:1.717226417365488 11:2.515120428384497 43:3.657626910609832 57:8.0507033814703 569:12.445152536142738 
128.0 3:1.8250454468615216 7:8.027007233246232 10:2.6816169440340545 13:4.4579465513016 15:2.1972245773362196 20:2.813080083594518 59:4.02535169073515 61:4.02535169073515 92:4.31303376318693 141:4.775657285135043 210:5.210975356392889 413:5.999432716757159 414:5.817111159963204 466:5.999432716757159 504:6.222576268071369 646:6.51025834052315 947:6.915723448631314 
128.0 0:9.72223900192502 1:1.5976034547870976 2:1.7007876910223283 323:5.662960480135946 
128.0 4:1.717226417365488 13:4.4579465513016 24:3.2913825156549485 132:9.801640856178098 
128.0 
65.20385126099383 5:1.8436795264064147 413:5.999432716757159 
128.0 0:1.2152798752406275 6:2.145038824165649 8:15.878824984031366 15:2.1972245773362196 247:5.529429087511423 
128.0 14:5.577178127172445 26:3.332204510175204 37:18.68834809141684 370:5.817111159963204 
128.0 0:9.72223900192502 2:1.7007876910223283 
128.0 
128.0 5:3.6873590528128295 7:2.006751808311558 93:4.3899948043230586 
128.0 101:4.5178281758329435 
58.86374107268167 11:2.515120428384497 43:3.657626910609832 64:4.082510104575098 
128.0 0:7.291679251443766 2:3.4015753820446566 120:4.613138355637268 269:5.529429087511423 
23.030185638811567 0:1.2152798752406275 3:23.72559080919978 4:1.717226417365488 16:3.1202342594591195 17:3.0137507790566693 20:2.813080083594518 417:47.99546173405727 
128.0 4:1.717226417365488 93:4.3899948043230586 
1.0483066760380595 191:5.043921271729722 404:46.53688927970563 
128.0 314:5.529429087511423 
120.6414361287993 0:1.2152798752406275 6:2.145038824165649 17:3.0137507790566693 91:8.779989608646117 175:5.210975356392889 658:6.51025834052315 966:6.915723448631314 
128.0 891:6.915723448631314 
3.4753576729173905 30:3.8476705134976967 217:5.210975356392889 946:69.15723448631314 
7.7910879571162654 5:1.8436795264064147 30:3.8476705134976967 597:13.831446897262628 
128.0 30:7.6953410269953935 
128.0 0:10.937518877165648 11:2.515120428384497 67:4.241574799204785 94:4.350774091169777 
128.0 0:6.076399376203137 14:2.7885890635862225 30:3.8476705134976967 48:3.945308983061613 61:4.02535169073515 76:4.276666119016055 328:5.043921271729722 
128.0 0:2.430559750481255 7:2.006751808311558 15:2.1972245773362196 30:3.8476705134976967 46:3.8022081394209395 109:4.47337641326211 208:10.421950712785778 237:17.451333479889612 
34.99414934778347 2:1.7007876910223283 19:3.1429625105366754 30:3.8476705134976967 49:16.330040418300392 92:4.31303376318693 288:5.662960480135946 541:6.222576268071369 
128.0 2:1.7007876910223283 16:3.1202342594591195 30:3.8476705134976967 
128.0 18:6.068319301375753 28:3.497996765017948 57:4.02535169073515 67:8.48314959840957 139:14.702461284267148 
128.0 4:1.717226417365488 5:1.8436795264064147 27:3.449987545831587 34:3.657626910609832 173:4.900820428089049 
1.343503327293486 909:15.21774125838252 
128.0 7:2.006751808311558 17:3.0137507790566693 32:3.6015374439587884 46:3.8022081394209395 81:8.779989608646117 339:5.662960480135946 507:6.222576268071369 854:6.915723448631314 
55.40532149251506 7:2.006751808311558 355:58.17111159963204 
128.0 0:2.430559750481255 45:3.871201010907891 56:3.53133318528554 
128.0 1:1.5976034547870976 8:1.9848531230039208 182:40.35137017383778 269:5.529429087511423 
128.0 0:1.2152798752406275 34:3.657626910609832 
128.0 0:1.2152798752406275 14:2.7885890635862225 28:3.497996765017948 104:9.035656351665887 118:4.613138355637268 355:5.817111159963204 
128.0 14:2.7885890635862225 16:3.1202342594591195 73:4.207673247529104 118:4.613138355637268 
128.0 9:2.330755969960742 
124.6596309158577 9:4.661511939921484 951:6.915723448631314 
105.10296874049666 4:1.717226417365488 5:3.6873590528128295 11:2.515120428384497 18:3.0341596506878763 107:4.613138355637268 131:9.672563813902956 219:5.210975356392889 290:5.529429087511423 414:5.817111159963204 442:5.999432716757159 491:6.222576268071369 506:13.0205166810463 518:6.222576268071369 576:9.105364482681367 
9.63586608013537 4:1.717226417365488 11:2.515120428384497 25:26.998112996752 286:44.23543270009139 
120.63963520637571 0:12.152798752406275 2:10.20472614613397 5:1.8436795264064147 17:3.0137507790566693 25:3.374764124594 26:6.664409020350408 169:4.900820428089049 181:5.4116460518550396 215:10.612571072394427 234:5.4116460518550396 312:18.667728804214107 494:6.222576268071369 556:13.0205166810463 718:6.51025834052315 
128.0 15:2.1972245773362196 
128.0 1:1.5976034547870976 5:1.8436795264064147 20:8.439240250783556 22:3.3373987529416556 39:3.8022081394209395 43:7.315253821219664 56:3.53133318528554 913:6.222576268071369 
76.17192424081284 4:1.717226417365488 14:2.7885890635862225 16:3.1202342594591195 43:29.261015284878656 46:3.8022081394209395 84:13.693044574403508 356:5.817111159963204 378:5.817111159963204 886:6.915723448631314 976:6.915723448631314 
128.0 0:3.645839625721883 4:1.717226417365488 8:1.9848531230039208 12:2.7568403652716422 24:3.2913825156549485 27:3.449987545831587 28:3.497996765017948 34:36.57626910609832 47:3.824680995272998 290:5.529429087511423 504:6.222576268071369 
74.88268115814886 0:1.2152798752406275 2:3.4015753820446566 4:1.717226417365488 70:33.14507781113226 77:4.207673247529104 138:4.775657285135043 142:3.6770449964669334 234:5.4116460518550396 262:5.4116460518550396 344:5.662960480135946 445:5.999432716757159 457:5.999432716757159 544:6.222576268071369 
128.0 0:2.430559750481255 1:1.5976034547870976 2:1.7007876910223283 9:2.330755969960742 97:4.47337641326211 122:4.836281906951478 230:5.210975356392889 302:5.529429087511423 
128.0 
128.0 0:1.2152798752406275 2:1.7007876910223283 5:1.8436795264064147 73:4.207673247529104 86:4.207673247529104 89:4.350774091169777 120:4.613138355637268 240:5.4116460518550396 
128.0 0:1.2152798752406275 1:1.5976034547870976 15:2.1972245773362196 47:7.649361990545996 78:4.31303376318693 
128.0 2:3.4015753820446566 5:1.8436795264064147 
12.063574751274473 98:4.5178281758329435 578:30.43548251676504 
68.04319239611252 62:3.9979527165470348 123:4.718498871295094 188:40.35137017383778 
44.75394351671365 0:1.2152798752406275 2:18.708664601245612 35:3.6770449964669334 213:5.123963979403259 547:6.222576268071369 989:5.817111159963204 
128.0 50:1.8128128784258872 
101.50263008830385 0:1.2152798752406275 15:2.1972245773362196 46:3.8022081394209395 57:4.02535169073515 598:6.51025834052315 
128.0 1:1.5976034547870976 22:3.3373987529416556 30:3.8476705134976967 37:3.7376696182833684 43:36.57626910609832 561:6.222576268071369 
128.0 
128.0 
75.57308234745652 164:5.123963979403259 973:6.915723448631314 
128.0 50:3.6256257568517745 
128.0 2:5.102363073066985 4:1.717226417365488 5:1.8436795264064147 25:3.374764124594 88:4.430816798843313 
3.644737319442218 0:9.72223900192502 3:1.8250454468615216 17:3.0137507790566693 23:6.332438745401886 35:3.6770449964669334 36:29.416359971735467 106:4.718498871295094 112:4.3899948043230586 164:5.123963979403259 276:5.529429087511423 692:6.51025834052315 963:6.915723448631314 
41.287642687875234 1:1.5976034547870976 25:10.124292373782 40:38.24680995272998 280:44.23543270009139 416:5.999432716757159 
30.390638618154718 2:1.7007876910223283 8:1.9848531230039208 17:3.0137507790566693 288:5.662960480135946 328:5.043921271729722 
128.0 0:2.430559750481255 2:1.7007876910223283 17:3.0137507790566693 
128.0 2:1.7007876910223283 7:2.006751808311558 974:6.915723448631314 
128.0 1:3.1952069095741953 2:5.102363073066985 18:3.0341596506878763 139:4.900820428089049 179:4.47337641326211 
128.0 2:1.7007876910223283 5:1.8436795264064147 8:15.878824984031366 11:2.515120428384497 129:9.551314570270087 
63.11941477499683 31:4.02535169073515 73:4.207673247529104 95:4.350774091169777 257:6.222576268071369 436:5.999432716757159 566:6.222576268071369 914:15.21774125838252 
128.0 2:1.7007876910223283 11:2.515120428384497 77:4.207673247529104 88:4.430816798843313 175:5.210975356392889 
128.0 3:23.72559080919978 
18.74483890527762 20:2.813080083594518 35:3.6770449964669334 68:4.053522567701846 497:49.78061014457095 
128.0 0:1.2152798752406275 3:1.8250454468615216 75:4.207673247529104 
23.87228418758634 0:9.72223900192502 18:3.0341596506878763 280:44.23543270009139 375:5.817111159963204 
128.0 
128.0 8:1.9848531230039208 14:2.7885890635862225 
128.0 161:5.123963979403259 
128.0 2:1.7007876910223283 49:4.082510104575098 
100.36398880856618 0:12.152798752406275 4:1.717226417365488 8:35.727356214070575 16:6.240468518918239 26:33.32204510175204 75:4.207673247529104 100:13.693044574403508 102:4.430816798843313 162:4.969813299576001 190:5.043921271729722 329:5.662960480135946 352:5.662960480135946 700:13.831446897262628 800:6.915723448631314 999:6.915723448631314 
128.0 0:12.152798752406275 65:8.224726135449558 86:4.207673247529104 195:5.210975356392889 
128.0 0:2.430559750481255 
128.0 9:2.330755969960742 69:33.399067397648906 191:5.043921271729722 
128.0 8:1.9848531230039208 78:4.31303376318693 86:4.207673247529104 242:8.107045135403691 826:6.915723448631314 
128.0 4:1.717226417365488 9:2.330755969960742 10:2.6816169440340545 91:4.3899948043230586 168:39.20656342471239 
128.0 2:1.7007876910223283 
128.0 2:1.7007876910223283 5:1.8436795264064147 
120.78635196434445 2:1.7007876910223283 121:14.909439898728003 176:10.247927958806518 
8.827071809810947 0:1.2152798752406275 34:3.657626910609832 121:39.758506396608006 
4.637466507506056 1:1.5976034547870976 22:1.6686993764708278 338:45.30368384108757 621:52.0820667241852 
128.0 11:2.515120428384497 31:4.02535169073515 37:3.7376696182833684 251:5.306285536197214 
29.127275202875335 3:1.8250454468615216 34:3.657626910609832 75:33.66138598023283 300:5.529429087511423 
128.0 0:10.937518877165648 4:1.717226417365488 5:1.8436795264064147 89:4.350774091169777 
128.0 1:1.5976034547870976 5:1.8436795264064147 8:1.9848531230039208 14:2.7885890635862225 31:8.0507033814703 43:18.28813455304916 51:3.871201010907891 60:32.660080836600784 98:4.5178281758329435 127:4.900820428089049 
128.0 
15.70021773911831 46:3.8022081394209395 141:4.775657285135043 245:5.210975356392889 765:55.32578758905051 
128.0 90:3.8022081394209395 186:10.823292103710079 222:5.306285536197214 564:6.222576268071369 
128.0 8:15.878824984031366 
128.0 1:1.5976034547870976 9:4.661511939921484 21:25.23618666350201 45:3.871201010907891 
128.0 4:1.717226417365488 26:26.65763608140163 
-128.0 1:1.5976034547870976 4:3.434452834730976 49:4.082510104575098 
-8.225871947168466 1:1.5976034547870976 2:1.7007876910223283 18:3.0341596506878763 40:38.24680995272998 153:4.775657285135043 231:5.210975356392889 257:37.335457608428214 437:5.999432716757159 
-128.0 10:2.6816169440340545 24:3.2913825156549485 49:4.082510104575098 214:5.529429087511423 350:5.662960480135946 414:5.817111159963204 470:5.999432716757159 554:6.222576268071369 
-128.0 2:1.7007876910223283 9:2.330755969960742 135:4.775657285135043 
-7.231736496236637 0:10.937518877165648 3:47.45118161839956 7:2.006751808311558 9:2.330755969960742 31:4.02535169073515 36:3.6770449964669334 54:4.053522567701846 106:4.718498871295094 165:10.247927958806518 208:41.68780285114311 421:47.99546173405727 
-126.21890948128492 2:1.7007876910223283 7:8.027007233246232 10:2.6816169440340545 28:3.497996765017948 39:34.21987325478845 86:4.207673247529104 134:4.718498871295094 463:5.999432716757159 
-71.32310272160214 2:1.7007876910223283 6:2.145038824165649 8:15.878824984031366 26:3.332204510175204 50:1.8128128784258872 158:39.20656342471239 186:16.234938155565118 231:5.210975356392889 309:5.662960480135946 621:6.51025834052315 653:6.51025834052315 743:6.915723448631314 
-128.0 3:14.600363574892173 
-128.0 2:3.4015753820446566 445:5.999432716757159 
-0.1362123817438075 0:3.645839625721883 2:1.7007876910223283 5:1.8436795264064147 17:3.0137507790566693 26:3.332204510175204 59:4.02535169073515 90:3.8022081394209395 199:5.123963979403259 441:47.99546173405727 552:13.831446897262628 572:6.222576268071369 710:6.51025834052315 922:6.915723448631314 
-11.932351768076936 0:3.645839625721883 2:1.7007876910223283 5:1.8436795264064147 17:3.0137507790566693 26:3.332204510175204 59:4.02535169073515 90:3.8022081394209395 199:5.123963979403259 441:47.99546173405727 552:13.831446897262628 572:6.222576268071369 710:6.51025834052315 922:6.915723448631314 
-74.00638907642252 1:3.1952069095741953 2:1.7007876910223283 4:1.717226417365488 9:2.330755969960742 12:5.5136807305432844 67:4.241574799204785 262:5.4116460518550396 908:6.915723448631314 
-128.0 28:3.497996765017948 
-128.0 0:9.72223900192502 2:1.7007876910223283 3:1.8250454468615216 5:3.6873590528128295 9:4.661511939921484 25:3.374764124594 214:22.117716350045693 577:6.222576268071369 
-128.0 59:4.02535169073515 188:5.043921271729722 392:5.817111159963204 509:6.222576268071369 557:6.222576268071369 794:6.915723448631314 
-128.0 1:1.5976034547870976 5:1.8436795264064147 6:2.145038824165649 8:1.9848531230039208 20:2.813080083594518 52:4.053522567701846 56:3.53133318528554 60:4.082510104575098 383:5.817111159963204 
-128.0 0:9.72223900192502 1:1.5976034547870976 5:1.8436795264064147 32:3.6015374439587884 63:4.02535169073515 
-128.0 2:1.7007876910223283 17:3.0137507790566693 173:4.900820428089049 247:5.529429087511423 509:6.222576268071369 
-128.0 3:3.650090893723043 19:3.1429625105366754 
-8.352030748154695 6:2.145038824165649 31:8.0507033814703 33:3.824680995272998 294:17.451333479889612 778:6.915723448631314 
-128.0 
-128.0 4:3.434452834730976 5:1.8436795264064147 17:3.0137507790566693 20:2.813080083594518 101:4.5178281758329435 162:9.939626599152001 190:5.043921271729722 222:5.306285536197214 400:5.817111159963204 
-128.0 1:4.7928103643612925 2:1.7007876910223283 67:12.724724397614356 100:27.386089148807017 
-18.082580528670036 0:9.72223900192502 5:1.8436795264064147 6:2.145038824165649 10:5.363233888068109 14:5.577178127172445 18:3.0341596506878763 21:6.309046665875503 33:3.824680995272998 108:4.47337641326211 127:4.900820428089049 146:5.043921271729722 
-128.0 5:3.6873590528128295 381:5.662960480135946 
-128.0 3:1.8250454468615216 4:1.717226417365488 7:4.013503616623116 24:3.2913825156549485 192:5.529429087511423 280:5.529429087511423 647:6.51025834052315 656:6.51025834052315 
-128.0 4:3.434452834730976 9:2.330755969960742 10:2.6816169440340545 12:2.7568403652716422 31:4.02535169073515 74:4.241574799204785 90:3.8022081394209395 163:4.969813299576001 
-89.82553732489214 8:3.9697062460078416 30:3.8476705134976967 99:4.718498871295094 173:4.900820428089049 315:5.662960480135946 541:6.222576268071369 667:6.51025834052315 815:15.21774125838252 
-128.0 0:1.2152798752406275 18:3.0341596506878763 511:6.222576268071369 
-128.0 223:5.210975356392889 245:5.210975356392889 333:5.999432716757159 431:5.999432716757159 628:13.831446897262628 
-128.0 0:14.583358502887531 1:1.5976034547870976 2:1.7007876910223283 4:1.717226417365488 8:1.9848531230039208 269:5.529429087511423 285:5.529429087511423 
-106.00525156356146 0:6.076399376203137 1:3.1952069095741953 8:19.848531230039207 18:3.0341596506878763 32:3.6015374439587884 93:4.3899948043230586 115:4.664431650024818 503:6.222576268071369 681:6.51025834052315 
-128.0 5:1.8436795264064147 7:2.006751808311558 9:2.330755969960742 11:5.030240856768994 45:3.871201010907891 164:5.123963979403259 223:5.210975356392889 
-128.0 1:1.5976034547870976 5:5.531038579219244 7:4.013503616623116 8:1.9848531230039208 14:2.7885890635862225 46:3.8022081394209395 61:4.02535169073515 227:5.210975356392889 356:5.817111159963204 548:6.222576268071369 
-48.95352891226032 3:21.90054536233826 5:1.8436795264064147 6:2.145038824165649 7:2.006751808311558 8:1.9848531230039208 17:3.0137507790566693 21:3.1545233329377513 27:3.449987545831587 28:3.497996765017948 62:3.9979527165470348 137:4.775657285135043 140:4.836281906951478 317:5.529429087511423 859:6.915723448631314 
-29.94883283070476 6:23.59542706582214 7:2.006751808311558 12:2.7568403652716422 34:29.261015284878656 240:5.4116460518550396 280:5.529429087511423 334:5.043921271729722 982:6.915723448631314 
-44.75241533940022 0:9.72223900192502 115:4.664431650024818 133:10.087842543459445 168:39.20656342471239 367:5.817111159963204 
-128.0 80:4.3899948043230586 94:4.350774091169777 151:9.672563813902956 208:5.210975356392889 
-125.67292530035434 3:3.650090893723043 24:3.2913825156549485 25:3.374764124594 791:6.915723448631314 898:15.21774125838252 
-74.31077415508919 4:1.717226417365488 17:3.0137507790566693 24:3.2913825156549485 30:3.8476705134976967 48:3.945308983061613 54:4.053522567701846 164:5.123963979403259 183:5.123963979403259 194:5.043921271729722 
-128.0 0:21.875037754331295 6:10.725194120828245 9:2.330755969960742 10:8.044850832102163 504:6.222576268071369 
-31.30972591180946 2:1.7007876910223283 3:3.650090893723043 6:2.145038824165649 8:1.9848531230039208 9:18.646047759685935 14:2.7885890635862225 45:3.871201010907891 70:4.143134726391533 82:4.350774091169777 168:39.20656342471239 762:6.915723448631314 
-67.72764129686551 1:1.5976034547870976 10:2.6816169440340545 16:3.1202342594591195 41:3.7802292327021645 103:4.47337641326211 206:10.421950712785778 216:4.430816798843313 265:5.529429087511423 481:6.222576268071369 
-128.0 0:12.152798752406275 3:3.650090893723043 7:2.006751808311558 8:1.9848531230039208 73:4.207673247529104 444:5.999432716757159 823:55.32578758905051 
-42.37286250098725 4:3.434452834730976 6:2.145038824165649 17:3.0137507790566693 18:3.0341596506878763 112:4.3899948043230586 139:39.20656342471239 334:10.087842543459445 574:6.222576268071369 
-81.34728033247742 0:6.076399376203137 4:3.434452834730976 6:2.145038824165649 9:4.661511939921484 11:2.515120428384497 14:2.7885890635862225 28:3.497996765017948 44:3.919991175077323 747:6.915723448631314 
-128.0 2:5.102363073066985 7:2.006751808311558 13:2.2289732756508 20:5.626160167189036 108:4.47337641326211 281:5.529429087511423 412:5.817111159963204 510:6.222576268071369 
-22.620825409661958 2:1.7007876910223283 4:1.717226417365488 6:17.160310593325192 12:2.7568403652716422 36:36.77044996466933 882:6.915723448631314 
-38.47592493161186 5:1.8436795264064147 13:2.2289732756508 19:25.143700084293403 65:4.112363067724779 95:4.350774091169777 167:4.900820428089049 221:5.210975356392889 254:5.306285536197214 260:5.529429087511423 313:5.662960480135946 602:5.210975356392889 711:6.51025834052315 954:6.915723448631314 
-128.0 0:1.2152798752406275 116:4.900820428089049 185:5.043921271729722 280:5.529429087511423 
-3.492179445760865 37:37.37669618283368 42:23.519947050463937 123:4.718498871295094 446:5.999432716757159 580:49.78061014457095 
-68.31855826523221 1:1.5976034547870976 10:2.6816169440340545 13:2.2289732756508 62:3.9979527165470348 124:4.718498871295094 133:5.043921271729722 166:10.247927958806518 168:4.900820428089049 553:6.51025834052315 614:6.51025834052315 
-118.94263276456216 3:1.8250454468615216 33:3.824680995272998 41:3.7802292327021645 51:3.871201010907891 60:4.082510104575098 71:8.415346495058207 72:4.174883424706113 190:5.043921271729722 342:5.662960480135946 370:5.817111159963204 372:5.817111159963204 695:6.51025834052315 979:6.915723448631314 
-3.36458272205604 1:1.5976034547870976 2:1.7007876910223283 3:20.075499915476737 27:3.449987545831587 38:29.901356946266947 62:3.9979527165470348 71:4.207673247529104 72:4.174883424706113 153:47.756572851350434 181:5.4116460518550396 532:6.222576268071369 789:6.915723448631314 
-128.0 7:2.006751808311558 67:4.241574799204785 249:5.662960480135946 275:5.4116460518550396 688:6.51025834052315 765:6.915723448631314 
-22.975568631836065 0:6.076399376203137 2:8.50393845511164 3:1.8250454468615216 4:1.717226417365488 14:2.7885890635862225 56:3.53133318528554 94:4.350774091169777 104:4.5178281758329435 107:4.613138355637268 753:15.21774125838252 924:6.915723448631314 
-128.0 4:1.717226417365488 25:3.374764124594 
-128.0 21:3.1545233329377513 41:3.7802292327021645 58:3.945308983061613 
-16.581063034368913 42:31.359929400618583 43:3.657626910609832 98:4.5178281758329435 111:9.801640856178098 128:4.836281906951478 330:5.662960480135946 797:6.915723448631314 
-128.0 13:2.2289732756508 14:2.7885890635862225 16:3.1202342594591195 61:4.02535169073515 186:5.4116460518550396 386:5.817111159963204 407:5.529429087511423 
-128.0 2:5.102363073066985 5:1.8436795264064147 22:1.6686993764708278 32:3.6015374439587884 73:4.207673247529104 77:4.207673247529104 85:4.430816798843313 123:4.718498871295094 525:6.51025834052315 
-128.0 1:1.5976034547870976 8:1.9848531230039208 32:3.6015374439587884 37:18.68834809141684 44:3.919991175077323 45:7.742402021815782 664:6.51025834052315 
-5.634354839942961 0:12.152798752406275 3:14.600363574892173 6:2.145038824165649 42:3.919991175077323 50:1.8128128784258872 61:4.02535169073515 62:3.9979527165470348 104:36.14262540666355 114:4.775657285135043 336:5.662960480135946 453:47.99546173405727 918:55.32578758905051 
-10.913433761701569 3:1.8250454468615216 7:2.006751808311558 28:3.497996765017948 119:4.836281906951478 252:5.306285536197214 261:43.293168414840316 317:5.529429087511423 807:6.915723448631314 
-123.87659628851061 2:6.803150764089313 4:1.717226417365488 5:1.8436795264064147 8:1.9848531230039208 15:4.394449154672439 26:3.332204510175204 34:3.657626910609832 46:3.8022081394209395 64:4.082510104575098 89:4.350774091169777 115:4.664431650024818 144:4.775657285135043 186:5.4116460518550396 262:5.4116460518550396 284:5.529429087511423 584:6.51025834052315 
-128.0 0:2.430559750481255 4:1.717226417365488 22:1.6686993764708278 43:3.657626910609832 59:4.02535169073515 68:4.053522567701846 106:4.718498871295094 154:4.836281906951478 205:5.306285536197214 522:6.222576268071369 
-128.0 3:1.8250454468615216 5:3.6873590528128295 10:5.363233888068109 41:3.7802292327021645 58:39.45308983061613 482:6.222576268071369 
-128.0 
-18.567425597548375 4:1.717226417365488 26:3.332204510175204 28:3.497996765017948 185:25.219606358648612 368:29.08555579981602 657:6.51025834052315 848:6.915723448631314 891:55.32578758905051 
-128.0 6:15.015271769159543 15:2.1972245773362196 18:3.0341596506878763 67:4.241574799204785 165:5.123963979403259 215:10.612571072394427 369:5.817111159963204 
-63.268603733402166 1:1.5976034547870976 2:1.7007876910223283 6:8.580155296662596 10:2.6816169440340545 22:1.6686993764708278 40:3.824680995272998 49:4.082510104575098 63:4.02535169073515 268:5.4116460518550396 900:6.915723448631314 
-128.0 0:1.2152798752406275 4:1.717226417365488 6:2.145038824165649 15:4.394449154672439 26:3.332204510175204 34:3.657626910609832 56:3.53133318528554 125:4.900820428089049 132:4.900820428089049 178:4.969813299576001 230:5.210975356392889 
-128.0 0:1.2152798752406275 48:3.945308983061613 59:4.02535169073515 84:4.564348191467836 186:5.4116460518550396 283:11.325920960271892 700:6.915723448631314 
-4.775154707999327 135:38.20525828108035 
-84.98622983443231 1:1.5976034547870976 3:18.250454468615217 5:1.8436795264064147 11:2.515120428384497 12:8.270521095814926 130:4.900820428089049 491:6.222576268071369 
-7.818175305908766 16:3.1202342594591195 56:3.53133318528554 84:13.693044574403508 96:4.5178281758329435 176:25.619819897016292 196:4.900820428089049 206:5.210975356392889 439:47.99546173405727 
-128.0 28:3.497996765017948 34:3.657626910609832 136:4.900820428089049 
-78.97097160251869 0:9.72223900192502 1:1.5976034547870976 8:1.9848531230039208 57:4.02535169073515 70:4.143134726391533 107:4.613138355637268 277:10.612571072394427 304:24.18140953475739 
-3.9334146818412155 2:3.4015753820446566 6:2.145038824165649 9:2.330755969960742 62:3.9979527165470348 234:5.4116460518550396 720:6.51025834052315 899:69.15723448631314 
-128.0 6:10.725194120828245 8:15.878824984031366 99:4.718498871295094 196:4.900820428089049 526:6.222576268071369 
-128.0 44:3.919991175077323 106:4.718498871295094 328:5.043921271729722 530:6.222576268071369 677:6.51025834052315 
-128.0 2:3.4015753820446566 5:3.6873590528128295 11:2.515120428384497 272:5.529429087511423 
-30.043318553105735 0:13.368078627646902 3:14.600363574892173 6:2.145038824165649 42:3.919991175077323 92:34.50427010549544 94:4.350774091169777 173:4.900820428089049 246:5.306285536197214 336:45.30368384108757 384:5.817111159963204 757:34.57861724315657 
-128.0 0:12.152798752406275 1:1.5976034547870976 4:1.717226417365488 7:2.006751808311558 9:2.330755969960742 
-128.0 0:1.2152798752406275 3:3.650090893723043 18:3.0341596506878763 19:3.1429625105366754 21:3.1545233329377513 39:3.8022081394209395 50:3.6256257568517745 985:6.915723448631314 
-13.294282735018884 1:1.5976034547870976 2:1.7007876910223283 31:4.02535169073515 55:7.942568938929747 61:4.02535169073515 65:12.337089203174337 77:4.207673247529104 84:4.564348191467836 756:6.915723448631314 
-128.0 80:4.3899948043230586 95:4.350774091169777 
-13.839508310412809 2:1.7007876910223283 8:1.9848531230039208 12:2.7568403652716422 16:3.1202342594591195 67:4.241574799204785 331:5.817111159963204 440:47.99546173405727 549:5.529429087511423 
-5.607994510073478 0:2.430559750481255 1:1.5976034547870976 3:45.62613617153804 5:1.8436795264064147 8:1.9848531230039208 9:2.330755969960742 42:31.359929400618583 94:4.350774091169777 157:38.690255255611824 374:46.53688927970563 
-128.0 0:1.2152798752406275 14:2.7885890635862225 
-128.0 70:33.14507781113226 
-74.14976892537648 1:1.5976034547870976 10:2.6816169440340545 111:9.801640856178098 141:4.775657285135043 431:5.999432716757159 
-76.82519030291633 0:1.2152798752406275 3:18.250454468615217 4:3.434452834730976 6:2.145038824165649 8:1.9848531230039208 12:2.7568403652716422 62:3.9979527165470348 94:4.350774091169777 
-80.81801047238879 0:10.937518877165648 2:5.102363073066985 5:16.593115737657733 7:2.006751808311558 8:3.9697062460078416 10:2.6816169440340545 42:31.359929400618583 68:4.053522567701846 77:4.207673247529104 83:4.241574799204785 120:4.613138355637268 421:5.999432716757159 
-74.36663989154172 3:1.8250454468615216 4:1.717226417365488 5:1.8436795264064147 13:2.2289732756508 470:5.999432716757159 631:6.51025834052315 
-104.11285734068623 3:1.8250454468615216 5:1.8436795264064147 15:2.1972245773362196 17:3.0137507790566693 61:4.02535169073515 63:4.02535169073515 112:4.3899948043230586 155:9.939626599152001 237:11.634222319926408 434:5.999432716757159 498:13.0205166810463 
-128.0 0:1.2152798752406275 67:4.241574799204785 
-32.66116583478057 2:1.7007876910223283 4:3.434452834730976 5:1.8436795264064147 84:9.128696382935672 129:4.775657285135043 174:5.043921271729722 471:5.999432716757159 687:5.999432716757159 
-128.0 2:1.7007876910223283 3:14.600363574892173 14:5.577178127172445 119:4.836281906951478 175:5.210975356392889 255:5.4116460518550396 
-31.244345197608 26:3.332204510175204 78:12.939101289560792 94:4.350774091169777 113:4.664431650024818 221:20.843901425571556 335:5.817111159963204 
-27.050912692185914 60:4.082510104575098 106:4.718498871295094 270:5.4116460518550396 301:5.817111159963204 312:6.222576268071369 506:6.51025834052315 627:6.51025834052315 805:6.915723448631314 831:6.915723448631314 
-41.43592364675833 0:1.2152798752406275 3:18.250454468615217 8:3.9697062460078416 24:3.2913825156549485 36:29.416359971735467 56:3.53133318528554 106:4.718498871295094 
-6.62133069584711 7:4.013503616623116 9:18.646047759685935 46:3.8022081394209395 71:33.66138598023283 211:25.619819897016292 212:5.306285536197214 307:5.529429087511423 
-128.0 7:2.006751808311558 122:4.836281906951478 189:5.210975356392889 418:5.999432716757159 
-128.0 3:14.600363574892173 44:3.919991175077323 438:5.999432716757159 776:6.915723448631314 
-128.0 3:1.8250454468615216 22:5.006098129412483 42:3.919991175077323 239:5.529429087511423 
-59.41099054365168 0:2.430559750481255 1:1.5976034547870976 2:3.4015753820446566 34:29.261015284878656 40:3.824680995272998 50:5.438438635277661 65:4.112363067724779 233:5.210975356392889 
-128.0 4:1.717226417365488 38:3.7376696182833684 237:11.634222319926408 736:6.51025834052315 
-128.0 2:1.7007876910223283 4:1.717226417365488 20:2.813080083594518 120:4.613138355637268 142:3.6770449964669334 278:5.529429087511423 371:5.999432716757159 800:6.915723448631314 809:6.915723448631314 
-128.0 4:1.717226417365488 18:3.0341596506878763 52:4.053522567701846 54:4.053522567701846 81:4.3899948043230586 430:6.915723448631314 
-128.0 0:12.152798752406275 28:3.497996765017948 52:12.160567703105537 
-128.0 7:2.006751808311558 11:2.515120428384497 223:5.210975356392889 
-128.0 7:2.006751808311558 
-128.0 13:4.4579465513016 28:3.497996765017948 82:4.350774091169777 116:4.900820428089049 202:5.123963979403259 463:5.999432716757159 
-20.926370551624014 0:19.44447800385004 1:3.1952069095741953 6:2.145038824165649 252:42.45028428957771 346:59.99432716757159 
-37.8550328350032 3:29.200727149784345 7:4.013503616623116 11:2.515120428384497 13:2.2289732756508 121:9.939626599152001 170:84.90056857915542 387:5.817111159963204 425:5.999432716757159 
-128.0 0:19.44447800385004 123:4.718498871295094 290:5.529429087511423 
-20.82620992153058 0:10.937518877165648 2:1.7007876910223283 7:2.006751808311558 15:2.1972245773362196 35:3.6770449964669334 58:3.945308983061613 107:36.905106845098146 135:9.551314570270087 244:5.4116460518550396 311:5.529429087511423 516:6.222576268071369 
-128.0 0:1.2152798752406275 11:2.515120428384497 113:4.664431650024818 529:6.51025834052315 956:6.915723448631314 
-9.75655454035013 110:36.14262540666355 134:23.59249435647547 205:5.306285536197214 339:5.662960480135946 350:5.662960480135946 
-128.0 3:14.600363574892173 11:2.515120428384497 91:4.3899948043230586 
-8.447052181584148 28:3.497996765017948 88:4.430816798843313 104:36.14262540666355 
-128.0 3:1.8250454468615216 121:4.969813299576001 514:6.222576268071369 693:6.51025834052315 
-23.212937890373215 36:36.77044996466933 41:3.7802292327021645 109:4.47337641326211 152:5.123963979403259 517:6.222576268071369 787:6.915723448631314 949:6.915723448631314 
-13.505961318097768 26:26.65763608140163 44:3.919991175077323 129:4.775657285135043 139:4.900820428089049 225:42.45028428957771 404:5.817111159963204 512:6.222576268071369 740:6.51025834052315 
-3.8406975830804893 3:1.8250454468615216 14:2.7885890635862225 17:3.0137507790566693 21:6.309046665875503 119:4.836281906951478 146:50.439212717297224 149:38.690255255611824 396:58.17111159963204 581:6.222576268071369 745:22.82661188757378 916:6.915723448631314 
-6.131485598736551 13:4.4579465513016 32:36.01537443958789 40:3.824680995272998 114:4.775657285135043 219:5.210975356392889 297:5.4116460518550396 300:55.294290875114235 391:11.998865433514318 656:6.51025834052315 
-60.99426968132467 0:1.2152798752406275 3:14.600363574892173 6:2.145038824165649 7:2.006751808311558 31:8.0507033814703 46:3.8022081394209395 60:4.082510104575098 91:4.3899948043230586 
-128.0 3:16.425409021753694 17:3.0137507790566693 20:2.813080083594518 22:1.6686993764708278 353:5.662960480135946 
-60.95706456981212 4:1.717226417365488 5:1.8436795264064147 8:1.9848531230039208 24:3.2913825156549485 37:3.7376696182833684 44:3.919991175077323 127:4.900820428089049 147:5.043921271729722 320:5.662960480135946 677:6.51025834052315 740:6.51025834052315 
-128.0 1:1.5976034547870976 
-128.0 0:1.2152798752406275 2:1.7007876910223283 18:3.0341596506878763 19:3.1429625105366754 177:4.969813299576001 720:6.51025834052315 
-118.33368702151789 4:3.434452834730976 16:6.240468518918239 32:3.6015374439587884 140:9.672563813902956 255:5.4116460518550396 451:5.999432716757159 
-48.92390283566319 2:3.4015753820446566 4:1.717226417365488 8:15.878824984031366 11:2.515120428384497 30:3.8476705134976967 55:31.770275755718988 147:5.043921271729722 165:5.123963979403259 835:6.915723448631314 
-2.0114662628567115 0:1.2152798752406275 2:1.7007876910223283 3:1.8250454468615216 4:1.717226417365488 5:1.8436795264064147 11:2.515120428384497 12:2.7568403652716422 93:4.3899948043230586 705:6.51025834052315 788:6.915723448631314 924:6.915723448631314 959:55.32578758905051 969:6.915723448631314 
-128.0 0:9.72223900192502 12:2.7568403652716422 
-0.3812014904828314 0:2.430559750481255 1:1.5976034547870976 3:14.600363574892173 24:3.2913825156549485 321:5.662960480135946 668:110.65157517810103 
-45.24393205523879 0:1.2152798752406275 12:2.7568403652716422 40:3.824680995272998 53:3.9712844694648735 58:3.945308983061613 189:10.421950712785778 449:5.999432716757159 482:6.222576268071369 626:6.51025834052315 
-128.0 0:1.2152798752406275 254:5.306285536197214 
-21.09488452433548 10:13.408084720170272 65:8.224726135449558 143:5.123963979403259 212:5.306285536197214 801:15.21774125838252 877:15.21774125838252 
-36.03637548902995 4:3.434452834730976 11:2.515120428384497 20:2.813080083594518 262:5.4116460518550396 266:5.4116460518550396 625:13.831446897262628 919:6.915723448631314 
-128.0 119:4.836281906951478 287:5.529429087511423 402:5.817111159963204 635:6.51025834052315 
-128.0 2:1.7007876910223283 10:2.6816169440340545 104:4.5178281758329435 204:5.210975356392889 
-128.0 11:2.515120428384497 45:3.871201010907891 466:5.999432716757159 
-128.0 0:1.2152798752406275 4:1.717226417365488 9:2.330755969960742 122:4.836281906951478 
-128.0 0:1.2152798752406275 7:2.006751808311558 9:6.992267909882226 37:3.7376696182833684 63:4.02535169073515 73:4.207673247529104 104:4.5178281758329435 468:5.999432716757159 
-6.066014176687355 1:1.5976034547870976 4:1.717226417365488 21:6.309046665875503 27:3.449987545831587 33:3.824680995272998 201:5.123963979403259 324:11.998865433514318 386:5.817111159963204 748:15.21774125838252 915:6.915723448631314 
-96.66350946783287 1:1.5976034547870976 3:3.650090893723043 18:3.0341596506878763 38:3.7376696182833684 68:4.053522567701846 137:4.775657285135043 184:5.123963979403259 211:5.123963979403259 317:5.529429087511423 684:6.51025834052315 
-128.0 24:3.2913825156549485 129:4.775657285135043 261:5.4116460518550396 267:5.529429087511423 
-128.0 5:1.8436795264064147 8:1.9848531230039208 119:4.836281906951478 217:5.210975356392889 
-1.686644480602136 3:18.250454468615217 4:1.717226417365488 11:2.515120428384497 43:29.261015284878656 122:4.836281906951478 231:5.210975356392889 340:56.62960480135946 903:6.915723448631314 
-50.29545507559167 3:1.8250454468615216 5:1.8436795264064147 8:1.9848531230039208 30:3.8476705134976967 43:3.657626910609832 61:4.02535169073515 65:4.112363067724779 81:4.3899948043230586 183:5.123963979403259 217:5.210975356392889 238:5.529429087511423 307:5.529429087511423 321:5.662960480135946 339:5.662960480135946 447:5.999432716757159 561:6.222576268071369 749:6.915723448631314 
-128.0 4:3.434452834730976 24:3.2913825156549485 226:5.4116460518550396 228:5.210975356392889 
-35.87856119516537 0:9.72223900192502 2:1.7007876910223283 5:16.593115737657733 8:3.9697062460078416 12:2.7568403652716422 51:3.871201010907891 84:36.51478553174269 118:4.613138355637268 182:40.35137017383778 234:16.234938155565118 353:5.662960480135946 669:6.915723448631314 
-128.0 0:10.937518877165648 2:1.7007876910223283 4:1.717226417365488 107:9.226276711274537 321:5.662960480135946 844:6.915723448631314 
-72.94832802941181 4:1.717226417365488 8:1.9848531230039208 11:2.515120428384497 28:3.497996765017948 32:28.812299551670307 123:4.718498871295094 320:5.662960480135946 520:6.222576268071369 682:6.51025834052315 
-9.228264217188858 0:1.2152798752406275 1:3.1952069095741953 171:10.087842543459445 270:5.4116460518550396 459:12.445152536142738 630:13.831446897262628 
-20.969164584880886 0:1.2152798752406275 1:1.5976034547870976 9:4.661511939921484 10:2.6816169440340545 42:3.919991175077323 85:35.44653439074651 105:5.817111159963204 212:15.918856608591641 286:5.529429087511423 824:6.915723448631314 
-25.98451308236311 1:1.5976034547870976 5:1.8436795264064147 6:2.145038824165649 14:2.7885890635862225 105:23.268444639852817 236:5.4116460518550396 334:5.043921271729722 392:5.817111159963204 862:6.915723448631314 
-128.0 0:1.2152798752406275 13:2.2289732756508 332:5.999432716757159 
-128.0 
-4.5316138724351065 1:3.1952069095741953 2:3.4015753820446566 15:2.1972245773362196 21:3.1545233329377513 40:30.597447962183985 65:4.112363067724779 158:4.900820428089049 265:99.52972357520562 329:56.62960480135946 
-128.0 6:4.290077648331298 7:2.006751808311558 17:3.0137507790566693 26:3.332204510175204 250:5.4116460518550396 292:5.529429087511423 364:5.817111159963204 434:5.999432716757159 654:6.51025834052315 
-128.0 0:9.72223900192502 20:2.813080083594518 
-128.0 8:15.878824984031366 24:3.2913825156549485 94:4.350774091169777 118:4.613138355637268 188:5.043921271729722 
-34.112901536737056 0:12.152798752406275 4:5.151679252096464 11:2.515120428384497 35:3.6770449964669334 41:3.7802292327021645 58:3.945308983061613 115:4.664431650024818 273:5.4116460518550396 330:5.662960480135946 365:5.817111159963204 
-128.0 4:1.717226417365488 11:2.515120428384497 107:4.613138355637268 
-13.19643341733456 1:3.1952069095741953 3:14.600363574892173 6:17.160310593325192 14:2.7885890635862225 18:3.0341596506878763 21:59.93594332581728 42:3.919991175077323 51:3.871201010907891 119:38.690255255611824 135:9.551314570270087 319:5.529429087511423 
-128.0 2:1.7007876910223283 3:5.475136340584565 7:2.006751808311558 9:4.661511939921484 54:4.053522567701846 90:3.8022081394209395 166:5.123963979403259 
-2.739728135177642 0:1.2152798752406275 2:3.4015753820446566 4:1.717226417365488 63:4.02535169073515 160:10.087842543459445 203:5.210975356392889 
-112.48119974392631 7:2.006751808311558 24:3.2913825156549485 28:3.497996765017948 32:18.007687219793944 51:3.871201010907891 88:4.430816798843313 210:5.210975356392889 244:43.293168414840316 704:6.51025834052315 
-48.22820178312081 0:1.2152798752406275 3:1.8250454468615216 50:1.8128128784258872 52:8.107045135403691 204:5.210975356392889 241:5.4116460518550396 
-128.0 
-128.0 
-69.72320671765621 27:3.449987545831587 35:3.6770449964669334 54:4.053522567701846 72:4.174883424706113 91:35.11995843458447 223:5.210975356392889 
-100.89390221971496 6:2.145038824165649 8:1.9848531230039208 20:5.626160167189036 49:4.082510104575098 65:4.112363067724779 282:5.529429087511423 288:5.662960480135946 493:6.222576268071369 606:6.51025834052315 790:6.915723448631314 
-128.0 0:1.2152798752406275 4:1.717226417365488 5:3.6873590528128295 7:4.013503616623116 21:3.1545233329377513 85:4.430816798843313 450:5.999432716757159 508:6.222576268071369 
-128.0 4:1.717226417365488 303:5.529429087511423 385:5.817111159963204 
-108.65944037298146 0:2.430559750481255 4:1.717226417365488 876:15.21774125838252 
-128.0 1:1.5976034547870976 3:1.8250454468615216 27:3.449987545831587 50:3.6256257568517745 233:5.210975356392889 
-128.0 15:2.1972245773362196 34:3.657626910609832 167:4.900820428089049 662:6.51025834052315 
-123.14384907734457 28:3.497996765017948 95:4.350774091169777 98:4.5178281758329435 123:4.718498871295094 253:5.306285536197214 
-128.0 0:2.430559750481255 1:1.5976034547870976 4:3.434452834730976 43:3.657626910609832 97:8.94675282652422 100:4.564348191467836 319:5.529429087511423 709:6.51025834052315 
-128.0 
-128.0 
-76.74189391692931 0:1.2152798752406275 16:3.1202342594591195 44:3.919991175077323 49:4.082510104575098 65:4.112363067724779 117:4.775657285135043 260:11.058858175022847 479:6.222576268071369 878:6.915723448631314 
-128.0 1:3.1952069095741953 155:24.849066497880003 308:11.058858175022847 569:6.222576268071369 
-128.0 3:14.600363574892173 6:2.145038824165649 8:3.9697062460078416 15:2.1972245773362196 36:3.6770449964669334 37:3.7376696182833684 62:3.9979527165470348 248:5.529429087511423 337:5.662960480135946 
-128.0 
-3.8254534832037654 2:1.7007876910223283 4:1.717226417365488 5:3.6873590528128295 11:2.515120428384497 56:7.06266637057108 114:4.775657285135043 134:4.718498871295094 196:4.900820428089049 346:47.99546173405727 
-128.0 7:2.006751808311558 26:26.65763608140163 46:3.8022081394209395 
-128.0 0:1.2152798752406275 1:1.5976034547870976 35:7.354089992933867 78:4.31303376318693 98:4.5178281758329435 950:6.915723448631314 
-128.0 4:1.717226417365488 10:2.6816169440340545 20:2.813080083594518 21:3.1545233329377513 81:4.3899948043230586 86:4.207673247529104 109:4.47337641326211 231:5.210975356392889 355:29.08555579981602 
-128.0 1:1.5976034547870976 20:2.813080083594518 27:3.449987545831587 56:7.06266637057108 57:4.02535169073515 98:4.5178281758329435 559:5.662960480135946 
-45.06920366072575 33:3.824680995272998 98:4.5178281758329435 107:4.613138355637268 113:4.664431650024818 200:5.4116460518550396 214:11.058858175022847 263:5.529429087511423 333:5.999432716757159 471:5.999432716757159 
-128.0 11:2.515120428384497 17:3.0137507790566693 37:3.7376696182833684 69:33.399067397648906 349:5.662960480135946 967:6.915723448631314 
-128.0 2:1.7007876910223283 9:2.330755969960742 11:2.515120428384497 80:4.3899948043230586 81:4.3899948043230586 89:34.806192729358216 
-14.419088527595086 1:3.1952069095741953 7:2.006751808311558 51:3.871201010907891 108:22.36688206631055 211:5.123963979403259 422:62.225762680713686 
-128.0 3:1.8250454468615216 38:3.7376696182833684 
-16.789190821877288 3:1.8250454468615216 4:1.717226417365488 5:1.8436795264064147 9:20.976803729646676 34:3.657626910609832 45:3.871201010907891 671:6.51025834052315 925:15.21774125838252 
-128.0 0:1.2152798752406275 14:2.7885890635862225 38:3.7376696182833684 131:4.836281906951478 254:5.306285536197214 
-128.0 0:1.2152798752406275 64:4.082510104575098 314:5.529429087511423 
-128.0 0:1.2152798752406275 64:4.082510104575098 314:5.529429087511423 
-128.0 2:1.7007876910223283 6:2.145038824165649 7:2.006751808311558 140:4.836281906951478 605:6.51025834052315 
-128.0 60:4.082510104575098 199:5.123963979403259 
-22.50542486499054 5:1.8436795264064147 9:4.661511939921484 11:2.515120428384497 70:4.143134726391533 821:6.915723448631314 974:55.32578758905051 
-128.0 0:1.2152798752406275 
-128.0 0:1.2152798752406275 1:1.5976034547870976 2:1.7007876910223283 36:3.6770449964669334 47:3.824680995272998 136:4.900820428089049 
-18.48858780065086 6:2.145038824165649 10:16.089701664204327 18:3.0341596506878763 20:2.813080083594518 42:31.359929400618583 95:4.350774091169777 136:4.900820428089049 243:5.306285536197214 759:13.831446897262628 
-41.61247621483119 1:1.5976034547870976 7:2.006751808311558 13:2.2289732756508 74:4.241574799204785 83:4.241574799204785 703:6.51025834052315 721:6.915723448631314 
-54.43126645359154 2:1.7007876910223283 20:2.813080083594518 28:3.497996765017948 103:4.47337641326211 117:9.551314570270087 263:5.529429087511423 310:5.817111159963204 345:5.817111159963204 389:5.817111159963204 493:6.222576268071369 
-128.0 4:1.717226417365488 7:2.006751808311558 14:2.7885890635862225 21:25.23618666350201 43:3.657626910609832 258:5.4116460518550396 475:5.999432716757159 827:6.915723448631314 
-128.0 2:1.7007876910223283 
-128.0 1:1.5976034547870976 7:2.006751808311558 14:22.30871250868978 368:5.817111159963204 
-128.0 4:1.717226417365488 367:5.817111159963204 
-5.219669707777364 0:9.72223900192502 3:18.250454468615217 8:17.863678107035287 10:2.6816169440340545 24:3.2913825156549485 41:18.901146163510823 71:21.03836623764552 129:4.775657285135043 202:5.123963979403259 352:45.30368384108757 821:55.32578758905051 
-128.0 1:3.1952069095741953 20:2.813080083594518 94:4.350774091169777 179:22.36688206631055 
-9.409677446873427 2:1.7007876910223283 8:1.9848531230039208 12:2.7568403652716422 16:3.1202342594591195 67:4.241574799204785 331:5.817111159963204 440:47.99546173405727 549:5.529429087511423 
-15.831888861492674 0:17.013918253368786 3:1.8250454468615216 6:6.435116472496947 27:6.899975091663174 54:4.053522567701846 157:38.690255255611824 168:39.20656342471239 185:5.043921271729722 461:5.4116460518550396 
-128.0 4:1.717226417365488 11:2.515120428384497 95:4.350774091169777 371:5.999432716757159 
-128.0 1:3.1952069095741953 5:3.6873590528128295 68:4.053522567701846 155:4.969813299576001 287:5.529429087511423 382:5.999432716757159 528:6.51025834052315 
-13.256617716928957 4:1.717226417365488 7:4.013503616623116 14:2.7885890635862225 62:3.9979527165470348 144:4.775657285135043 146:5.043921271729722 318:5.817111159963204 365:5.817111159963204 473:5.999432716757159 526:6.222576268071369 571:6.222576268071369 697:6.51025834052315 
-4.509292600820772 6:6.435116472496947 38:3.7376696182833684 41:60.48366772323463 341:75.62244507952165 350:5.662960480135946 527:6.222576268071369 
-12.212783559217506 5:1.8436795264064147 51:3.871201010907891 107:4.613138355637268 302:5.529429087511423 389:5.817111159963204 408:46.53688927970563 
-128.0 1:1.5976034547870976 2:3.4015753820446566 8:1.9848531230039208 17:3.0137507790566693 38:3.7376696182833684 76:8.55333223803211 
-128.0 7:2.006751808311558 12:2.7568403652716422 55:31.770275755718988 244:5.4116460518550396 449:5.999432716757159 717:6.51025834052315 
-120.72603045736626 1:1.5976034547870976 10:2.6816169440340545 17:3.0137507790566693 76:4.276666119016055 143:15.371891938209776 
-128.0 2:1.7007876910223283 4:1.717226417365488 5:1.8436795264064147 8:19.848531230039207 279:5.662960480135946 735:6.51025834052315 
-128.0 0:1.2152798752406275 2:1.7007876910223283 5:1.8436795264064147 7:2.006751808311558 12:2.7568403652716422 21:3.1545233329377513 27:6.899975091663174 34:3.657626910609832 576:1.517560747113561 
-128.0 0:2.430559750481255 9:2.330755969960742 15:2.1972245773362196 208:52.10975356392889 682:6.51025834052315 796:6.915723448631314 
-124.42716254220987 2:3.4015753820446566 5:3.6873590528128295 6:2.145038824165649 7:2.006751808311558 18:3.0341596506878763 229:5.817111159963204 577:6.222576268071369 727:6.51025834052315 
-53.48968827765088 5:1.8436795264064147 8:15.878824984031366 75:4.207673247529104 125:39.20656342471239 163:4.969813299576001 219:5.210975356392889 
-128.0 
-128.0 0:1.2152798752406275 196:4.900820428089049 
-18.5825045224205 3:1.8250454468615216 7:2.006751808311558 22:1.6686993764708278 76:8.55333223803211 127:9.801640856178098 915:6.915723448631314 
-4.801870798690616 8:1.9848531230039208 10:2.6816169440340545 32:3.6015374439587884 119:4.836281906951478 123:4.718498871295094 125:4.900820428089049 152:5.123963979403259 167:4.900820428089049 249:16.988881440407837 383:5.817111159963204 640:6.51025834052315 742:6.51025834052315 
-128.0 1:1.5976034547870976 2:1.7007876910223283 8:1.9848531230039208 11:2.515120428384497 12:5.5136807305432844 13:2.2289732756508 14:2.7885890635862225 19:25.143700084293403 55:3.9712844694648735 90:3.8022081394209395 99:4.718498871295094 184:5.123963979403259 211:5.123963979403259 335:5.817111159963204 
-128.0 1:1.5976034547870976 6:2.145038824165649 16:6.240468518918239 21:3.1545233329377513 157:4.836281906951478 
-3.8398183085625663 0:10.937518877165648 1:1.5976034547870976 2:1.7007876910223283 4:1.717226417365488 6:4.290077648331298 7:2.006751808311558 8:3.9697062460078416 22:1.6686993764708278 42:3.919991175077323 483:6.222576268071369 
-39.94775974821842 1:3.1952069095741953 6:2.145038824165649 24:3.2913825156549485 67:4.241574799204785 131:24.18140953475739 168:39.20656342471239 182:40.35137017383778 425:5.999432716757159 599:6.51025834052315 
-128.0 2:1.7007876910223283 4:1.717226417365488 7:2.006751808311558 11:2.515120428384497 12:2.7568403652716422 15:2.1972245773362196 30:7.6953410269953935 89:4.350774091169777 
-0.41068428468965323 1:1.5976034547870976 5:1.8436795264064147 10:2.6816169440340545 11:2.515120428384497 16:3.1202342594591195 24:3.2913825156549485 268:5.4116460518550396 383:5.817111159963204 701:65.1025834052315 
-53.123935191970034 1:1.5976034547870976 3:1.8250454468615216 10:2.6816169440340545 20:2.813080083594518 51:3.871201010907891 171:5.043921271729722 181:21.646584207420158 183:5.123963979403259 268:5.4116460518550396 302:44.23543270009139 571:6.222576268071369 
-128.0 0:1.2152798752406275 3:5.475136340584565 5:1.8436795264064147 32:28.812299551670307 61:4.02535169073515 201:5.123963979403259 318:5.817111159963204 
-128.0 
-12.673717880328239 5:1.8436795264064147 11:2.515120428384497 19:3.1429625105366754 51:3.871201010907891 68:4.053522567701846 115:37.31545320019855 
-55.5435238176037 1:1.5976034547870976 2:1.7007876910223283 5:1.8436795264064147 11:2.515120428384497 29:3.8952985624869516 30:15.390682053990787 49:4.082510104575098 87:4.430816798843313 176:5.123963979403259 183:5.123963979403259 831:6.915723448631314 
-57.14105003915757 4:1.717226417365488 17:3.0137507790566693 37:3.7376696182833684 76:4.276666119016055 101:4.5178281758329435 198:5.210975356392889 228:5.210975356392889 236:5.4116460518550396 278:5.529429087511423 414:5.817111159963204 601:6.51025834052315 618:6.51025834052315 707:6.51025834052315 
-80.95530496915246 3:1.8250454468615216 24:3.2913825156549485 68:4.053522567701846 411:12.445152536142738 606:6.51025834052315 943:6.915723448631314 
-128.0 3:1.8250454468615216 9:2.330755969960742 
-128.0 0:6.076399376203137 13:2.2289732756508 16:3.1202342594591195 309:5.662960480135946 497:6.222576268071369 
-19.631871236752858 1:6.390413819148391 39:3.8022081394209395 51:3.871201010907891 101:4.5178281758329435 610:6.915723448631314 959:6.915723448631314 
-120.0136697129817 0:1.2152798752406275 17:3.0137507790566693 50:1.8128128784258872 63:4.02535169073515 893:13.831446897262628 
-128.0 0:9.72223900192502 4:1.717226417365488 5:1.8436795264064147 27:3.449987545831587 159:4.969813299576001 334:5.043921271729722 589:6.51025834052315 
-128.0 3:18.250454468615217 623:6.51025834052315 
-128.0 7:2.006751808311558 35:3.6770449964669334 49:12.247530313725294 117:4.775657285135043 148:4.836281906951478 
-128.0 9:2.330755969960742 13:2.2289732756508 17:3.0137507790566693 54:8.107045135403691 60:4.082510104575098 
-128.0 1:1.5976034547870976 84:4.564348191467836 177:4.969813299576001 343:5.662960480135946 373:5.817111159963204 
-128.0 2:6.803150764089313 17:3.0137507790566693 47:3.824680995272998 77:4.207673247529104 107:4.613138355637268 264:16.988881440407837 
-10.509218268650669 1:1.5976034547870976 7:6.020255424934675 15:2.1972245773362196 26:3.332204510175204 248:44.23543270009139 402:5.817111159963204 744:6.51025834052315 834:6.915723448631314 855:6.51025834052315 864:6.915723448631314 957:6.915723448631314 
-128.0 1:1.5976034547870976 2:1.7007876910223283 3:1.8250454468615216 14:2.7885890635862225 59:4.02535169073515 82:4.350774091169777 154:4.836281906951478 162:4.969813299576001 197:4.47337641326211 208:41.68780285114311 594:6.51025834052315 
-46.90393119903922 0:7.291679251443766 2:1.7007876910223283 4:1.717226417365488 9:4.661511939921484 40:3.824680995272998 471:5.999432716757159 923:6.915723448631314 
-128.0 91:4.3899948043230586 
-128.0 4:1.717226417365488 5:3.6873590528128295 11:2.515120428384497 59:8.0507033814703 128:4.836281906951478 488:5.817111159963204 507:6.222576268071369 693:6.51025834052315 895:6.915723448631314 
