svm_type c_svc
kernel_type rbf
gamma 3.0517578125E-5
nr_class 2
total_sv 214
rho 0.327558915807146
label 1 2
nr_sv 82 132
SV
11.311336519926042 0:1.6738247609254089 3:0.5649921449718032 4:4.26337108711792 5:2.5834312421307053 6:4.1993695277843255 7:2.231766347900545 9:1.4461627767559795 10:17.113307037524415 14:1.18537997124932 17:4.20082077152427 19:1.9174675787678164 20:1.1766462912805655 25:1.8218862510951197 30:5.922626919078743 32:1.9244728398702207 34:1.8356021070922315 38:13.912392581851764 43:0.9692787025605233 48:1.6802516670730692 57:1.6449123006277602 59:1.2487495851819095 62:1.27239134823895 63:4.265306247940652 71:5.21478482994258 76:2.5736988628283597 80:3.479056554005219 81:3.2081806122150103 82:5.359235588704379 101:1.5209753993969986 105:2.32426615905537 111:4.232156739380897 116:1.6379918577831865 117:1.3315218714657724 120:1.6311189784954245 135:1.4556703009892318 144:2.2452777477367394 147:3.262237956990849 150:1.694744674375636 151:1.5087801263031804 156:1.778443693252283 158:7.014178443563116 161:1.8272338574217148 168:4.059516243066378 172:6.311598281060732 181:1.8272338574217148 192:1.9325943730795412 211:2.019605750069171 224:2.220276445531322 225:5.853859518275081 226:2.3806190956065016 237:4.4653979310597585 239:3.9795055738389795 249:1.9325943730795412 256:2.029758121533189 261:4.207732187373821 262:7.805146024366775 265:1.9325943730795412 268:2.160378303950253 269:2.366230358154402 270:3.8467554359492344 295:4.10075481747185 296:2.2972374866674503 300:3.9025730121833875 302:2.1373887857255545 314:2.1038660936869107 318:2.050377408735925 321:4.880676660616247 331:5.143348664738421 384:2.310660506999591 398:2.2326989655298792 399:2.1720743437134447 402:10.653927526489333 411:7.140406324960676 414:2.8770559819203925 431:2.082126107050505 459:4.820065961625589 462:2.2972374866674503 494:2.682899967479435 506:2.3520457231624454 513:2.3806190956065016 526:2.8770559819203925 545:2.487591215158669 553:2.487591215158669 555:2.4250708581773353 568:2.52038103798166 570:12.989719080869147 584:2.3520457231624454 593:2.52038103798166 617:2.786084203714666 618:2.9511639540741146 626:12.94686954734306 644:2.8770559819203925 661:2.6634818816223333 664:2.60739241497129 670:5.4870491785917395 678:2.786084203714666 679:2.702702594775615 688:2.60739241497129 701:2.644433686651639 709:5.572168407429332 751:2.644433686651639 755:3.0038076875595365 758:3.2135282185416054 794:9.093619985242952 815:3.2474297702172867 823:2.901153533499453 826:30.252098049180358 828:2.8080631104334413 859:3.1182180387372807 860:3.1807383957186146 887:10.310015309567445 907:2.8770559819203925 915:2.9511639540741146 921:6.062413323495302 951:3.059377538714347 
32.0 5:2.5834312421307053 51:2.9578543263069985 75:1.73192367761739 81:1.6040903061075051 105:9.29706463622148 119:3.9406694021247763 121:1.4967317877870059 154:3.7395869436810214 155:1.6379918577831865 156:1.778443693252283 186:1.9897527869194898 229:1.9233777179746172 267:2.366230358154402 269:2.366230358154402 310:2.148817481549177 322:4.297634963098354 340:2.029758121533189 500:2.3952178950276544 627:2.5542825896573413 657:2.52038103798166 899:2.7645779984937024 
32.0 0:0.5579415869751363 4:0.8526742174235841 5:2.5834312421307053 12:1.1012968540387786 24:0.9379717979354791 26:1.2210980538513994 34:5.506806321276694 51:1.4789271631534993 52:3.479056554005219 67:2.019605750069171 90:1.9703347010623882 105:4.64853231811074 121:2.9934635755740118 145:2.455842516844089 149:1.6802516670730692 154:1.8697934718405107 191:3.46384735523478 195:1.5842876788113254 211:4.039211500138342 281:4.64853231811074 435:2.258016773514169 477:4.732460716308804 494:2.682899967479435 500:2.3952178950276544 502:4.56798451983486 555:2.4250708581773353 570:3.2474297702172867 573:2.7435245892958697 657:5.04076207596332 703:2.7229053020931344 732:3.1807383957186146 803:3.570203162480338 843:5.95427888095475 899:2.7645779984937024 
32.0 3:1.6949764349154095 4:0.8526742174235841 7:0.5579415869751363 29:0.7711811831724011 38:1.5458213979835294 79:1.3214207754792684 89:1.6040903061075051 122:1.3572302281759792 148:2.1720743437134447 151:3.0175602526063607 191:1.73192367761739 195:1.5842876788113254 211:6.058817250207513 212:2.3806190956065016 273:1.9512865060916937 288:1.8611354090973962 365:2.52038103798166 444:2.682899967479435 502:2.28399225991743 523:4.704091446324891 573:5.4870491785917395 755:6.007615375119073 765:8.853491862222343 869:3.2474297702172867 
16.340771868916303 3:1.1299842899436063 5:2.5834312421307053 6:4.1993695277843255 7:1.6738247609254089 9:2.169244165133969 10:1.3164082336557241 12:3.3038905621163357 19:1.9174675787678164 27:1.3572302281759792 29:1.5423623663448023 30:0.9871044865131239 36:1.2676180694862922 40:2.9344622467806154 43:1.9385574051210466 54:3.3749438300931125 59:1.2487495851819095 64:1.4385758676299316 68:1.2534334344943356 72:1.3015196211619735 82:1.7864118629014598 121:1.4967317877870059 128:1.7020707144677087 133:1.9607652500462374 138:1.4848268852806874 171:1.8525516654060048 172:4.207732187373821 176:3.8837935314837093 179:1.8356021070922315 183:1.8785271518092654 225:1.9512865060916937 237:4.4653979310597585 247:2.5371881562980416 260:1.844040975738096 296:2.2972374866674503 338:3.5098263916841774 361:2.126089230471621 381:7.8772246609184595 405:2.28399225991743 478:2.195884992407163 515:2.2972374866674503 614:2.5038517360304495 644:2.8770559819203925 696:2.5716743323692106 708:3.1182180387372807 768:19.06033711465194 793:3.8421368779639797 799:2.7229053020931344 813:3.436671769855815 834:9.01142306267861 903:11.010859863111962 911:3.570203162480338 918:3.436671769855815 952:2.786084203714666 962:3.8421368779639797 
32.0 5:1.2917156210653526 25:0.9109431255475599 34:1.8356021070922315 38:1.5458213979835294 48:1.6802516670730692 57:3.2898246012555203 59:1.2487495851819095 79:1.3214207754792684 106:2.1720743437134447 121:1.4967317877870059 131:1.571300483284514 205:1.8272338574217148 212:2.3806190956065016 422:2.5038517360304495 478:2.195884992407163 494:2.682899967479435 553:2.487591215158669 582:2.644433686651639 618:2.9511639540741146 755:9.01142306267861 839:2.7645779984937024 
7.209433889551552 3:2.2599685798872127 4:0.8526742174235841 5:5.166862484261411 6:1.3997898425947752 9:0.7230813883779897 10:1.3164082336557241 16:1.7627686466120307 17:4.20082077152427 24:0.9379717979354791 25:2.7328293766426794 29:0.7711811831724011 31:2.270377337160904 33:1.155140086059602 34:11.013612642553388 41:2.1945454074781066 45:20.030813888243596 47:1.3366109409732436 51:1.4789271631534993 53:1.8697934718405107 54:1.6874719150465562 57:21.383859908160883 59:2.497499170363819 63:1.4217687493135505 67:2.019605750069171 68:2.5068668689886713 71:5.21478482994258 72:1.3015196211619735 73:1.5271292649713768 76:1.2868494314141798 78:3.1555459955802636 79:1.3214207754792684 80:1.7395282770026095 81:1.6040903061075051 82:3.5728237258029196 85:1.5777729977901318 89:4.812270918322516 95:1.6242930134250244 106:2.1720743437134447 111:1.4107189131269655 115:1.6518809699438535 123:1.694744674375636 147:1.6311189784954245 162:1.9233777179746172 163:1.8189350546070198 176:1.9418967657418547 183:1.8785271518092654 201:6.660829336593967 208:5.825690297225564 224:2.220276445531322 242:1.8356021070922315 260:1.844040975738096 263:5.911004103187165 270:1.9233777179746172 276:8.168715906279402 278:3.9406694021247763 308:2.029758121533189 314:10.519330468434553 319:4.880676660616247 320:1.9996050833625014 326:14.460197884876768 335:2.195884992407163 344:2.6257415536394864 346:2.050377408735925 349:2.7229053020931344 356:2.3952178950276544 361:2.126089230471621 363:4.391769984814326 384:2.310660506999591 399:2.1720743437134447 403:2.2452777477367394 405:2.28399225991743 417:4.440552891062644 418:2.2972374866674503 431:2.082126107050505 433:2.160378303950253 438:2.4250708581773353 441:4.676118962375411 455:3.479231384274611 468:2.60739241497129 516:23.631673982755377 530:2.8305359662854994 541:5.21478482994258 545:4.975182430317338 559:3.3566290621822787 587:2.5893739094686117 589:5.754111963840785 593:2.52038103798166 595:2.366230358154402 596:5.802307066998906 599:2.5542825896573413 612:2.5893739094686117 613:2.682899967479435 617:11.144336814858663 619:5.851692292179649 633:4.975182430317338 637:2.5371881562980416 649:2.977139440477375 657:2.52038103798166 664:2.60739241497129 671:5.04076207596332 703:2.7229053020931344 717:2.901153533499453 725:3.3566290621822787 732:3.1807383957186146 733:2.60739241497129 768:2.7229053020931344 777:2.7229053020931344 796:2.9511639540741146 815:6.4948595404345735 825:6.007615375119073 831:3.7815122561475447 851:2.682899967479435 929:2.9258461460898246 969:8.099552485484448 983:9.446969092212104 
32.0 5:2.5834312421307053 29:0.7711811831724011 40:2.9344622467806154 51:2.9578543263069985 77:1.8611354090973962 121:1.4967317877870059 131:1.571300483284514 140:6.246378321151515 145:7.367527550532267 179:1.8356021070922315 240:4.541840356700154 256:2.029758121533189 281:2.32426615905537 352:2.258016773514169 372:2.2452777477367394 403:2.2452777477367394 553:4.975182430317338 555:2.4250708581773353 573:5.4870491785917395 803:10.710609487441014 980:3.1489896974040343 
1.5260847182251032 5:1.2917156210653526 6:2.7995796851895505 7:0.5579415869751363 9:0.7230813883779897 16:2.644152969918046 19:0.9587337893839082 20:1.1766462912805655 24:1.8759435958709583 30:0.9871044865131239 33:1.155140086059602 38:7.729106989917646 43:0.9692787025605233 54:1.6874719150465562 55:1.4385758676299316 57:1.6449123006277602 70:4.759102330889433 74:1.4556703009892318 79:2.642841550958537 80:1.7395282770026095 83:1.3315218714657724 92:1.4273397943630057 95:4.872879040275073 117:2.6630437429315448 131:3.142600966569028 133:1.9607652500462374 139:1.5648695929542238 147:1.6311189784954245 150:3.389489348751272 155:1.6379918577831865 174:3.8467554359492344 183:1.8785271518092654 188:4.10075481747185 209:1.4730620437011008 212:2.3806190956065016 222:4.367817602720894 225:1.9512865060916937 227:2.258016773514169 237:26.79238758635855 242:3.671204214184463 246:1.8697934718405107 262:1.9512865060916937 277:4.516033547028338 292:7.584906915634665 303:2.082126107050505 306:4.440552891062644 308:2.029758121533189 317:2.082126107050505 320:1.9996050833625014 329:2.3380594811877056 363:4.391769984814326 366:2.5716743323692106 396:2.2080063529395075 401:2.682899967479435 403:2.2452777477367394 405:4.56798451983486 418:4.594474973334901 452:2.28399225991743 479:2.5038517360304495 513:2.3806190956065016 527:3.1489896974040343 530:2.8305359662854994 533:2.3952178950276544 535:2.5038517360304495 542:2.4100329808127947 562:8.853491862222343 566:2.487591215158669 575:4.820065961625589 595:2.366230358154402 610:8.168715906279402 620:6.297979394808069 626:2.5893739094686117 634:3.3958497753355603 638:3.031206661747651 644:2.8770559819203925 671:5.04076207596332 676:2.487591215158669 684:2.52038103798166 689:18.530190453525595 700:2.52038103798166 710:2.4715908738122283 713:5.95427888095475 727:2.8305359662854994 735:3.0883650755875993 747:5.6161262208668825 768:2.7229053020931344 786:2.9258461460898246 798:16.237148851086435 855:6.958462768549222 856:3.0883650755875993 861:2.7229053020931344 876:5.445810604186269 885:5.754111963840785 914:2.9258461460898246 924:15.441825377937997 931:2.9258461460898246 973:5.851692292179649 
32.0 3:1.1299842899436063 20:2.353292582561131 54:1.6874719150465562 64:1.4385758676299316 83:1.3315218714657724 97:1.7626953362841438 189:1.7094508217653315 207:1.7020707144677087 221:4.252178460943242 242:1.8356021070922315 284:2.644433686651639 329:4.676118962375411 379:2.148817481549177 398:2.2326989655298792 414:2.8770559819203925 442:2.487591215158669 587:2.5893739094686117 684:5.04076207596332 700:5.04076207596332 765:2.9511639540741146 798:3.2474297702172867 
21.7787460439732 0:2.231766347900545 5:7.7502937263921154 20:1.1766462912805655 24:0.9379717979354791 38:1.5458213979835294 48:1.6802516670730692 51:5.915708652613997 52:3.479056554005219 53:1.8697934718405107 62:1.27239134823895 105:2.32426615905537 109:1.7864118629014598 121:4.490195363361018 131:1.571300483284514 135:1.4556703009892318 156:1.778443693252283 186:3.9795055738389795 195:1.5842876788113254 211:2.019605750069171 243:2.455842516844089 256:2.029758121533189 265:1.9325943730795412 268:2.160378303950253 279:2.8535254845101985 281:4.64853231811074 329:2.3380594811877056 372:2.2452777477367394 375:3.1182180387372807 466:2.901153533499453 470:3.0038076875595365 477:2.366230358154402 514:2.310660506999591 657:2.52038103798166 680:2.5542825896573413 703:2.7229053020931344 710:2.4715908738122283 733:2.60739241497129 766:2.682899967479435 803:14.280812649921351 843:5.95427888095475 846:3.0883650755875993 884:2.901153533499453 922:2.8080631104334413 928:3.1489896974040343 
26.328534013605744 3:2.2599685798872127 5:3.8751468631960577 6:2.7995796851895505 7:0.5579415869751363 25:0.9109431255475599 38:1.5458213979835294 40:2.9344622467806154 43:0.9692787025605233 45:2.5038517360304495 48:1.6802516670730692 49:1.6518809699438535 81:1.6040903061075051 89:1.6040903061075051 97:1.7626953362841438 106:4.344148687426889 115:3.303761939887707 117:2.6630437429315448 118:5.572168407429332 133:1.9607652500462374 147:1.6311189784954245 149:1.6802516670730692 166:1.6175133264396457 192:1.9325943730795412 195:1.5842876788113254 212:2.3806190956065016 221:2.126089230471621 226:4.761238191213003 276:2.7229053020931344 281:2.32426615905537 284:2.644433686651639 288:1.8611354090973962 289:2.019605750069171 295:2.050377408735925 309:2.183908801360447 323:2.2972374866674503 333:4.594474973334901 356:2.3952178950276544 361:2.126089230471621 469:2.3380594811877056 618:2.9511639540741146 667:2.901153533499453 688:2.60739241497129 758:3.2135282185416054 823:2.901153533499453 
2.4501224111090885 0:0.5579415869751363 3:1.6949764349154095 4:1.7053484348471681 5:2.5834312421307053 6:1.3997898425947752 7:1.1158831739502726 8:1.277187520502443 10:1.3164082336557241 17:2.100410385762135 19:1.9174675787678164 25:0.9109431255475599 27:4.071690684527938 29:0.7711811831724011 30:0.9871044865131239 31:1.5135848914406027 33:1.155140086059602 34:29.369633713475704 40:2.9344622467806154 43:0.9692787025605233 45:35.053924304426296 49:3.303761939887707 56:3.194891526777673 62:2.5447826964779 67:4.039211500138342 68:1.2534334344943356 70:1.1897755827223582 72:3.9045588634859207 78:1.5777729977901318 81:3.2081806122150103 91:1.4329420499116756 92:2.8546795887260115 95:3.248586026850049 98:1.3729785851441185 116:3.275983715566373 134:2.4403383303081236 140:2.082126107050505 141:2.1720743437134447 145:4.911685033688178 147:1.6311189784954245 161:1.8272338574217148 180:14.267627422550992 182:1.7705385137451697 196:2.32426615905537 206:1.7864118629014598 219:3.588888069197448 233:2.7645779984937024 243:2.455842516844089 266:1.9607652500462374 295:6.151132226207775 300:1.9512865060916937 303:2.082126107050505 311:2.160378303950253 321:2.4403383303081236 342:2.3380594811877056 351:2.114915929873496 402:2.6634818816223333 406:2.2972374866674503 412:2.1720743437134447 417:2.220276445531322 421:2.366230358154402 449:3.3958497753355603 455:6.958462768549222 463:2.220276445531322 517:2.258016773514169 564:2.455842516844089 568:5.04076207596332 590:2.5893739094686117 595:4.732460716308804 623:5.288867373303278 628:2.5716743323692106 633:2.487591215158669 642:4.975182430317338 649:2.977139440477375 709:5.572168407429332 732:6.361476791437229 739:5.326963763244667 772:6.062413323495302 778:3.059377538714347 782:2.7645779984937024 786:2.9258461460898246 805:3.1182180387372807 825:3.0038076875595365 870:2.8770559819203925 931:2.9258461460898246 973:2.9258461460898246 976:8.703460600498358 
0.7692240052454309 6:1.3997898425947752 7:1.1158831739502726 20:1.1766462912805655 24:3.7518871917419165 26:1.2210980538513994 30:1.9742089730262478 32:0.9622364199351103 34:1.8356021070922315 43:0.9692787025605233 45:2.5038517360304495 48:1.6802516670730692 53:1.8697934718405107 57:3.2898246012555203 67:6.058817250207513 71:2.60739241497129 111:1.4107189131269655 117:1.3315218714657724 131:1.571300483284514 133:5.882295750138712 135:1.4556703009892318 143:1.8697934718405107 148:2.1720743437134447 161:1.8272338574217148 176:3.8837935314837093 188:2.050377408735925 195:1.5842876788113254 196:4.64853231811074 212:2.3806190956065016 213:2.2972374866674503 217:2.455842516844089 226:7.141857286819505 229:1.9233777179746172 252:12.437956075793346 255:4.320756607900506 265:1.9325943730795412 269:2.366230358154402 273:1.9512865060916937 289:2.019605750069171 361:2.126089230471621 365:2.52038103798166 388:2.3520457231624454 425:2.702702594775615 450:2.8535254845101985 468:2.60739241497129 469:2.3380594811877056 476:2.9511639540741146 502:2.28399225991743 533:2.3952178950276544 554:2.455842516844089 564:2.455842516844089 573:2.7435245892958697 612:5.178747818937223 647:2.9511639540741146 660:5.143348664738421 681:2.977139440477375 708:6.236436077474561 717:2.901153533499453 751:5.288867373303278 806:2.8305359662854994 855:3.479231384274611 860:6.361476791437229 875:3.059377538714347 952:2.786084203714666 
12.432822652702123 3:0.5649921449718032 55:2.8771517352598632 74:2.9113406019784636 145:7.367527550532267 194:6.7132581243645575 232:5.851692292179649 279:2.8535254845101985 297:1.9996050833625014 302:2.1373887857255545 321:2.4403383303081236 368:5.661071932570999 392:2.8770559819203925 394:2.32426615905537 408:3.1489896974040343 454:2.195884992407163 477:2.366230358154402 484:2.366230358154402 523:2.3520457231624454 526:5.754111963840785 684:5.04076207596332 700:5.04076207596332 809:2.60739241497129 873:2.5893739094686117 918:13.74668707942326 
32.0 6:2.7995796851895505 7:0.5579415869751363 16:1.7627686466120307 24:0.9379717979354791 25:0.9109431255475599 34:1.8356021070922315 62:1.27239134823895 226:4.761238191213003 260:1.844040975738096 270:1.9233777179746172 281:2.32426615905537 290:2.3520457231624454 340:4.059516243066378 361:2.126089230471621 431:2.082126107050505 481:5.851692292179649 618:2.9511639540741146 706:4.943181747624457 774:2.6257415536394864 801:3.2474297702172867 816:2.8535254845101985 894:2.9258461460898246 978:3.436671769855815 
1.3266957185253905 0:20.085897131104907 1:1.2581393255317486 2:2.981523241601004 3:3.954945014802622 4:17.906158565895264 5:147.2555808014502 6:32.19516637967983 7:15.06442284832868 8:2.554375041004886 9:22.415523039717684 10:23.695348205803036 12:19.823343372698016 14:1.18537997124932 15:1.9233777179746172 16:10.576611879672184 17:22.054309050502415 19:33.555682628436784 20:1.1766462912805655 24:13.131605171096709 25:24.595464389784116 26:4.884392215405597 27:25.787374335343603 29:1.5423623663448023 30:20.7291942167756 31:12.108679131524822 32:9.622364199351104 33:33.49906249572846 34:126.65654538936397 35:1.724376471982007 37:5.993125989996704 38:47.92046333748941 40:8.803386740341846 41:2.1945454074781066 43:9.692787025605233 45:50.07703472060899 47:58.810881402822716 48:3.3605033341461383 49:3.303761939887707 51:1.4789271631534993 53:63.57297804257736 54:1.6874719150465562 55:2.8771517352598632 56:15.974457633888367 57:75.66596582887696 59:11.238746266637186 62:5.0895653929558 63:25.591837487643907 67:28.274480500968394 68:5.013733737977343 70:3.5693267481670743 72:14.316715832781709 73:24.43406823954203 74:2.9113406019784636 76:3.8605482942425393 78:14.199956980111185 79:10.571366203834147 81:4.812270918322516 82:30.369001669324817 83:9.320653100260406 89:3.2081806122150103 90:5.911004103187165 91:7.164710249558378 92:11.418718354904046 95:16.242930134250244 96:1.6874719150465562 98:5.491914340576474 102:8.459663719493983 104:3.95999322394825 109:32.15541353222628 111:14.107189131269655 112:7.275212574532006 115:19.82257163932624 116:70.43364988467702 119:3.9406694021247763 120:3.262237956990849 122:6.786151140879896 123:5.084234023126908 128:20.424848573612504 129:3.9215305000924747 131:3.142600966569028 132:1.8272338574217148 134:2.4403383303081236 135:10.189692106924623 138:10.393788196964811 139:3.1297391859084476 141:6.516223031140334 143:1.8697934718405107 148:8.688297374853779 150:20.33693609250763 153:11.938516721516939 154:5.609380415521532 155:3.275983715566373 156:5.335331079756848 158:2.3380594811877056 159:12.176697939018267 161:1.8272338574217148 162:1.9233777179746172 163:23.646155709891257 164:2.9258461460898246 168:10.148790607665944 169:10.954087150679566 171:35.19848164271409 172:12.623196562121464 173:2.8770559819203925 175:4.4653979310597585 176:13.593277360192982 177:3.479056554005219 180:19.974678391571388 181:18.272338574217148 182:3.5410770274903394 183:7.514108607237062 188:2.050377408735925 189:1.7094508217653315 190:2.8770559819203925 191:8.659618388086951 193:8.2015096349437 194:332.3062771560456 195:20.59573982454723 196:13.94559695433222 197:12.892904889295064 202:18.709308232423684 203:3.275983715566373 205:14.617870859373719 206:5.359235588704379 208:13.593277360192982 210:2.183908801360447 211:4.039211500138342 212:35.70928643409752 213:2.2972374866674503 220:1.9512865060916937 221:2.126089230471621 222:21.83908801360447 223:3.757054303618531 224:8.881105782125289 225:3.9025730121833875 226:4.761238191213003 227:9.032067094056677 228:4.541840356700154 229:11.540266307847704 230:3.9795055738389795 231:4.252178460943242 235:1.9897527869194898 236:327.7025326566264 239:9.948763934597448 242:7.342408428368926 243:7.367527550532267 245:4.4653979310597585 251:4.274777571451109 255:8.641513215801012 256:2.029758121533189 260:3.688081951476192 261:14.727062655808375 262:1.9512865060916937 263:1.9703347010623882 266:19.607652500462372 269:2.366230358154402 270:15.387021743796938 276:73.51844315651464 278:1.9703347010623882 279:19.974678391571388 280:1.9703347010623882 281:13.94559695433222 283:5.911004103187165 284:2.644433686651639 295:8.2015096349437 296:2.2972374866674503 298:2.183908801360447 299:2.270920178350077 300:3.9025730121833875 301:2.1720743437134447 303:4.16425221410101 305:4.142861635867514 306:11.101382227656611 310:2.148817481549177 313:2.8535254845101985 314:10.519330468434553 316:9.709483828709274 317:12.49275664230303 318:8.2015096349437 319:9.761353321232495 321:17.082368312156866 322:10.744087407745885 323:18.377899893339602 325:5.251483107278973 333:2.2972374866674503 335:2.195884992407163 336:6.516223031140334 337:3.9025730121833875 342:23.380594811877057 344:5.251483107278973 346:4.10075481747185 347:20.91839543149833 349:51.73520073976955 351:2.114915929873496 352:2.258016773514169 356:4.790435790055309 358:2.4715908738122283 360:3.282521090028557 361:10.630446152358104 363:10.979424962035814 365:35.28533453174324 374:2.6257415536394864 376:2.682899967479435 377:2.082126107050505 378:2.1373887857255545 379:2.148817481549177 380:4.039211500138342 384:9.242642027998365 387:23.10660506999591 393:4.320756607900506 395:2.3380594811877056 396:6.624019058818522 398:6.698096896589638 399:2.1720743437134447 401:13.414499837397177 403:4.490555495473479 404:10.574579649367479 405:9.13596903966972 406:2.2972374866674503 408:3.1489896974040343 412:4.344148687426889 413:17.66405082351606 416:12.650490982216173 417:13.321658673187933 418:2.2972374866674503 421:4.732460716308804 422:2.5038517360304495 423:2.4250708581773353 428:15.98794581942201 430:4.516033547028338 431:4.16425221410101 432:8.703460600498358 433:4.320756607900506 434:22.388320936428023 435:4.516033547028338 436:5.6161262208668825 439:4.820065961625589 442:12.437956075793346 449:98.47964348473126 450:48.509933236673376 454:4.391769984814326 456:2.2452777477367394 457:2.5893739094686117 458:1.9996050833625014 459:7.230098942438384 460:2.270920178350077 464:10.357154089668786 467:2.901153533499453 468:5.21478482994258 469:7.014178443563116 473:4.416012705879015 474:9.352237924750822 477:4.732460716308804 478:2.195884992407163 481:2.9258461460898246 485:18.67526180459379 486:2.4100329808127947 487:11.903095478032508 488:5.04076207596332 492:5.21478482994258 494:18.780299772356045 496:9.580871580110617 500:11.976089475138272 501:6.931981520998773 502:4.56798451983486 505:5.326963763244667 506:4.704091446324891 510:2.029758121533189 515:2.2972374866674503 516:5.251483107278973 517:15.806117414599184 518:34.134640197313324 519:15.866602119909833 523:4.704091446324891 524:2.7645779984937024 525:7.098691074463206 526:2.8770559819203925 527:6.297979394808069 528:4.880676660616247 531:2.60739241497129 535:7.511555208091348 538:15.866602119909833 543:2.8770559819203925 544:2.9511639540741146 545:9.950364860634677 550:2.5716743323692106 553:4.975182430317338 554:2.455842516844089 555:4.8501417163546705 556:3.059377538714347 558:3.282521090028557 559:6.7132581243645575 564:12.279212584220446 568:5.04076207596332 569:17.526962152213148 570:3.2474297702172867 573:10.974098357183479 574:10.148752625192166 576:2.270920178350077 577:6.7132581243645575 581:2.28399225991743 583:139.14838947059758 590:5.178747818937223 591:5.529155996987405 593:10.08152415192664 596:5.802307066998906 599:7.662847768972024 603:7.768121728405835 604:2.487591215158669 607:3.3566290621822787 612:2.5893739094686117 613:13.414499837397177 614:2.5038517360304495 617:47.36343146314932 619:2.9258461460898246 622:5.754111963840785 623:10.577734746606556 626:2.5893739094686117 631:2.4403383303081236 633:4.975182430317338 645:2.682899967479435 646:2.644433686651639 649:20.839976083341625 650:15.866602119909833 655:4.911685033688178 657:5.04076207596332 658:2.8770559819203925 664:7.8221772449138705 668:3.1489896974040343 669:17.12115290706119 672:2.977139440477375 675:5.95427888095475 676:7.462773645476007 678:2.786084203714666 688:5.21478482994258 696:5.143348664738421 698:2.6257415536394864 699:10.357495637874447 709:2.786084203714666 710:2.4715908738122283 712:2.8080631104334413 715:3.2135282185416054 720:5.661071932570999 722:5.36579993495887 724:6.427056437083211 725:83.91572655455697 727:8.491607898856499 732:9.542215187155843 735:3.0883650755875993 736:3.031206661747651 739:2.6634818816223333 741:2.8080631104334413 749:3.031206661747651 751:2.644433686651639 752:5.529155996987405 755:3.0038076875595365 757:5.4870491785917395 758:22.49469752979124 760:5.251483107278973 763:2.9258461460898246 764:2.977139440477375 765:5.902327908148229 767:5.40540518955123 772:3.031206661747651 774:5.251483107278973 783:21.62162075820492 784:21.14209888107267 785:2.60739241497129 786:14.629230730449123 791:26.551109873595454 797:3.0883650755875993 801:6.4948595404345735 805:3.1182180387372807 806:2.8305359662854994 810:2.6634818816223333 811:9.542215187155843 814:5.288867373303278 815:12.989719080869147 817:6.118755077428694 820:2.8770559819203925 825:3.0038076875595365 830:14.505767667497265 831:3.7815122561475447 834:6.007615375119073 839:2.7645779984937024 840:8.293733995481107 843:2.977139440477375 853:11.50822392768157 862:3.8421368779639797 863:2.977139440477375 867:2.7435245892958697 869:3.2474297702172867 870:2.8770559819203925 873:2.5893739094686117 889:5.6161262208668825 890:18.893938184424208 892:2.8080631104334413 894:2.9258461460898246 897:11.703384584359299 904:3.2474297702172867 908:5.529155996987405 914:8.777538438269474 927:3.059377538714347 928:15.74494848702017 929:5.851692292179649 931:14.629230730449123 934:7.448707684615192 938:5.851692292179649 947:11.9085577619095 949:5.902327908148229 951:15.296887693571735 957:33.65315292585782 961:2.977139440477375 962:76.8427375592796 965:3.1489896974040343 973:5.851692292179649 982:12.854112874166422 983:12.595958789616137 984:23.854009623531013 985:3.1182180387372807 987:6.6377774683988635 988:2.9258461460898246 992:8.777538438269474 993:3.3566290621822787 994:7.237986653299539 999:3.1182180387372807 
32.0 5:3.8751468631960577 43:1.9385574051210466 47:1.3366109409732436 50:1.8785271518092654 70:1.1897755827223582 73:4.58138779491413 138:1.4848268852806874 181:1.8272338574217148 189:1.7094508217653315 209:1.4730620437011008 227:2.258016773514169 249:1.9325943730795412 368:2.8305359662854994 369:2.06084870860322 407:5.707050969020397 442:2.487591215158669 446:2.366230358154402 473:2.2080063529395075 486:2.4100329808127947 487:2.3806190956065016 689:3.0883650755875993 851:2.682899967479435 977:3.6702866210373206 988:2.9258461460898246 
13.980016961828472 3:2.824960724859016 5:1.2917156210653526 7:0.5579415869751363 20:15.296401786647351 59:2.497499170363819 70:2.3795511654447163 77:5.583406227292189 78:1.5777729977901318 84:6.918084916745872 93:1.9996050833625014 135:1.4556703009892318 139:1.5648695929542238 151:1.5087801263031804 167:1.8272338574217148 189:1.7094508217653315 237:2.2326989655298792 242:1.8356021070922315 262:1.9512865060916937 271:4.790435790055309 279:8.560576453530595 283:1.9703347010623882 288:1.8611354090973962 297:7.998420333450006 332:1.9142452344113448 338:1.7549131958420887 379:2.148817481549177 404:2.114915929873496 415:1.9325943730795412 442:4.975182430317338 502:4.56798451983486 544:20.6581476785188 550:10.286697329476842 567:2.5038517360304495 614:2.5038517360304495 625:4.975182430317338 684:2.52038103798166 700:2.52038103798166 958:3.3566290621822787 974:2.901153533499453 997:6.297979394808069 
2.1092334004156035 3:1.6949764349154095 14:4.74151988499728 16:1.7627686466120307 24:1.8759435958709583 29:0.7711811831724011 32:0.9622364199351103 33:3.465420258178806 34:3.671204214184463 36:1.2676180694862922 38:12.366571183868235 40:2.9344622467806154 41:1.0972727037390533 45:2.5038517360304495 48:16.802516670730693 62:2.5447826964779 67:10.098028750345856 68:1.2534334344943356 72:3.9045588634859207 80:3.479056554005219 106:2.1720743437134447 129:1.9607652500462374 143:1.8697934718405107 147:3.262237956990849 151:1.5087801263031804 163:1.8189350546070198 171:1.8525516654060048 184:1.6379918577831865 197:2.148817481549177 210:4.367817602720894 217:2.455842516844089 230:1.9897527869194898 234:2.1038660936869107 279:22.828203876081588 288:1.8611354090973962 295:2.050377408735925 299:2.270920178350077 300:1.9512865060916937 303:6.246378321151515 305:2.071430817933757 308:2.029758121533189 340:2.029758121533189 368:2.8305359662854994 389:2.258016773514169 404:2.114915929873496 413:2.2080063529395075 431:2.082126107050505 452:2.28399225991743 519:10.577734746606556 539:2.5893739094686117 574:2.5371881562980416 576:2.270920178350077 580:2.7645779984937024 589:5.754111963840785 596:5.802307066998906 600:2.901153533499453 642:2.487591215158669 669:2.8535254845101985 680:2.5542825896573413 721:2.6257415536394864 723:9.354654116211842 750:2.7435245892958697 772:3.031206661747651 787:2.702702594775615 809:2.60739241497129 845:2.8305359662854994 888:2.7435245892958697 907:2.8770559819203925 922:2.8080631104334413 938:2.9258461460898246 968:3.479231384274611 969:60.74664364113336 980:3.1489896974040343 
32.0 5:1.2917156210653526 6:4.1993695277843255 7:0.5579415869751363 19:0.9587337893839082 20:1.1766462912805655 24:0.9379717979354791 26:2.4421961077027987 29:0.7711811831724011 36:1.2676180694862922 67:2.019605750069171 74:2.9113406019784636 76:1.2868494314141798 78:1.5777729977901318 111:1.4107189131269655 117:3.994565614397317 147:1.6311189784954245 289:2.019605750069171 290:2.3520457231624454 298:2.183908801360447 316:1.9418967657418547 361:4.252178460943242 368:2.8305359662854994 443:2.3806190956065016 502:2.28399225991743 603:2.5893739094686117 612:2.5893739094686117 631:2.4403383303081236 638:6.062413323495302 647:2.9511639540741146 668:3.1489896974040343 683:2.644433686651639 809:2.60739241497129 952:2.786084203714666 978:6.87334353971163 
6.441492612104894 0:0.5579415869751363 3:0.5649921449718032 4:1.7053484348471681 5:2.5834312421307053 6:1.3997898425947752 16:2.644152969918046 40:2.9344622467806154 62:3.81717404471685 70:1.1897755827223582 73:1.5271292649713768 83:2.6630437429315448 84:1.3836169833491743 104:1.979996611974125 111:1.4107189131269655 139:1.5648695929542238 145:4.911685033688178 156:1.778443693252283 176:1.9418967657418547 177:3.479056554005219 182:1.7705385137451697 184:1.6379918577831865 228:15.89644124845054 249:1.9325943730795412 262:1.9512865060916937 266:1.9607652500462374 281:2.32426615905537 294:4.790435790055309 315:8.931418321432126 352:2.258016773514169 377:2.082126107050505 454:2.195884992407163 459:2.4100329808127947 506:2.3520457231624454 514:2.310660506999591 528:2.4403383303081236 533:2.3952178950276544 544:2.9511639540741146 570:6.4948595404345735 598:2.8305359662854994 630:2.786084203714666 702:3.8421368779639797 771:2.7229053020931344 793:7.6842737559279595 805:3.1182180387372807 817:3.059377538714347 850:20.021150751078643 884:2.901153533499453 905:2.9511639540741146 968:3.479231384274611 
11.047251376807592 0:2.7897079348756817 3:0.5649921449718032 5:3.8751468631960577 14:2.37075994249864 29:0.7711811831724011 48:1.6802516670730692 53:3.7395869436810214 54:5.062415745139669 63:1.4217687493135505 67:4.039211500138342 83:1.3315218714657724 101:1.5209753993969986 114:1.5148591723795624 126:1.9142452344113448 128:5.106212143403126 169:1.5648695929542238 170:2.126089230471621 191:1.73192367761739 228:4.541840356700154 261:4.207732187373821 277:9.032067094056677 305:2.071430817933757 319:2.4403383303081236 323:2.2972374866674503 333:2.2972374866674503 344:2.6257415536394864 357:1.8697934718405107 377:2.082126107050505 444:8.048699902438305 446:4.732460716308804 519:2.644433686651639 521:14.475973306599078 523:2.3520457231624454 551:2.3806190956065016 632:2.8080631104334413 815:3.2474297702172867 884:5.802307066998906 944:3.2135282185416054 982:9.640584655624817 
3.165521375828165 4:0.8526742174235841 5:1.2917156210653526 7:0.5579415869751363 17:1.0502051928810674 19:0.9587337893839082 25:0.9109431255475599 32:0.9622364199351103 33:1.155140086059602 34:1.8356021070922315 38:1.5458213979835294 40:4.401693370170923 44:1.5209753993969986 57:1.6449123006277602 80:5.218584831007829 81:1.6040903061075051 82:1.7864118629014598 109:1.7864118629014598 111:4.232156739380897 133:15.686122000369899 159:3.479056554005219 193:2.050377408735925 196:2.32426615905537 205:1.8272338574217148 224:4.440552891062644 226:2.3806190956065016 228:4.541840356700154 269:16.563612507080812 290:2.3520457231624454 295:2.050377408735925 314:2.1038660936869107 363:2.195884992407163 378:2.1373887857255545 402:2.6634818816223333 417:8.881105782125289 419:2.5716743323692106 432:8.703460600498358 450:2.8535254845101985 558:6.565042180057114 596:2.901153533499453 610:2.7229053020931344 618:5.902327908148229 799:2.7229053020931344 806:2.8305359662854994 809:2.60739241497129 864:26.894958145747857 894:2.9258461460898246 
32.0 3:0.5649921449718032 20:1.1766462912805655 25:0.9109431255475599 27:2.7144604563519583 34:1.8356021070922315 38:1.5458213979835294 44:6.083901597587994 80:1.7395282770026095 122:1.3572302281759792 180:5.707050969020397 187:1.9142452344113448 343:1.9897527869194898 376:2.682899967479435 444:2.682899967479435 488:2.52038103798166 523:2.3520457231624454 525:4.732460716308804 608:2.7435245892958697 614:2.5038517360304495 642:2.487591215158669 681:2.977139440477375 684:2.52038103798166 688:2.60739241497129 700:2.52038103798166 721:2.6257415536394864 765:11.804655816296458 809:2.60739241497129 854:2.8080631104334413 875:3.059377538714347 923:3.2135282185416054 
32.0 7:0.5579415869751363 30:0.9871044865131239 31:0.7567924457203014 43:0.9692787025605233 49:1.6518809699438535 52:1.7395282770026095 64:1.4385758676299316 96:1.6874719150465562 98:2.745957170288237 103:1.4730620437011008 151:1.5087801263031804 156:1.778443693252283 166:1.6175133264396457 181:1.8272338574217148 189:1.7094508217653315 206:5.359235588704379 207:3.4041414289354175 241:1.9233777179746172 305:4.142861635867514 398:2.2326989655298792 399:6.516223031140334 435:2.258016773514169 463:2.220276445531322 508:5.178747818937223 553:2.487591215158669 567:2.5038517360304495 651:4.668815451148448 655:2.455842516844089 673:2.5716743323692106 729:2.7645779984937024 824:2.901153533499453 834:3.0038076875595365 851:2.682899967479435 938:2.9258461460898246 950:3.724353842307596 
30.636949636981054 4:2.5580226522707523 5:6.4585781053267635 23:1.8107045554705044 32:3.8489456797404413 36:1.2676180694862922 37:1.1986251979993408 55:1.4385758676299316 62:2.5447826964779 68:2.5068668689886713 73:9.16277558982826 79:1.3214207754792684 90:1.9703347010623882 94:6.778978697502544 98:1.3729785851441185 99:1.7168858002528495 101:1.5209753993969986 103:2.9461240874022017 147:1.6311189784954245 155:1.6379918577831865 177:1.7395282770026095 205:1.8272338574217148 291:1.73192367761739 309:2.183908801360447 313:8.560576453530595 346:2.050377408735925 347:2.32426615905537 364:2.487591215158669 396:2.2080063529395075 421:2.366230358154402 436:2.8080631104334413 439:7.230098942438384 440:3.031206661747651 477:2.366230358154402 534:2.5893739094686117 632:5.6161262208668825 755:3.0038076875595365 800:2.8770559819203925 827:31.805346164708016 833:3.0038076875595365 905:2.9511639540741146 997:3.1489896974040343 
2.9840056221413156 0:1.1158831739502726 4:2.5580226522707523 5:5.166862484261411 7:0.5579415869751363 8:2.554375041004886 10:2.6328164673114482 15:1.9233777179746172 17:4.20082077152427 24:0.9379717979354791 29:0.7711811831724011 30:0.9871044865131239 32:0.9622364199351103 33:1.155140086059602 34:3.671204214184463 38:1.5458213979835294 40:2.9344622467806154 45:32.55007256839584 47:1.3366109409732436 56:1.5974457633888366 57:1.6449123006277602 59:3.7462487555457287 68:5.013733737977343 71:39.110886224569356 80:1.7395282770026095 82:1.7864118629014598 109:1.7864118629014598 129:1.9607652500462374 138:1.4848268852806874 154:1.8697934718405107 159:3.479056554005219 161:1.8272338574217148 166:1.6175133264396457 169:1.5648695929542238 179:1.8356021070922315 192:1.9325943730795412 194:16.783145310911394 196:2.32426615905537 211:2.019605750069171 223:1.8785271518092654 224:4.440552891062644 228:6.812760535050232 229:1.9233777179746172 232:2.9258461460898246 239:1.9897527869194898 242:1.8356021070922315 243:2.455842516844089 255:2.160378303950253 260:1.844040975738096 261:6.311598281060732 265:3.8651887461590824 276:5.445810604186269 278:1.9703347010623882 300:1.9512865060916937 314:12.623196562121464 315:5.95427888095475 321:4.880676660616247 326:2.4100329808127947 335:2.195884992407163 351:2.114915929873496 356:2.3952178950276544 402:2.6634818816223333 454:2.195884992407163 474:2.3380594811877056 488:2.52038103798166 515:2.2972374866674503 516:2.6257415536394864 524:2.7645779984937024 526:14.385279909601962 568:2.52038103798166 581:2.28399225991743 593:2.52038103798166 596:2.901153533499453 599:2.5542825896573413 619:8.777538438269474 623:2.644433686651639 630:2.786084203714666 649:11.9085577619095 652:2.4715908738122283 657:2.52038103798166 679:2.702702594775615 724:3.2135282185416054 767:2.702702594775615 849:3.3566290621822787 854:2.8080631104334413 860:3.1807383957186146 904:3.2474297702172867 921:3.031206661747651 947:2.977139440477375 
1.3003736947642657 0:0.5579415869751363 2:1.490761620800502 3:20.904709363956716 4:25.580226522707523 5:85.25323099031327 6:19.597057796326855 7:2.231766347900545 9:0.7230813883779897 10:56.60555404719614 12:2.2025937080775573 15:3.8467554359492344 16:7.932458909754138 17:24.15471943626455 19:7.6698703150712655 22:2.071430817933757 24:7.503774383483833 25:5.465658753285359 29:3.8559059158620057 30:9.871044865131239 31:5.297547120042109 32:3.8489456797404413 33:17.327101290894028 34:34.8764400347524 36:3.802854208458877 38:55.649570327407055 40:4.401693370170923 43:1.9385574051210466 44:3.041950798793997 45:212.8273975625882 48:6.721006668292277 49:8.259404849719267 50:7.514108607237062 51:8.873562978920996 54:1.6874719150465562 57:70.7312289269937 59:3.7462487555457287 62:1.27239134823895 63:14.217687493135504 67:26.254874750899223 68:5.013733737977343 70:2.3795511654447163 71:333.74622911632514 72:6.507598105809867 73:9.16277558982826 76:10.294795451313439 79:2.642841550958537 80:6.958113108010438 81:14.436812754967546 82:14.291294903211679 83:1.3315218714657724 84:2.7672339666983485 89:9.624541836645031 91:1.4329420499116756 92:1.4273397943630057 94:1.694744674375636 95:1.6242930134250244 98:6.864892925720593 99:6.867543201011398 101:3.041950798793997 102:6.344747789620488 103:4.419186131103302 104:3.95999322394825 108:5.21478482994258 109:10.718471177408759 111:11.285751305015724 114:1.5148591723795624 115:8.259404849719267 116:1.6379918577831865 117:1.3315218714657724 118:66.86602088915198 120:17.94230876344967 121:1.4967317877870059 122:2.7144604563519583 123:8.47372337187818 128:3.4041414289354175 131:3.142600966569028 133:7.8430610001849494 135:1.4556703009892318 137:2.8535254845101985 138:1.4848268852806874 139:3.1297391859084476 141:2.1720743437134447 143:3.7395869436810214 145:2.455842516844089 147:1.6311189784954245 149:1.6802516670730692 150:5.084234023126908 155:1.6379918577831865 156:1.778443693252283 158:11.690297405938528 159:46.96726347907045 161:23.754040146482293 162:1.9233777179746172 163:10.913610327642118 164:5.851692292179649 166:6.470053305758583 168:10.148790607665944 169:15.648695929542239 170:2.126089230471621 171:5.557654996218014 172:16.830928749495286 179:1.8356021070922315 180:2.8535254845101985 181:3.6544677148434297 184:4.91397557334956 185:1.6449123006277602 186:5.969258360758469 188:6.151132226207775 189:1.7094508217653315 191:5.1957710328521705 192:7.730377492318165 193:6.151132226207775 194:10.069887186546836 195:6.3371507152453015 196:23.2426615905537 197:10.744087407745885 201:15.541935118719255 203:3.275983715566373 205:10.96340314453029 206:1.7864118629014598 207:1.7020707144677087 208:3.8837935314837093 209:1.4730620437011008 210:4.367817602720894 211:4.039211500138342 212:4.761238191213003 216:1.9142452344113448 217:4.911685033688178 219:1.794444034598724 221:2.126089230471621 223:30.056434428948247 224:8.881105782125289 225:11.707719036550163 226:4.761238191213003 228:6.812760535050232 229:1.9233777179746172 230:3.9795055738389795 234:4.207732187373821 235:1.9897527869194898 239:3.9795055738389795 242:7.342408428368926 243:63.851905437946314 252:2.487591215158669 255:8.641513215801012 256:2.029758121533189 258:13.822889992468513 260:5.532122927214288 261:10.519330468434553 263:1.9703347010623882 265:13.528160611556789 266:9.803826250231186 268:4.320756607900506 269:4.732460716308804 270:3.8467554359492344 276:38.12067422930388 278:1.9703347010623882 280:1.9703347010623882 281:6.97279847716611 283:3.9406694021247763 289:2.019605750069171 290:9.408182892649782 292:5.688680186725999 295:10.251887043679623 296:13.783424920004702 297:1.9996050833625014 300:3.9025730121833875 301:6.516223031140334 302:2.1373887857255545 305:6.214292453801271 308:2.029758121533189 311:2.160378303950253 313:5.707050969020397 314:4.207732187373821 315:23.817115523819 316:1.9418967657418547 317:8.32850442820202 318:8.2015096349437 319:24.403383303081235 320:7.998420333450006 321:2.4403383303081236 323:18.377899893339602 326:2.4100329808127947 328:1.694744674375636 329:2.3380594811877056 330:6.698096896589638 331:30.860091988430526 335:4.391769984814326 341:4.790435790055309 342:14.028356887126233 347:4.64853231811074 350:2.3806190956065016 351:2.114915929873496 352:9.032067094056677 356:19.161743160221235 358:2.4715908738122283 362:2.682899967479435 363:17.567079939257304 372:2.2452777477367394 376:5.36579993495887 378:2.1373887857255545 380:2.019605750069171 383:3.1489896974040343 384:6.931981520998773 387:2.310660506999591 390:2.3520457231624454 392:2.8770559819203925 393:2.160378303950253 398:4.4653979310597585 399:4.344148687426889 400:2.3520457231624454 406:4.594474973334901 411:3.570203162480338 413:4.416012705879015 417:6.660829336593967 419:2.5716743323692106 421:14.197382148926412 430:4.516033547028338 435:2.258016773514169 438:9.700283432709341 441:2.3380594811877056 443:4.761238191213003 445:2.2972374866674503 449:27.166798202684483 450:14.267627422550992 452:6.85197677975229 459:12.050164904063973 461:15.12228622788996 464:2.071430817933757 468:2.60739241497129 469:2.3380594811877056 472:2.366230358154402 474:2.3380594811877056 483:3.2135282185416054 484:7.098691074463206 488:45.36685868366988 491:22.834693406682376 494:8.048699902438305 500:4.790435790055309 502:2.28399225991743 507:7.8772246609184595 512:2.5371881562980416 514:2.310660506999591 515:2.2972374866674503 517:2.258016773514169 518:2.6257415536394864 523:4.704091446324891 524:8.293733995481107 526:2.8770559819203925 528:2.4403383303081236 530:8.491607898856499 533:2.3952178950276544 535:7.511555208091348 536:2.4250708581773353 537:2.4250708581773353 547:3.1182180387372807 551:4.761238191213003 554:9.823370067376356 555:7.275212574532006 564:4.911685033688178 566:4.975182430317338 567:2.5038517360304495 568:5.04076207596332 570:3.2474297702172867 574:10.148752625192166 580:2.7645779984937024 581:2.28399225991743 582:2.644433686651639 586:3.6189933266497696 591:11.05831199397481 593:12.601905189908301 595:2.366230358154402 596:11.604614133997812 599:15.325695537944048 600:2.901153533499453 604:2.487591215158669 606:15.325695537944048 611:2.8305359662854994 613:24.146099707314917 617:11.144336814858663 618:2.9511639540741146 622:17.262335891522355 623:2.644433686651639 624:38.409344250142176 626:10.357495637874447 630:13.930421018573329 632:2.8080631104334413 633:2.487591215158669 642:7.462773645476007 645:8.048699902438305 646:2.644433686651639 649:8.931418321432126 652:2.4715908738122283 657:2.52038103798166 660:2.5716743323692106 661:5.326963763244667 664:5.21478482994258 669:22.828203876081588 671:7.56114311394498 673:2.5716743323692106 674:2.682899967479435 676:2.487591215158669 678:2.786084203714666 691:5.754111963840785 694:2.977139440477375 696:2.5716743323692106 701:2.644433686651639 708:3.1182180387372807 710:2.4715908738122283 715:6.427056437083211 717:5.802307066998906 721:2.6257415536394864 732:3.1807383957186146 740:2.7229053020931344 741:5.6161262208668825 757:5.4870491785917395 758:6.427056437083211 760:10.502966214557945 764:5.95427888095475 765:11.804655816296458 766:2.682899967479435 767:2.702702594775615 768:5.445810604186269 772:6.062413323495302 780:2.8770559819203925 782:2.7645779984937024 784:7.04736629369089 794:3.031206661747651 795:2.8080631104334413 796:5.902327908148229 799:5.445810604186269 800:8.631167945761177 801:3.2474297702172867 805:6.236436077474561 808:6.6377774683988635 815:19.48457862130372 816:8.560576453530595 823:2.901153533499453 826:15.126049024590179 839:5.529155996987405 854:28.08063110433441 860:22.265168770030304 864:3.8421368779639797 869:3.2474297702172867 883:6.118755077428694 886:2.9258461460898246 887:6.87334353971163 891:2.8305359662854994 894:5.851692292179649 895:3.724353842307596 897:5.851692292179649 898:4.049776242742224 903:7.340573242074641 905:5.902327908148229 907:5.754111963840785 915:5.902327908148229 921:3.031206661747651 925:5.95427888095475 927:6.118755077428694 929:2.9258461460898246 938:2.9258461460898246 947:11.9085577619095 951:6.118755077428694 955:6.118755077428694 969:4.049776242742224 970:14.280812649921351 973:2.9258461460898246 976:8.703460600498358 992:2.9258461460898246 999:6.236436077474561 
2.175430051365407 6:6.998949212973876 7:0.5579415869751363 9:1.4461627767559795 43:1.9385574051210466 47:2.6732218819464872 62:1.27239134823895 70:2.3795511654447163 74:4.367010902967696 103:1.4730620437011008 128:1.7020707144677087 138:2.969653770561375 163:1.8189350546070198 171:1.8525516654060048 174:1.9233777179746172 177:1.7395282770026095 179:1.8356021070922315 183:1.8785271518092654 184:1.6379918577831865 204:4.039211500138342 230:1.9897527869194898 277:6.774050320542507 322:6.446452444647532 369:2.06084870860322 374:2.6257415536394864 406:2.2972374866674503 625:4.975182430317338 672:2.977139440477375 683:2.644433686651639 792:3.059377538714347 817:3.059377538714347 834:3.0038076875595365 870:5.754111963840785 954:3.2474297702172867 964:2.9511639540741146 986:18.09496663324885 
32.0 6:1.3997898425947752 9:2.892325553511959 64:1.4385758676299316 70:1.1897755827223582 177:1.7395282770026095 230:1.9897527869194898 255:2.160378303950253 336:2.1720743437134447 400:4.704091446324891 513:2.3806190956065016 575:2.4100329808127947 634:3.3958497753355603 644:2.8770559819203925 717:2.901153533499453 754:6.791699550671121 771:2.7229053020931344 903:7.340573242074641 924:3.0883650755875993 
7.211191302242048 5:1.2917156210653526 6:1.3997898425947752 16:5.288305939836092 19:0.9587337893839082 25:0.9109431255475599 47:1.3366109409732436 59:1.2487495851819095 63:2.843537498627101 70:1.1897755827223582 72:1.3015196211619735 74:2.9113406019784636 171:3.7051033308120096 177:3.479056554005219 208:1.9418967657418547 230:1.9897527869194898 250:2.019605750069171 278:1.9703347010623882 338:3.5098263916841774 369:4.12169741720644 406:2.2972374866674503 533:2.3952178950276544 536:4.8501417163546705 567:2.5038517360304495 576:2.270920178350077 597:2.4715908738122283 634:20.375098652013364 642:2.487591215158669 644:5.754111963840785 683:5.288867373303278 699:2.5893739094686117 769:21.62162075820492 833:6.007615375119073 858:6.236436077474561 981:2.977139440477375 993:3.3566290621822787 
32.0 6:1.3997898425947752 9:0.7230813883779897 33:1.155140086059602 42:1.7395282770026095 47:1.3366109409732436 70:2.3795511654447163 92:1.4273397943630057 138:1.4848268852806874 171:1.8525516654060048 184:1.6379918577831865 204:2.019605750069171 266:1.9607652500462374 277:6.774050320542507 278:1.9703347010623882 306:2.220276445531322 317:2.082126107050505 322:4.297634963098354 330:6.698096896589638 374:5.251483107278973 406:2.2972374866674503 564:2.455842516844089 571:5.007703472060899 635:2.3520457231624454 637:2.5371881562980416 760:2.6257415536394864 
32.0 0:1.6738247609254089 17:1.0502051928810674 25:0.9109431255475599 32:1.9244728398702207 54:1.6874719150465562 62:2.5447826964779 79:5.285683101917074 106:8.688297374853779 133:3.9215305000924747 184:1.6379918577831865 195:1.5842876788113254 198:2.7229053020931344 243:2.455842516844089 248:2.5542825896573413 257:3.523683146845445 264:2.071430817933757 273:1.9512865060916937 321:2.4403383303081236 381:2.6257415536394864 454:2.195884992407163 508:5.178747818937223 564:2.455842516844089 626:2.5893739094686117 840:2.7645779984937024 848:2.8305359662854994 852:3.3566290621822787 940:4.312140507209715 950:7.448707684615192 961:2.977139440477375 
6.457599914651816 6:1.3997898425947752 9:2.892325553511959 19:0.9587337893839082 25:1.8218862510951197 32:0.9622364199351103 33:5.775700430298009 36:1.2676180694862922 63:1.4217687493135505 64:8.63145520577959 84:1.3836169833491743 94:3.389489348751272 99:1.7168858002528495 114:7.574295861897812 116:1.6379918577831865 126:7.656980937645379 143:1.8697934718405107 169:1.5648695929542238 187:1.9142452344113448 205:1.8272338574217148 230:1.9897527869194898 250:2.019605750069171 252:2.487591215158669 299:4.541840356700154 300:11.707719036550163 324:2.5716743323692106 367:18.351433105186604 374:2.6257415536394864 395:2.3380594811877056 419:2.5716743323692106 444:2.682899967479435 447:3.9406694021247763 483:3.2135282185416054 513:4.761238191213003 537:2.4250708581773353 567:7.511555208091348 576:2.270920178350077 590:12.94686954734306 621:5.95427888095475 623:2.644433686651639 634:20.375098652013364 640:2.5542825896573413 642:2.487591215158669 674:2.682899967479435 699:5.178747818937223 704:2.977139440477375 712:5.6161262208668825 717:2.901153533499453 721:2.6257415536394864 754:3.3958497753355603 771:2.7229053020931344 779:2.901153533499453 787:5.40540518955123 792:3.059377538714347 812:2.6257415536394864 853:2.8770559819203925 859:3.1182180387372807 891:2.8305359662854994 897:2.9258461460898246 907:2.8770559819203925 944:6.427056437083211 968:13.916925537098445 982:3.2135282185416054 992:2.9258461460898246 
32.0 4:0.8526742174235841 5:3.8751468631960577 15:1.9233777179746172 17:1.0502051928810674 25:1.8218862510951197 32:2.8867092598053308 36:1.2676180694862922 51:1.4789271631534993 62:2.5447826964779 70:1.1897755827223582 89:3.2081806122150103 115:1.6518809699438535 120:8.155594892477122 132:3.6544677148434297 137:2.8535254845101985 140:4.16425221410101 146:2.3952178950276544 177:1.7395282770026095 195:1.5842876788113254 211:2.019605750069171 220:3.9025730121833875 246:1.8697934718405107 250:2.019605750069171 268:2.160378303950253 298:2.183908801360447 319:2.4403383303081236 343:1.9897527869194898 445:2.2972374866674503 477:2.366230358154402 512:5.074376312596083 516:5.251483107278973 632:2.8080631104334413 635:2.3520457231624454 646:2.644433686651639 683:2.644433686651639 764:5.95427888095475 771:2.7229053020931344 876:2.7229053020931344 900:6.361476791437229 912:11.173061526922787 947:2.977139440477375 960:6.87334353971163 
3.112517918050027 0:0.5579415869751363 4:0.8526742174235841 6:1.3997898425947752 10:1.3164082336557241 24:0.9379717979354791 26:1.2210980538513994 34:1.8356021070922315 45:2.5038517360304495 48:1.6802516670730692 55:2.8771517352598632 67:2.019605750069171 121:1.4967317877870059 135:2.9113406019784636 145:7.367527550532267 206:3.5728237258029196 318:2.050377408735925 322:4.297634963098354 336:2.1720743437134447 484:4.732460716308804 499:2.5716743323692106 614:2.5038517360304495 684:5.04076207596332 688:2.60739241497129 696:2.5716743323692106 700:5.04076207596332 706:2.4715908738122283 805:3.1182180387372807 806:2.8305359662854994 
30.560231702497934 6:1.3997898425947752 7:0.5579415869751363 20:1.1766462912805655 24:0.9379717979354791 29:0.7711811831724011 38:1.5458213979835294 48:1.6802516670730692 83:1.3315218714657724 97:1.7626953362841438 147:1.6311189784954245 150:1.694744674375636 166:1.6175133264396457 179:1.8356021070922315 211:2.019605750069171 212:4.761238191213003 223:1.8785271518092654 245:2.2326989655298792 252:2.487591215158669 278:1.9703347010623882 284:2.644433686651639 288:1.8611354090973962 295:2.050377408735925 361:2.126089230471621 387:2.310660506999591 405:4.56798451983486 585:2.5716743323692106 608:5.4870491785917395 618:5.902327908148229 668:3.1489896974040343 669:2.8535254845101985 674:2.682899967479435 706:2.4715908738122283 751:2.644433686651639 765:2.9511639540741146 883:6.118755077428694 890:3.1489896974040343 923:3.2135282185416054 
32.0 6:2.7995796851895505 20:1.1766462912805655 29:0.7711811831724011 74:1.4556703009892318 78:1.5777729977901318 83:1.3315218714657724 147:1.6311189784954245 196:2.32426615905537 226:2.3806190956065016 288:1.8611354090973962 311:2.160378303950253 361:2.126089230471621 368:5.661071932570999 450:2.8535254845101985 477:2.366230358154402 502:2.28399225991743 517:2.258016773514169 610:2.7229053020931344 638:3.031206661747651 674:2.682899967479435 681:2.977139440477375 805:3.1182180387372807 978:10.310015309567445 
9.160309764488888 0:1.6738247609254089 5:5.166862484261411 7:0.5579415869751363 16:2.644152969918046 20:1.1766462912805655 30:0.9871044865131239 31:0.7567924457203014 32:0.9622364199351103 36:1.2676180694862922 59:1.2487495851819095 62:5.0895653929558 67:6.058817250207513 68:1.2534334344943356 90:15.762677608499105 94:1.694744674375636 99:1.7168858002528495 102:23.264075228608455 111:1.4107189131269655 126:1.9142452344113448 142:15.754449321836919 148:21.720743437134445 154:1.8697934718405107 161:10.96340314453029 177:1.7395282770026095 181:1.8272338574217148 190:5.754111963840785 205:3.6544677148434297 206:1.7864118629014598 208:1.9418967657418547 239:1.9897527869194898 244:2.3806190956065016 249:1.9325943730795412 273:1.9512865060916937 291:1.73192367761739 322:2.148817481549177 334:2.3806190956065016 412:2.1720743437134447 413:2.2080063529395075 421:2.366230358154402 432:2.901153533499453 452:2.28399225991743 487:2.3806190956065016 493:2.9511639540741146 501:4.621321013999182 507:5.251483107278973 567:2.5038517360304495 671:2.52038103798166 684:2.52038103798166 700:2.52038103798166 701:2.644433686651639 721:2.6257415536394864 736:3.031206661747651 766:2.682899967479435 785:2.60739241497129 826:7.563024512295089 855:6.958462768549222 924:3.0883650755875993 938:2.9258461460898246 974:2.901153533499453 
4.589759241780014 0:3.905591108825954 3:0.5649921449718032 5:2.5834312421307053 30:0.9871044865131239 33:1.155140086059602 47:2.6732218819464872 51:1.4789271631534993 52:1.7395282770026095 55:1.4385758676299316 59:1.2487495851819095 67:2.019605750069171 70:1.1897755827223582 72:2.603039242323947 73:1.5271292649713768 81:1.6040903061075051 82:1.7864118629014598 90:7.881338804249553 135:1.4556703009892318 145:4.911685033688178 147:1.6311189784954245 173:2.8770559819203925 246:1.8697934718405107 250:2.019605750069171 263:3.9406694021247763 280:1.9703347010623882 281:2.32426615905537 306:2.220276445531322 340:2.029758121533189 356:4.790435790055309 360:6.565042180057114 379:2.148817481549177 398:2.2326989655298792 413:2.2080063529395075 459:2.4100329808127947 494:5.36579993495887 517:2.258016773514169 525:2.366230358154402 570:12.989719080869147 684:2.52038103798166 700:2.52038103798166 706:2.4715908738122283 717:2.901153533499453 752:2.7645779984937024 783:2.702702594775615 843:2.977139440477375 870:2.8770559819203925 890:3.1489896974040343 928:3.1489896974040343 
32.0 0:1.6738247609254089 2:2.981523241601004 3:0.5649921449718032 5:5.166862484261411 6:1.3997898425947752 24:0.9379717979354791 25:0.9109431255475599 32:1.9244728398702207 42:1.7395282770026095 47:1.3366109409732436 65:3.8103907977828535 72:2.603039242323947 73:1.5271292649713768 83:1.3315218714657724 109:1.7864118629014598 111:1.4107189131269655 130:4.059516243066378 138:2.969653770561375 143:1.8697934718405107 152:2.310660506999591 154:1.8697934718405107 156:1.778443693252283 180:11.414101938040794 183:1.8785271518092654 197:2.148817481549177 205:1.8272338574217148 207:1.7020707144677087 236:3.523683146845445 377:2.082126107050505 444:5.36579993495887 452:2.28399225991743 492:5.21478482994258 506:2.3520457231624454 512:2.5371881562980416 515:2.2972374866674503 521:3.6189933266497696 533:2.3952178950276544 558:3.282521090028557 569:2.5038517360304495 588:2.9258461460898246 664:2.60739241497129 669:2.8535254845101985 687:5.707050969020397 717:2.901153533499453 723:3.1182180387372807 740:2.7229053020931344 745:3.1182180387372807 776:3.1807383957186146 823:2.901153533499453 928:9.446969092212104 
26.825319280910133 0:4.46353269580109 5:5.166862484261411 25:0.9109431255475599 31:1.5135848914406027 36:1.2676180694862922 47:1.3366109409732436 62:1.27239134823895 67:2.019605750069171 72:1.3015196211619735 73:3.0542585299427536 75:3.46384735523478 84:1.3836169833491743 98:1.3729785851441185 133:3.9215305000924747 206:1.7864118629014598 212:2.3806190956065016 250:4.039211500138342 280:5.911004103187165 322:2.148817481549177 447:3.9406694021247763 477:4.732460716308804 575:2.4100329808127947 644:2.8770559819203925 652:2.4715908738122283 667:2.901153533499453 754:6.791699550671121 812:5.251483107278973 
7.525914439958348 0:2.231766347900545 3:6.214913594689834 4:2.5580226522707523 5:1.2917156210653526 6:1.3997898425947752 7:1.6738247609254089 10:2.6328164673114482 16:0.8813843233060153 19:0.9587337893839082 20:9.413170330244524 24:0.9379717979354791 27:6.786151140879896 29:1.5423623663448023 30:1.9742089730262478 32:0.9622364199351103 34:1.8356021070922315 36:1.2676180694862922 38:1.5458213979835294 44:1.5209753993969986 47:1.3366109409732436 48:6.721006668292277 62:3.81717404471685 67:2.019605750069171 72:1.3015196211619735 73:1.5271292649713768 74:4.367010902967696 83:1.3315218714657724 88:3.8103907977828535 94:1.694744674375636 97:1.7626953362841438 104:3.95999322394825 108:7.8221772449138705 109:1.7864118629014598 114:1.5148591723795624 115:1.6518809699438535 120:1.6311189784954245 139:3.1297391859084476 145:9.823370067376356 161:5.481701572265145 180:8.560576453530595 184:1.6379918577831865 191:3.46384735523478 206:1.7864118629014598 221:2.126089230471621 234:2.1038660936869107 297:3.999210166725003 299:2.270920178350077 308:2.029758121533189 311:2.160378303950253 345:2.4100329808127947 369:2.06084870860322 374:2.6257415536394864 380:2.019605750069171 387:2.310660506999591 405:2.28399225991743 432:2.901153533499453 454:2.195884992407163 466:2.901153533499453 478:2.195884992407163 488:2.52038103798166 513:4.761238191213003 544:2.9511639540741146 559:3.3566290621822787 576:2.270920178350077 580:2.7645779984937024 585:5.143348664738421 589:8.631167945761177 590:2.5893739094686117 595:2.366230358154402 628:2.5716743323692106 676:2.487591215158669 715:32.13528218541605 721:5.251483107278973 723:6.236436077474561 774:2.6257415536394864 819:6.236436077474561 846:3.0883650755875993 892:2.8080631104334413 903:7.340573242074641 914:2.9258461460898246 923:6.427056437083211 946:40.75019730402673 958:3.3566290621822787 
21.2798440092375 3:1.6949764349154095 4:2.5580226522707523 5:2.5834312421307053 14:1.18537997124932 27:1.3572302281759792 36:1.2676180694862922 51:1.4789271631534993 61:1.6040903061075051 94:1.694744674375636 96:1.6874719150465562 104:1.979996611974125 109:1.7864118629014598 117:1.3315218714657724 121:1.4967317877870059 131:1.571300483284514 140:2.082126107050505 141:4.344148687426889 145:2.455842516844089 147:1.6311189784954245 189:1.7094508217653315 210:2.183908801360447 278:1.9703347010623882 292:1.8962267289086663 301:2.1720743437134447 310:2.148817481549177 314:2.1038660936869107 360:19.695126540171344 361:2.126089230471621 372:2.2452777477367394 376:2.682899967479435 377:2.082126107050505 404:2.114915929873496 440:6.062413323495302 456:2.2452777477367394 477:2.366230358154402 673:2.5716743323692106 688:2.60739241497129 839:2.7645779984937024 881:2.8305359662854994 899:2.7645779984937024 923:3.2135282185416054 
16.436511136399343 3:0.5649921449718032 5:1.2917156210653526 6:1.3997898425947752 7:1.1158831739502726 9:0.7230813883779897 26:1.2210980538513994 30:1.9742089730262478 79:1.3214207754792684 92:1.4273397943630057 97:1.7626953362841438 135:1.4556703009892318 148:2.1720743437134447 151:1.5087801263031804 212:4.761238191213003 256:2.029758121533189 265:1.9325943730795412 269:4.732460716308804 271:2.3952178950276544 276:2.7229053020931344 279:2.8535254845101985 284:2.644433686651639 368:2.8305359662854994 391:4.049776242742224 502:2.28399225991743 521:3.6189933266497696 555:2.4250708581773353 559:3.3566290621822787 610:2.7229053020931344 618:2.9511639540741146 745:3.1182180387372807 755:3.0038076875595365 841:3.724353842307596 894:2.9258461460898246 923:3.2135282185416054 978:3.436671769855815 995:3.523683146845445 
0.8648352967539197 0:1.1158831739502726 3:1.1299842899436063 5:7.7502937263921154 12:3.3038905621163357 14:9.48303976999456 16:1.7627686466120307 20:1.1766462912805655 24:0.9379717979354791 25:0.9109431255475599 29:0.7711811831724011 31:0.7567924457203014 33:1.155140086059602 34:42.218848463121326 36:2.5352361389725844 38:4.6374641939505885 40:42.54970257831892 43:0.9692787025605233 47:1.3366109409732436 51:1.4789271631534993 53:3.7395869436810214 57:1.6449123006277602 59:1.2487495851819095 74:2.9113406019784636 87:1.1986251979993408 108:23.46653173474161 120:1.6311189784954245 123:1.694744674375636 128:3.4041414289354175 150:3.389489348751272 162:1.9233777179746172 166:1.6175133264396457 172:2.1038660936869107 177:1.7395282770026095 179:1.8356021070922315 184:1.6379918577831865 194:104.05550092765064 195:3.1685753576226507 197:2.148817481549177 205:1.8272338574217148 211:2.019605750069171 229:3.8467554359492344 236:109.23417755220879 237:6.698096896589638 242:1.8356021070922315 256:2.029758121533189 260:1.844040975738096 266:1.9607652500462374 300:1.9512865060916937 323:4.594474973334901 331:2.5716743323692106 336:2.1720743437134447 361:2.126089230471621 365:2.52038103798166 400:2.3520457231624454 410:5.661071932570999 418:2.2972374866674503 433:2.160378303950253 450:2.8535254845101985 505:5.326963763244667 547:3.1182180387372807 583:3.975668270588502 589:2.8770559819203925 603:2.5893739094686117 631:2.4403383303081236 640:2.5542825896573413 682:2.901153533499453 688:13.03696207485645 698:2.6257415536394864 722:2.682899967479435 731:3.2135282185416054 751:2.644433686651639 772:3.031206661747651 777:2.7229053020931344 791:3.3188887341994318 809:2.60739241497129 811:3.1807383957186146 822:3.059377538714347 853:8.631167945761177 865:3.059377538714347 880:9.956666202598296 889:2.8080631104334413 934:3.724353842307596 939:9.74228931065186 962:46.10564253556775 
10.654179568463745 4:4.26337108711792 7:1.1158831739502726 9:1.4461627767559795 16:1.7627686466120307 19:1.9174675787678164 25:0.9109431255475599 31:0.7567924457203014 32:0.9622364199351103 33:1.155140086059602 41:1.0972727037390533 47:5.3464437638929745 55:1.4385758676299316 70:2.3795511654447163 74:4.367010902967696 78:1.5777729977901318 83:3.994565614397317 92:1.4273397943630057 95:3.248586026850049 139:1.5648695929542238 163:1.8189350546070198 174:1.9233777179746172 177:1.7395282770026095 181:1.8272338574217148 206:1.7864118629014598 219:1.794444034598724 222:2.183908801360447 229:1.9233777179746172 255:2.160378303950253 262:3.9025730121833875 272:2.5716743323692106 337:3.9025730121833875 407:5.707050969020397 429:2.7435245892958697 454:2.195884992407163 456:2.2452777477367394 466:2.901153533499453 576:2.270920178350077 593:2.52038103798166 634:10.187549326006682 635:2.3520457231624454 684:5.04076207596332 700:5.04076207596332 710:2.4715908738122283 739:2.6634818816223333 763:5.851692292179649 774:2.6257415536394864 806:2.8305359662854994 824:2.901153533499453 830:2.901153533499453 853:2.8770559819203925 898:4.049776242742224 924:3.0883650755875993 952:2.786084203714666 997:6.297979394808069 
3.5290453552220553 4:1.7053484348471681 5:16.792303073849585 6:1.3997898425947752 7:3.3476495218508178 10:60.55477874816331 12:2.2025937080775573 15:1.9233777179746172 16:1.7627686466120307 17:4.20082077152427 19:8.628604104455174 24:0.9379717979354791 25:4.554715627737799 30:0.9871044865131239 31:6.054339565762411 32:3.8489456797404413 33:3.465420258178806 37:3.5958755939980223 40:4.401693370170923 41:1.0972727037390533 43:0.9692787025605233 45:17.526962152213148 47:4.009832822919731 50:3.757054303618531 53:3.7395869436810214 54:3.3749438300931125 56:1.5974457633888366 57:6.579649202511041 62:5.0895653929558 63:1.4217687493135505 65:1.9051953988914268 68:7.520600606966013 71:15.644354489827741 73:1.5271292649713768 74:1.4556703009892318 76:3.8605482942425393 78:3.1555459955802636 79:1.3214207754792684 81:3.2081806122150103 82:1.7864118629014598 83:1.3315218714657724 87:1.1986251979993408 89:3.2081806122150103 91:2.8658840998233512 95:4.872879040275073 98:1.3729785851441185 102:12.689495579240976 104:3.95999322394825 109:3.5728237258029196 111:1.4107189131269655 115:1.6518809699438535 116:3.275983715566373 120:1.6311189784954245 123:8.47372337187818 127:2.5038517360304495 129:1.9607652500462374 131:3.142600966569028 132:1.8272338574217148 136:1.6588985426025 138:2.969653770561375 144:2.2452777477367394 147:1.6311189784954245 149:1.6802516670730692 154:1.8697934718405107 158:11.690297405938528 159:5.218584831007829 161:1.8272338574217148 168:4.059516243066378 169:3.1297391859084476 171:1.8525516654060048 172:2.1038660936869107 180:2.8535254845101985 181:1.8272338574217148 183:1.8785271518092654 187:1.9142452344113448 191:1.73192367761739 196:11.62133079527685 197:2.148817481549177 207:1.7020707144677087 210:6.551726404081341 219:1.794444034598724 220:3.9025730121833875 228:40.87656321030139 230:1.9897527869194898 239:5.969258360758469 243:7.367527550532267 256:2.029758121533189 261:6.311598281060732 266:3.9215305000924747 271:4.790435790055309 276:5.445810604186269 288:3.7222708181947923 290:4.704091446324891 295:2.050377408735925 302:2.1373887857255545 321:2.4403383303081236 323:4.594474973334901 328:3.389489348751272 336:2.1720743437134447 342:7.014178443563116 343:1.9897527869194898 347:2.32426615905537 356:4.790435790055309 380:2.019605750069171 384:2.310660506999591 390:2.3520457231624454 402:13.317409408111667 403:2.2452777477367394 404:6.344747789620488 406:2.2972374866674503 413:6.624019058818522 415:1.9325943730795412 417:2.220276445531322 421:2.366230358154402 429:2.7435245892958697 433:2.160378303950253 441:2.3380594811877056 443:2.3806190956065016 449:13.583399101342241 459:2.4100329808127947 464:2.071430817933757 474:2.3380594811877056 487:4.761238191213003 501:2.310660506999591 502:2.28399225991743 514:2.310660506999591 517:2.258016773514169 524:5.529155996987405 531:5.21478482994258 535:2.5038517360304495 541:2.60739241497129 553:2.487591215158669 564:9.823370067376356 574:2.5371881562980416 575:2.4100329808127947 582:2.644433686651639 586:3.6189933266497696 596:23.209228267995623 599:5.108565179314683 603:2.5893739094686117 604:2.487591215158669 606:2.5542825896573413 619:2.9258461460898246 631:2.4403383303081236 637:2.5371881562980416 642:2.487591215158669 645:5.36579993495887 654:7.237986653299539 673:2.5716743323692106 682:2.901153533499453 699:5.178747818937223 718:2.682899967479435 724:3.2135282185416054 733:2.60739241497129 735:3.0883650755875993 739:2.6634818816223333 745:3.1182180387372807 767:2.702702594775615 779:11.604614133997812 794:9.093619985242952 816:2.8535254845101985 824:2.901153533499453 830:2.901153533499453 834:3.0038076875595365 845:5.661071932570999 854:2.8080631104334413 881:2.8305359662854994 884:2.901153533499453 919:3.3566290621822787 929:5.851692292179649 938:2.9258461460898246 951:6.118755077428694 957:3.059377538714347 970:3.570203162480338 971:3.1807383957186146 982:3.2135282185416054 983:3.1489896974040343 989:3.6702866210373206 
32.0 3:0.5649921449718032 7:1.1158831739502726 29:0.7711811831724011 61:1.6040903061075051 74:1.4556703009892318 97:1.7626953362841438 117:2.6630437429315448 161:1.8272338574217148 173:2.8770559819203925 212:2.3806190956065016 226:2.3806190956065016 245:2.2326989655298792 252:2.487591215158669 254:3.0883650755875993 271:2.3952178950276544 278:1.9703347010623882 284:2.644433686651639 343:1.9897527869194898 398:4.4653979310597585 474:2.3380594811877056 554:2.455842516844089 608:2.7435245892958697 708:3.1182180387372807 733:2.60739241497129 809:2.60739241497129 923:3.2135282185416054 
4.098199825890704 0:11.158831739502727 2:2.981523241601004 3:5.084929304746229 4:3.4106968696943363 5:10.333724968522821 6:41.99369527784326 7:1.1158831739502726 9:4.338488330267938 10:3.9492247009671724 11:1.9325943730795412 16:3.5255372932240614 17:2.100410385762135 19:3.8349351575356327 24:0.9379717979354791 25:2.7328293766426794 29:2.3135435495172034 30:2.9613134595393715 32:3.8489456797404413 33:1.155140086059602 39:9.899983059870625 40:8.803386740341846 42:1.7395282770026095 43:1.9385574051210466 44:4.562926198190995 48:6.721006668292277 54:16.874719150465562 62:6.361956741194749 64:2.8771517352598632 68:1.2534334344943356 72:2.603039242323947 73:1.5271292649713768 74:1.4556703009892318 76:3.8605482942425393 78:1.5777729977901318 79:2.642841550958537 81:3.2081806122150103 82:5.359235588704379 83:1.3315218714657724 84:1.3836169833491743 90:1.9703347010623882 91:7.164710249558378 101:3.041950798793997 103:1.4730620437011008 106:2.1720743437134447 111:1.4107189131269655 114:4.544577517138687 116:4.91397557334956 120:1.6311189784954245 121:1.4967317877870059 122:1.3572302281759792 129:1.9607652500462374 134:2.4403383303081236 136:16.588985426025 139:1.5648695929542238 141:2.1720743437134447 146:2.3952178950276544 151:1.5087801263031804 154:1.8697934718405107 156:3.556887386504566 161:1.8272338574217148 163:1.8189350546070198 169:3.1297391859084476 171:1.8525516654060048 173:2.8770559819203925 176:1.9418967657418547 179:1.8356021070922315 182:3.5410770274903394 184:1.6379918577831865 187:1.9142452344113448 191:1.73192367761739 192:5.797783119238623 203:1.6379918577831865 204:2.019605750069171 205:1.8272338574217148 206:1.7864118629014598 210:2.183908801360447 211:8.078423000276684 228:6.812760535050232 231:2.126089230471621 243:2.455842516844089 249:1.9325943730795412 255:2.160378303950253 258:11.05831199397481 262:1.9512865060916937 278:1.9703347010623882 280:1.9703347010623882 281:2.32426615905537 286:69.97624470580952 288:1.8611354090973962 293:5.6161262208668825 294:2.3952178950276544 298:2.183908801360447 306:2.220276445531322 314:2.1038660936869107 322:2.148817481549177 323:2.2972374866674503 331:2.5716743323692106 338:1.7549131958420887 341:2.3952178950276544 350:2.3806190956065016 356:2.3952178950276544 368:2.8305359662854994 370:1.9418967657418547 374:5.251483107278973 383:3.1489896974040343 400:2.3520457231624454 419:5.143348664738421 436:2.8080631104334413 442:2.487591215158669 450:2.8535254845101985 454:2.195884992407163 458:1.9996050833625014 466:2.901153533499453 472:2.366230358154402 478:2.195884992407163 491:5.074376312596083 501:2.310660506999591 507:2.6257415536394864 516:2.6257415536394864 519:5.288867373303278 566:2.487591215158669 576:2.270920178350077 580:2.7645779984937024 590:2.5893739094686117 599:2.5542825896573413 600:5.802307066998906 631:2.4403383303081236 644:2.8770559819203925 645:2.682899967479435 646:2.644433686651639 647:2.9511639540741146 670:2.7435245892958697 682:2.901153533499453 683:5.288867373303278 688:2.60739241497129 690:2.9258461460898246 692:5.108565179314683 707:3.0038076875595365 709:2.786084203714666 711:3.1807383957186146 718:2.682899967479435 722:2.682899967479435 769:2.702702594775615 772:6.062413323495302 785:5.21478482994258 786:2.9258461460898246 808:6.6377774683988635 811:3.1807383957186146 840:2.7645779984937024 844:122.28807949475633 851:2.682899967479435 852:6.7132581243645575 889:2.8080631104334413 935:12.472872154949123 942:109.63758851254016 952:2.786084203714666 966:7.340573242074641 976:2.901153533499453 982:3.2135282185416054 992:5.851692292179649 
32.0 0:0.5579415869751363 32:2.8867092598053308 55:1.4385758676299316 121:1.4967317877870059 149:1.6802516670730692 267:2.366230358154402 316:1.9418967657418547 331:7.715022997107631 414:2.8770559819203925 544:2.9511639540741146 614:2.5038517360304495 684:2.52038103798166 700:2.52038103798166 738:2.7645779984937024 765:2.9511639540741146 958:3.3566290621822787 
32.0 9:2.892325553511959 16:0.8813843233060153 19:0.9587337893839082 41:1.0972727037390533 47:2.6732218819464872 64:2.8771517352598632 74:2.9113406019784636 131:1.571300483284514 171:9.262758327030024 195:1.5842876788113254 278:3.9406694021247763 305:2.071430817933757 369:2.06084870860322 390:2.3520457231624454 395:2.3380594811877056 399:2.1720743437134447 441:2.3380594811877056 468:2.60739241497129 536:2.4250708581773353 566:2.487591215158669 571:2.5038517360304495 595:2.366230358154402 599:2.5542825896573413 634:3.3958497753355603 712:5.6161262208668825 760:2.6257415536394864 778:3.059377538714347 809:2.60739241497129 862:3.8421368779639797 889:2.8080631104334413 951:3.059377538714347 
32.0 16:0.8813843233060153 23:1.8107045554705044 41:1.0972727037390533 64:1.4385758676299316 98:1.3729785851441185 176:1.9418967657418547 189:1.7094508217653315 230:1.9897527869194898 248:2.5542825896573413 252:7.462773645476007 305:4.142861635867514 372:2.2452777477367394 395:11.690297405938528 619:11.703384584359299 673:2.5716743323692106 704:2.977139440477375 722:2.682899967479435 754:3.3958497753355603 988:2.9258461460898246 
32.0 6:1.3997898425947752 9:4.338488330267938 29:0.7711811831724011 55:1.4385758676299316 70:1.1897755827223582 174:1.9233777179746172 195:1.5842876788113254 230:1.9897527869194898 262:1.9512865060916937 302:2.1373887857255545 395:2.3380594811877056 479:5.007703472060899 513:4.761238191213003 610:2.7229053020931344 625:4.975182430317338 634:3.3958497753355603 644:2.8770559819203925 754:3.3958497753355603 903:7.340573242074641 924:3.0883650755875993 
27.613644320899553 7:1.1158831739502726 9:0.7230813883779897 32:1.9244728398702207 39:1.979996611974125 63:1.4217687493135505 70:1.1897755827223582 84:1.3836169833491743 163:1.8189350546070198 171:1.8525516654060048 179:1.8356021070922315 184:3.275983715566373 191:1.73192367761739 230:1.9897527869194898 241:1.9233777179746172 252:2.487591215158669 288:1.8611354090973962 305:2.071430817933757 308:2.029758121533189 322:2.148817481549177 330:2.2326989655298792 341:2.3952178950276544 343:1.9897527869194898 374:2.6257415536394864 413:2.2080063529395075 429:5.4870491785917395 487:2.3806190956065016 496:2.3952178950276544 519:2.644433686651639 525:2.366230358154402 593:2.52038103798166 610:2.7229053020931344 625:4.975182430317338 684:2.52038103798166 700:2.52038103798166 708:6.236436077474561 751:2.644433686651639 797:3.0883650755875993 818:2.786084203714666 834:3.0038076875595365 858:3.1182180387372807 907:2.8770559819203925 924:6.176730151175199 965:3.1489896974040343 
32.0 0:0.5579415869751363 3:0.5649921449718032 4:3.4106968696943363 5:6.4585781053267635 24:1.8759435958709583 27:1.3572302281759792 29:0.7711811831724011 34:1.8356021070922315 43:0.9692787025605233 45:2.5038517360304495 48:1.6802516670730692 62:1.27239134823895 68:1.2534334344943356 76:1.2868494314141798 98:1.3729785851441185 102:8.459663719493983 111:1.4107189131269655 116:1.6379918577831865 118:8.358252611143998 120:3.262237956990849 122:1.3572302281759792 146:2.3952178950276544 169:1.5648695929542238 184:1.6379918577831865 220:1.9512865060916937 269:2.366230358154402 276:2.7229053020931344 286:3.1807383957186146 354:1.7705385137451697 403:2.2452777477367394 404:4.229831859746992 413:2.2080063529395075 452:2.28399225991743 454:2.195884992407163 512:2.5371881562980416 551:2.3806190956065016 718:2.682899967479435 811:6.361476791437229 
18.763392507030755 5:3.8751468631960577 6:2.7995796851895505 43:0.9692787025605233 51:1.4789271631534993 84:1.3836169833491743 85:1.5777729977901318 118:13.930421018573329 150:1.694744674375636 201:6.660829336593967 234:4.207732187373821 329:2.3380594811877056 350:9.522476382426007 440:12.124826646990604 463:2.220276445531322 464:2.071430817933757 584:2.3520457231624454 706:2.4715908738122283 770:2.8080631104334413 
8.95545901364581 0:3.905591108825954 5:9.04200934745747 7:0.5579415869751363 8:14.049062725526873 12:1.1012968540387786 16:0.8813843233060153 20:1.1766462912805655 25:1.8218862510951197 30:0.9871044865131239 38:1.5458213979835294 39:1.979996611974125 62:2.5447826964779 63:1.4217687493135505 77:3.7222708181947923 101:3.041950798793997 108:2.60739241497129 110:1.979996611974125 121:1.4967317877870059 135:1.4556703009892318 136:1.6588985426025 139:3.1297391859084476 149:1.6802516670730692 153:3.9795055738389795 155:1.6379918577831865 156:1.778443693252283 163:1.8189350546070198 173:5.754111963840785 182:1.7705385137451697 183:1.8785271518092654 228:2.270920178350077 240:2.270920178350077 244:7.141857286819505 280:1.9703347010623882 292:1.8962267289086663 309:2.183908801360447 341:2.3952178950276544 361:4.252178460943242 405:2.28399225991743 412:2.1720743437134447 432:34.81384240199343 457:2.5893739094686117 602:24.249653293981208 606:2.5542825896573413 619:2.9258461460898246 703:2.7229053020931344 751:2.644433686651639 869:3.2474297702172867 884:5.802307066998906 
10.610693748290744 0:2.231766347900545 3:0.5649921449718032 4:5.968719521965088 5:11.625440589588173 10:1.3164082336557241 29:0.7711811831724011 34:1.8356021070922315 40:1.4672311233903077 54:3.3749438300931125 67:8.078423000276684 72:1.3015196211619735 80:3.479056554005219 82:1.7864118629014598 90:9.851673505311942 99:1.7168858002528495 115:1.6518809699438535 177:3.479056554005219 195:3.1685753576226507 228:4.541840356700154 237:2.2326989655298792 251:2.1373887857255545 319:4.880676660616247 336:4.344148687426889 413:2.2080063529395075 491:2.5371881562980416 551:2.3806190956065016 580:2.7645779984937024 597:2.4715908738122283 602:3.031206661747651 688:2.60739241497129 715:3.2135282185416054 717:2.901153533499453 771:5.445810604186269 890:3.1489896974040343 977:3.6702866210373206 
8.245924805284522 0:2.231766347900545 4:2.5580226522707523 9:1.4461627767559795 10:1.3164082336557241 16:0.8813843233060153 19:0.9587337893839082 27:1.3572302281759792 32:0.9622364199351103 37:3.5958755939980223 47:2.6732218819464872 59:2.497499170363819 62:1.27239134823895 83:1.3315218714657724 89:6.4163612244300205 95:3.248586026850049 101:1.5209753993969986 112:2.4250708581773353 116:1.6379918577831865 128:5.106212143403126 171:1.8525516654060048 183:1.8785271518092654 191:1.73192367761739 228:6.812760535050232 239:1.9897527869194898 261:2.1038660936869107 281:2.32426615905537 288:3.7222708181947923 308:4.059516243066378 377:4.16425221410101 381:2.6257415536394864 396:6.624019058818522 401:2.682899967479435 406:2.2972374866674503 421:2.366230358154402 430:2.258016773514169 439:2.4100329808127947 489:2.3806190956065016 496:2.3952178950276544 517:2.258016773514169 530:2.8305359662854994 536:2.4250708581773353 574:2.5371881562980416 576:2.270920178350077 625:4.975182430317338 650:2.644433686651639 667:8.703460600498358 670:2.7435245892958697 707:3.0038076875595365 722:8.048699902438305 725:6.7132581243645575 751:2.644433686651639 755:6.007615375119073 769:2.702702594775615 771:2.7229053020931344 801:3.2474297702172867 813:17.183358849279074 814:2.644433686651639 820:2.8770559819203925 834:6.007615375119073 884:2.901153533499453 897:2.9258461460898246 950:18.62176921153798 953:3.6702866210373206 974:8.703460600498358 
0.6506986461250269 0:15.622364435303815 3:2.824960724859016 4:1.7053484348471681 6:22.396637481516404 7:3.3476495218508178 9:2.169244165133969 10:2.6328164673114482 15:5.770133153923852 16:4.406921616530076 17:2.100410385762135 19:7.6698703150712655 20:16.473048077927917 23:1.8107045554705044 24:1.8759435958709583 25:2.7328293766426794 29:0.7711811831724011 30:0.9871044865131239 31:7.567924457203014 32:2.8867092598053308 33:1.155140086059602 36:7.605708416917754 38:1.5458213979835294 40:4.401693370170923 41:1.0972727037390533 43:3.877114810242093 44:1.5209753993969986 47:9.356276586812704 49:1.6518809699438535 54:8.437359575232781 55:2.8771517352598632 59:9.989996681455276 61:12.832722448860041 63:4.265306247940652 65:1.9051953988914268 72:2.603039242323947 73:4.58138779491413 76:11.581644882727618 78:4.733318993370395 79:1.3214207754792684 81:1.6040903061075051 83:3.994565614397317 84:1.3836169833491743 88:28.577930983371402 89:6.4163612244300205 92:4.282019383089017 93:1.9996050833625014 96:1.6874719150465562 97:5.2880860088524315 99:3.433771600505699 101:6.083901597587994 102:4.229831859746992 103:1.4730620437011008 109:41.087472846733576 111:2.821437826253931 112:2.4250708581773353 117:5.3260874858630896 120:26.097903655926793 122:2.7144604563519583 123:3.389489348751272 125:2.2972374866674503 128:6.808282857870835 131:31.42600966569028 133:1.9607652500462374 135:1.4556703009892318 141:15.204520405994113 147:1.6311189784954245 149:1.6802516670730692 150:1.694744674375636 151:1.5087801263031804 155:1.6379918577831865 156:12.44910585276598 158:28.056713774252465 161:1.8272338574217148 162:5.770133153923852 166:1.6175133264396457 169:1.5648695929542238 171:1.8525516654060048 179:9.178010535461157 181:3.6544677148434297 185:4.93473690188328 186:7.959011147677959 187:9.571226172056724 188:2.050377408735925 189:3.418901643530663 191:1.73192367761739 192:3.8651887461590824 193:4.10075481747185 195:1.5842876788113254 201:4.440552891062644 206:3.5728237258029196 207:1.7020707144677087 208:1.9418967657418547 209:1.4730620437011008 210:45.86208482856939 217:2.455842516844089 219:1.794444034598724 220:1.9512865060916937 222:2.183908801360447 223:1.8785271518092654 224:13.321658673187933 230:7.959011147677959 240:31.79288249690108 246:1.8697934718405107 249:7.730377492318165 250:2.019605750069171 253:2.644433686651639 262:1.9512865060916937 270:1.9233777179746172 271:2.3952178950276544 283:3.9406694021247763 284:7.933301059954917 285:4.391769984814326 286:3.1807383957186146 289:4.039211500138342 294:2.3952178950276544 299:9.083680713400309 300:3.9025730121833875 302:4.274777571451109 305:4.142861635867514 306:2.220276445531322 308:4.059516243066378 311:2.160378303950253 316:1.9418967657418547 317:6.246378321151515 320:5.998815250087504 321:2.4403383303081236 326:4.820065961625589 329:16.36641636831394 334:4.761238191213003 335:2.195884992407163 336:2.1720743437134447 337:5.853859518275081 339:2.9511639540741146 344:2.6257415536394864 348:3.3958497753355603 352:2.258016773514169 354:1.7705385137451697 356:2.3952178950276544 363:4.391769984814326 369:6.18254612580966 372:4.490555495473479 374:7.8772246609184595 377:2.082126107050505 380:2.019605750069171 381:31.508898643673838 388:4.704091446324891 395:4.676118962375411 398:6.698096896589638 399:2.1720743437134447 401:13.414499837397177 403:8.981110990946958 404:4.229831859746992 417:8.881105782125289 418:4.594474973334901 419:2.5716743323692106 420:2.3520457231624454 425:5.40540518955123 431:4.16425221410101 434:4.975182430317338 438:2.4250708581773353 439:2.4100329808127947 441:2.3380594811877056 443:2.3806190956065016 445:4.594474973334901 456:2.2452777477367394 466:5.802307066998906 469:2.3380594811877056 478:2.195884992407163 483:3.2135282185416054 491:5.074376312596083 498:7.237986653299539 502:2.28399225991743 506:21.168411508462007 516:2.6257415536394864 524:13.822889992468513 532:2.8080631104334413 536:2.4250708581773353 548:2.7645779984937024 550:7.715022997107631 553:7.462773645476007 568:5.04076207596332 574:7.611564468894125 576:2.270920178350077 582:5.288867373303278 584:9.408182892649782 586:3.6189933266497696 590:12.94686954734306 593:2.52038103798166 596:5.802307066998906 599:2.5542825896573413 602:3.031206661747651 604:2.487591215158669 607:3.3566290621822787 610:2.7229053020931344 620:3.1489896974040343 621:8.931418321432126 623:5.288867373303278 624:5.4870491785917395 626:5.178747818937223 633:4.975182430317338 634:57.72944618070453 642:4.975182430317338 644:2.8770559819203925 645:2.682899967479435 651:261.4536652643131 655:2.455842516844089 656:2.702702594775615 671:2.52038103798166 684:2.52038103798166 689:9.265095226762798 697:2.8770559819203925 700:2.52038103798166 706:2.4715908738122283 709:5.572168407429332 710:2.4715908738122283 717:5.802307066998906 727:8.491607898856499 733:5.21478482994258 741:5.6161262208668825 743:3.282521090028557 748:2.8080631104334413 750:2.7435245892958697 761:2.8770559819203925 763:5.851692292179649 774:5.251483107278973 786:2.9258461460898246 787:2.702702594775615 792:18.35626523228608 800:2.8770559819203925 806:2.8305359662854994 812:2.6257415536394864 816:2.8535254845101985 820:2.8770559819203925 828:5.6161262208668825 834:18.02284612535722 852:23.49640343527595 855:3.479231384274611 861:2.7229053020931344 883:3.059377538714347 891:2.8305359662854994 897:5.851692292179649 905:2.9511639540741146 921:3.031206661747651 922:2.8080631104334413 924:3.0883650755875993 929:2.9258461460898246 930:3.3188887341994318 944:3.2135282185416054 970:14.280812649921351 988:2.9258461460898246 
4.283414253781937 0:2.231766347900545 3:1.6949764349154095 7:1.1158831739502726 9:1.4461627767559795 15:1.9233777179746172 16:2.644152969918046 17:2.100410385762135 19:4.793668946919541 20:2.353292582561131 29:1.5423623663448023 30:1.9742089730262478 31:1.5135848914406027 33:1.155140086059602 36:1.2676180694862922 37:2.3972503959986815 40:4.401693370170923 54:3.3749438300931125 59:3.7462487555457287 63:1.4217687493135505 65:1.9051953988914268 69:2.901153533499453 70:1.1897755827223582 72:5.206078484647894 73:3.0542585299427536 80:5.218584831007829 81:1.6040903061075051 85:3.1555459955802636 89:3.2081806122150103 93:1.9996050833625014 95:3.248586026850049 99:1.7168858002528495 101:3.041950798793997 102:2.114915929873496 103:2.9461240874022017 109:3.5728237258029196 113:4.516033547028338 120:16.311189784954244 122:4.071690684527938 125:9.188949946669801 130:6.089274364599567 131:1.571300483284514 135:1.4556703009892318 139:1.5648695929542238 143:1.8697934718405107 147:3.262237956990849 149:3.3605033341461383 158:4.676118962375411 161:1.8272338574217148 170:2.126089230471621 175:15.628892758709155 184:1.6379918577831865 187:1.9142452344113448 188:6.151132226207775 191:1.73192367761739 192:1.9325943730795412 195:3.1685753576226507 201:8.881105782125289 209:1.4730620437011008 210:32.75863202040671 219:1.794444034598724 220:1.9512865060916937 223:5.635581455427796 224:2.220276445531322 225:3.9025730121833875 230:1.9897527869194898 233:2.7645779984937024 243:2.455842516844089 260:1.844040975738096 264:2.071430817933757 273:1.9512865060916937 280:5.911004103187165 283:3.9406694021247763 285:4.391769984814326 287:1.7395282770026095 299:2.270920178350077 300:3.9025730121833875 305:12.428584907602541 308:4.059516243066378 317:12.49275664230303 326:21.69029682731515 328:1.694744674375636 335:10.979424962035814 342:2.3380594811877056 363:2.195884992407163 381:10.502966214557945 384:2.310660506999591 394:2.32426615905537 398:6.698096896589638 405:2.28399225991743 413:2.2080063529395075 415:3.8651887461590824 417:6.660829336593967 438:4.8501417163546705 439:4.820065961625589 445:4.594474973334901 446:4.732460716308804 469:4.676118962375411 478:4.391769984814326 483:3.2135282185416054 486:2.4100329808127947 487:2.3806190956065016 496:2.3952178950276544 505:5.326963763244667 524:5.529155996987405 536:9.700283432709341 567:7.511555208091348 568:2.52038103798166 591:2.7645779984937024 603:2.5893739094686117 613:5.36579993495887 617:11.144336814858663 631:2.4403383303081236 632:2.8080631104334413 636:2.5542825896573413 640:15.325695537944048 645:5.36579993495887 646:2.644433686651639 651:65.36341631607827 698:7.8772246609184595 703:2.7229053020931344 710:2.4715908738122283 733:7.8221772449138705 750:2.7435245892958697 752:2.7645779984937024 763:5.851692292179649 767:2.702702594775615 768:2.7229053020931344 777:2.7229053020931344 795:2.8080631104334413 804:7.04736629369089 814:2.644433686651639 828:2.8080631104334413 852:3.3566290621822787 880:3.3188887341994318 891:8.491607898856499 926:16.199104970968897 929:2.9258461460898246 944:16.067641092708026 950:7.448707684615192 979:4.216830327405391 
6.858266575847516 0:0.5579415869751363 3:1.1299842899436063 4:5.116045304541505 5:14.208871831718879 7:1.6738247609254089 10:10.531265869245793 17:1.0502051928810674 30:1.9742089730262478 34:1.8356021070922315 38:4.6374641939505885 49:6.607523879775414 51:2.9578543263069985 57:1.6449123006277602 68:3.7603003034830067 75:5.1957710328521705 81:1.6040903061075051 83:1.3315218714657724 90:1.9703347010623882 97:1.7626953362841438 101:1.5209753993969986 106:2.1720743437134447 115:1.6518809699438535 118:27.860842037146657 120:3.262237956990849 135:1.4556703009892318 148:2.1720743437134447 155:1.6379918577831865 159:1.7395282770026095 187:1.9142452344113448 189:1.7094508217653315 192:1.9325943730795412 195:1.5842876788113254 234:2.1038660936869107 246:1.8697934718405107 264:2.071430817933757 273:3.9025730121833875 281:4.64853231811074 283:3.9406694021247763 319:2.4403383303081236 378:2.1373887857255545 384:2.310660506999591 404:2.114915929873496 440:6.062413323495302 459:2.4100329808127947 499:2.5716743323692106 515:2.2972374866674503 573:2.7435245892958697 580:2.7645779984937024 584:2.3520457231624454 622:5.754111963840785 627:2.5542825896573413 633:2.487591215158669 674:5.36579993495887 687:2.8535254845101985 706:4.943181747624457 871:2.786084203714666 907:2.8770559819203925 947:2.977139440477375 
17.49260287178798 1:2.516278651063497 2:1.490761620800502 5:3.8751468631960577 6:2.7995796851895505 7:0.5579415869751363 16:1.7627686466120307 17:2.100410385762135 20:1.1766462912805655 23:1.8107045554705044 30:0.9871044865131239 40:1.4672311233903077 55:1.4385758676299316 64:1.4385758676299316 72:1.3015196211619735 73:7.635646324856884 74:1.4556703009892318 88:1.9051953988914268 90:11.82200820637433 98:1.3729785851441185 102:4.229831859746992 103:2.9461240874022017 104:1.979996611974125 107:2.487591215158669 117:1.3315218714657724 158:2.3380594811877056 161:1.8272338574217148 195:1.5842876788113254 197:2.148817481549177 212:2.3806190956065016 220:1.9512865060916937 249:3.8651887461590824 254:3.0883650755875993 269:2.366230358154402 319:2.4403383303081236 360:6.565042180057114 379:2.148817481549177 391:4.049776242742224 414:2.8770559819203925 421:2.366230358154402 432:2.901153533499453 439:4.820065961625589 452:2.28399225991743 454:2.195884992407163 464:2.071430817933757 470:6.007615375119073 512:2.5371881562980416 603:2.5893739094686117 622:2.8770559819203925 626:2.5893739094686117 629:2.9258461460898246 643:3.0038076875595365 718:2.682899967479435 739:2.6634818816223333 763:2.9258461460898246 766:5.36579993495887 771:2.7229053020931344 864:3.8421368779639797 870:2.8770559819203925 884:2.901153533499453 886:2.9258461460898246 905:2.9511639540741146 906:2.7435245892958697 
16.10092450179557 6:5.599159370379101 16:0.8813843233060153 24:0.9379717979354791 29:1.5423623663448023 33:2.310280172119204 53:5.609380415521532 64:1.4385758676299316 75:1.73192367761739 95:1.6242930134250244 133:1.9607652500462374 139:1.5648695929542238 148:2.1720743437134447 161:1.8272338574217148 162:5.770133153923852 252:7.462773645476007 299:2.270920178350077 458:1.9996050833625014 461:7.56114311394498 515:2.2972374866674503 573:2.7435245892958697 667:2.901153533499453 684:2.52038103798166 700:2.52038103798166 706:4.943181747624457 879:16.867321309621563 931:2.9258461460898246 
1.3758504573384822 5:3.8751468631960577 7:1.1158831739502726 9:9.400058048913866 10:82.93371872031062 16:10.576611879672184 17:4.20082077152427 19:7.6698703150712655 24:4.689858989677395 25:1.8218862510951197 29:2.3135435495172034 30:3.9484179460524955 31:4.540754674321808 32:4.811182099675552 33:13.861681032715223 38:3.0916427959670587 43:0.9692787025605233 59:4.994998340727638 63:1.4217687493135505 68:1.2534334344943356 70:1.1897755827223582 71:2.60739241497129 72:2.603039242323947 73:3.0542585299427536 76:2.5736988628283597 78:3.1555459955802636 80:1.7395282770026095 81:1.6040903061075051 82:3.5728237258029196 92:1.4273397943630057 95:1.6242930134250244 98:2.745957170288237 101:1.5209753993969986 109:1.7864118629014598 116:9.82795114669912 123:32.20014881313708 128:10.212424286806252 141:2.1720743437134447 154:1.8697934718405107 156:5.335331079756848 159:1.7395282770026095 163:10.913610327642118 166:4.852539979318937 167:1.8272338574217148 169:1.5648695929542238 171:11.115309992436028 172:8.415464374747643 181:5.481701572265145 183:15.028217214474124 184:1.6379918577831865 188:2.050377408735925 192:1.9325943730795412 195:1.5842876788113254 205:20.09957243163886 207:1.7020707144677087 210:2.183908801360447 219:1.794444034598724 222:2.183908801360447 226:26.186810051671518 234:4.207732187373821 235:11.938516721516939 237:11.163494827649396 241:1.9233777179746172 242:9.178010535461157 249:3.8651887461590824 250:2.019605750069171 255:2.160378303950253 265:1.9325943730795412 269:2.366230358154402 270:3.8467554359492344 271:4.790435790055309 278:1.9703347010623882 280:3.9406694021247763 283:1.9703347010623882 288:1.8611354090973962 291:1.73192367761739 292:1.8962267289086663 299:2.270920178350077 301:4.344148687426889 303:4.16425221410101 305:2.071430817933757 308:2.029758121533189 309:6.551726404081341 316:1.9418967657418547 317:8.32850442820202 318:2.050377408735925 320:1.9996050833625014 325:2.6257415536394864 326:2.4100329808127947 328:1.694744674375636 331:2.5716743323692106 337:3.9025730121833875 341:2.3952178950276544 342:4.676118962375411 346:4.10075481747185 354:1.7705385137451697 356:7.185653685082963 363:6.587654977221489 369:2.06084870860322 370:1.9418967657418547 377:2.082126107050505 380:2.019605750069171 398:11.163494827649396 400:2.3520457231624454 411:146.37832966169384 412:2.1720743437134447 418:2.2972374866674503 421:7.098691074463206 430:2.258016773514169 438:4.8501417163546705 443:2.3806190956065016 449:10.187549326006682 456:2.2452777477367394 459:7.230098942438384 460:2.270920178350077 473:2.2080063529395075 485:219.43432620397704 496:2.3952178950276544 507:2.6257415536394864 518:13.128707768197431 525:2.366230358154402 526:2.8770559819203925 545:22.388320936428023 567:2.5038517360304495 574:7.611564468894125 575:2.4100329808127947 593:7.56114311394498 599:2.5542825896573413 604:7.462773645476007 608:2.7435245892958697 622:8.631167945761177 630:2.786084203714666 636:2.5542825896573413 650:2.644433686651639 661:5.326963763244667 683:2.644433686651639 689:6.176730151175199 712:5.6161262208668825 726:83.19326963524598 730:2.644433686651639 748:2.8080631104334413 763:5.851692292179649 767:5.40540518955123 774:5.251483107278973 775:5.572168407429332 782:2.7645779984937024 784:3.523683146845445 806:2.8305359662854994 815:3.2474297702172867 830:5.802307066998906 848:2.8305359662854994 849:3.3566290621822787 861:2.7229053020931344 864:3.8421368779639797 869:9.74228931065186 873:2.5893739094686117 875:12.237510154857388 883:3.059377538714347 887:20.62003061913489 897:2.9258461460898246 915:11.804655816296458 921:3.031206661747651 925:2.977139440477375 929:5.851692292179649 932:3.1807383957186146 963:2.702702594775615 967:3.906675399101551 971:9.542215187155843 973:2.9258461460898246 976:2.901153533499453 977:11.010859863111962 992:2.9258461460898246 999:6.236436077474561 
25.802100282023318 5:2.5834312421307053 7:0.5579415869751363 9:0.7230813883779897 29:0.7711811831724011 30:0.9871044865131239 39:5.9399898359223755 41:2.1945454074781066 47:2.6732218819464872 64:2.8771517352598632 67:2.019605750069171 74:1.4556703009892318 84:1.3836169833491743 89:3.2081806122150103 108:7.8221772449138705 119:1.9703347010623882 121:2.9934635755740118 122:1.3572302281759792 128:1.7020707144677087 138:1.4848268852806874 146:2.3952178950276544 163:1.8189350546070198 171:1.8525516654060048 179:1.8356021070922315 184:1.6379918577831865 205:1.8272338574217148 229:1.9233777179746172 230:1.9897527869194898 231:2.126089230471621 277:9.032067094056677 283:1.9703347010623882 305:4.142861635867514 350:4.761238191213003 365:2.52038103798166 369:2.06084870860322 376:2.682899967479435 384:2.310660506999591 396:4.416012705879015 399:2.1720743437134447 406:2.2972374866674503 442:2.487591215158669 462:2.2972374866674503 480:1.9996050833625014 496:2.3952178950276544 508:2.5893739094686117 530:5.661071932570999 563:5.572168407429332 566:4.975182430317338 592:3.3958497753355603 597:2.4715908738122283 639:2.9258461460898246 670:2.7435245892958697 684:2.52038103798166 700:2.52038103798166 760:2.6257415536394864 
14.39347696320808 108:2.60739241497129 128:3.4041414289354175 133:1.9607652500462374 189:1.7094508217653315 212:9.522476382426007 241:3.8467554359492344 303:20.821261070505052 423:2.4250708581773353 622:14.385279909601962 647:2.9511639540741146 689:9.265095226762798 747:5.6161262208668825 777:24.50614771883821 828:16.84837866260065 856:3.0883650755875993 875:3.059377538714347 910:6.118755077428694 971:3.1807383957186146 
0.23936448132677224 4:0.8526742174235841 5:5.166862484261411 15:1.9233777179746172 17:1.0502051928810674 25:1.8218862510951197 32:2.8867092598053308 47:1.3366109409732436 51:1.4789271631534993 62:3.81717404471685 70:1.1897755827223582 78:1.5777729977901318 89:3.2081806122150103 104:1.979996611974125 115:3.303761939887707 120:9.786713870972548 132:5.481701572265145 137:2.8535254845101985 140:4.16425221410101 146:4.790435790055309 195:1.5842876788113254 211:4.039211500138342 246:1.8697934718405107 250:2.019605750069171 261:2.1038660936869107 268:4.320756607900506 298:2.183908801360447 317:2.082126107050505 319:4.880676660616247 343:1.9897527869194898 445:2.2972374866674503 454:2.195884992407163 477:2.366230358154402 512:5.074376312596083 516:7.8772246609184595 563:2.786084203714666 612:2.5893739094686117 632:2.8080631104334413 635:2.3520457231624454 646:2.644433686651639 764:8.931418321432126 771:2.7229053020931344 876:2.7229053020931344 900:6.361476791437229 912:14.897415369230384 947:2.977139440477375 960:10.310015309567445 
